#include "svmArmsLegs.h"
#include <stdarg.h>
#include <math.h>
#include <stdint.h>

double kernels_AL[294] = { 0 };
double kernel_AL = 0.0;
double val_AL;
double bias_AL;
double decision_AL;

double compute_kernel_AL(double *x, ...) {
	va_list w;
	va_start(w, 40);
	kernel_AL = 0.0;

	for (uint16_t i = 0; i < 40; i++) {
		val_AL = x[i] - va_arg(w, double);
		kernel_AL += val_AL*val_AL;
	}

	return exp(-4.893900918477499 * kernel_AL);
}

int predict_AL(double *x) {

	kernels_AL[0] = compute_kernel_AL(x,   -1.197808454019  , 0.18127291209  , -2.11771780166  , -0.341309925543  , -1.197807380586  , 0.181223515068  , -2.118848019977  , -0.34145842631  , -0.666552912072  , -0.542636048516  , -0.559834089888  , -0.73234399138  , -0.666521006284  , -0.54270754516  , -0.560750428155  , -0.732548943413  , -0.575528197316  , 0.538830368609  , -1.437752384234  , 0.10644010293  , -0.57550934586  , 0.538818372677  , -1.437928121616  , 0.10637562136  , -0.241714187101  , 0.516328482174  , -1.534702017078  , -0.131827727886  , -0.241707738978  , 0.516314937298  , -1.534769267203  , -0.131878311679  , -0.511350529007  , 0.350133309755  , -0.232953059667  , 0.383741819905  , -0.511342004441  , 0.350087533622  , -0.233183703049  , 0.383571046565 );
	kernels_AL[1] = compute_kernel_AL(x,   0.924120653396  , 1.171699711965  , -0.411972401419  , 1.240697445818  , 0.924108804598  , 1.171654226195  , -0.412491290668  , 1.240639029631  , -0.571378511614  , 1.215066432958  , 0.051540892295  , 1.226366112039  , -0.571407992552  , 1.215023441191  , 0.051203277951  , 1.226287946328  , -0.64303452944  , 0.889784354205  , -0.15107540895  , 0.939856184108  , -0.643041159067  , 0.889768563246  , -0.151162657147  , 0.939816567666  , 0.278771280226  , 1.050093109172  , -0.713967558351  , 1.131501598803  , 0.278763049532  , 1.050086214257  , -0.714000797921  , 1.131478196413  , -0.762735756475  , 0.874688896737  , -0.880932149104  , 0.815826025071  , -0.76276795703  , 0.874653039091  , -0.880995420659  , 0.815730161572 );
	kernels_AL[2] = compute_kernel_AL(x,   0.920019656599  , 1.139125020978  , -0.489071124965  , 1.204286931465  , 0.920013234541  , 1.139050677171  , -0.48969376791  , 1.20420030972  , -0.579714863747  , 1.177123849353  , -0.059934146403  , 1.170221210594  , -0.579732376715  , 1.177029757993  , -0.060383056001  , 1.170090943969  , -0.646000083347  , 0.879459619155  , -0.168129815358  , 0.921429057373  , -0.646009095516  , 0.87942511843  , -0.168235801336  , 0.921365564896  , 0.275178902177  , 1.040498633441  , -0.724763918421  , 1.112421878652  , 0.275175728647  , 1.040485299609  , -0.724789574703  , 1.112397378739  , -0.773576525653  , 0.842898643674  , -0.919897854697  , 0.749515567685  , -0.773596500723  , 0.842834030852  , -0.919998490666  , 0.749373202663 );
	kernels_AL[3] = compute_kernel_AL(x,   0.928238230226  , 1.189607732501  , -0.351228376696  , 1.263687764703  , 0.928230780947  , 1.189712483421  , -0.350729308875  , 1.263882941359  , -0.561100759723  , 1.241137493785  , 0.124622545646  , 1.26554629934  , -0.561114207804  , 1.241316797751  , 0.125253892395  , 1.265848679586  , -0.639720761323  , 0.897979231974  , -0.137453220224  , 0.954765262624  , -0.639726715141  , 0.898026229759  , -0.137359934243  , 0.954865202396  , 0.28155286232  , 1.055215730795  , -0.707847377473  , 1.142076714108  , 0.281546747536  , 1.055244126572  , -0.707802566882  , 1.142145880381  , -0.752459188728  , 0.893872446436  , -0.856423641495  , 0.857020629662  , -0.752480621995  , 0.893985266244  , -0.856166954677  , 0.857308394464 );
	kernels_AL[4] = compute_kernel_AL(x,   -0.650354268805  , -0.71227136756  , 1.254534318335  , -0.705696686591  , -0.650373290697  , -0.712407049559  , 1.25405331801  , -0.70591773885  , -0.651147656115  , -0.916213622724  , 1.722232398415  , -0.94067369079  , -0.651180543548  , -0.916378811719  , 1.721782689836  , -0.940973451525  , -0.775492561584  , -1.114796201766  , 1.412492876937  , -0.959794433905  , -0.775502111956  , -1.114852942055  , 1.412396696979  , -0.959918700638  , -1.925894066778  , -1.524642545513  , 1.721209735411  , -1.498606462864  , -1.925904249714  , -1.524670796116  , 1.721168228228  , -1.498683027853  , 1.633873182499  , -0.74542506336  , 0.578294699515  , -0.638768260722  , 1.633839400867  , -0.745541989005  , 0.578077259342  , -0.639056115688 );
	kernels_AL[5] = compute_kernel_AL(x,   -0.748708376209  , -0.924521279453  , 0.430892930573  , -1.036484236214  , -0.748721488277  , -0.92455491488  , 0.430786538713  , -1.036568522564  , 0.006262256281  , -0.909222723502  , 0.094466156704  , -1.032655599641  , 0.006237501888  , -0.909271122656  , 0.09422082541  , -1.032771351503  , 1.377203398678  , 0.072304317821  , -1.182006183217  , -0.190543234863  , 1.377188892328  , 0.072299222279  , -1.182062720924  , -0.190567418043  , 1.488720657707  , -0.54232459605  , 0.16522143476  , -0.410987263108  , 1.488713309947  , -0.542334312311  , 0.165201142658  , -0.411014757512  , 1.316753919531  , 0.180306388966  , -0.276802139058  , 0.239852223225  , 1.316724823215  , 0.180277030371  , -0.276891545505  , 0.239761437092 );
	kernels_AL[6] = compute_kernel_AL(x,   0.922543142913  , 1.159483676729  , -0.448124893553  , 1.226097185239  , 0.922542523603  , 1.159429956354  , -0.448873745492  , 1.226008774442  , -0.574966578318  , 1.19823893079  , -0.008082917489  , 1.199925919736  , -0.57493947914  , 1.198191306414  , -0.008724228541  , 1.19981237066  , -0.644456959788  , 0.884869788736  , -0.160323635376  , 0.930630106563  , -0.644452455587  , 0.8848456136  , -0.160447857736  , 0.930571512442  , 0.277340731323  , 1.046460115827  , -0.718935903138  , 1.123755249765  , 0.277350669071  , 1.046449872285  , -0.71898905839  , 1.123721194641  , -0.767594898252  , 0.860023463515  , -0.902153724127  , 0.783398866047  , -0.767561804198  , 0.859989523492  , -0.902310378974  , 0.783273951589 );
	kernels_AL[7] = compute_kernel_AL(x,   0.920706654399  , 1.146897703454  , -0.475844603452  , 1.21205431297  , 0.920694418529  , 1.146827584328  , -0.476451058305  , 1.211965171729  , -0.578750402005  , 1.182083453769  , -0.040275589929  , 1.178222611479  , -0.578755661081  , 1.18198947945  , -0.04083426545  , 1.178069615175  , -0.645647156368  , 0.880678012691  , -0.165742345608  , 0.923712894812  , -0.64565503805  , 0.880643503227  , -0.165851962199  , 0.923644760406  , 0.275691071396  , 1.042016745787  , -0.722506136122  , 1.115714076994  , 0.275689918158  , 1.042000687982  , -0.722544016172  , 1.11567707493  , -0.772391261818  , 0.846977412622  , -0.913601316926  , 0.758517686359  , -0.772398584597  , 0.846903798951  , -0.913731087491  , 0.75833925618 );
	kernels_AL[8] = compute_kernel_AL(x,   -1.161996713332  , -0.582361797582  , -0.194875496469  , -0.844311948365  , -1.162010119547  , -0.582454415394  , -0.195484436235  , -0.844487587422  , 0.364265574812  , -0.669975993462  , -0.9953946197  , -0.778330243123  , 0.364254455132  , -0.670090652179  , -0.996096379202  , -0.778552639648  , 1.064770117025  , -0.013400802383  , -1.062389902204  , -0.253556812645  , 1.064757493705  , -0.013430250834  , -1.062513923962  , -0.253632460575  , -0.598477366372  , 0.176732997213  , -0.300484405857  , 0.01598205384  , -0.598484270852  , 0.176716184184  , -0.300530449973  , 0.015933471934  , -0.39576758416  , -0.51241533649  , 0.579314782042  , -0.535627243971  , -0.395785509287  , -0.512498807369  , 0.579116601692  , -0.535852481312 );
	kernels_AL[9] = compute_kernel_AL(x,   0.926027733334  , 1.182455903438  , -0.370893204976  , 1.254839712506  , 0.926021948602  , 1.182393065444  , -0.371615273706  , 1.254746949725  , -0.567170108249  , 1.230606482551  , 0.105096679325  , 1.250716603149  , -0.567177458223  , 1.230532890454  , 0.104469904112  , 1.250578814577  , -0.64139522437  , 0.894872505795  , -0.141547602091  , 0.949360702108  , -0.641402912787  , 0.89484727358  , -0.141671445769  , 0.949299397576  , 0.280165309119  , 1.053334903668  , -0.709655438907  , 1.138334572358  , 0.280157671164  , 1.053320526695  , -0.709710067895  , 1.138291948312  , -0.758350181415  , 0.886334899151  , -0.863349591889  , 0.841691082691  , -0.758364439192  , 0.886276984685  , -0.863512283677  , 0.841529248094 );
	kernels_AL[10] = compute_kernel_AL(x,   -1.160917379065  , -0.576437501348  , -0.160395564463  , -0.834914303499  , -1.160937527027  , -0.576562828478  , -0.16111078567  , -0.835135255506  , 0.366120603073  , -0.663502400931  , -0.963166222988  , -0.766549595399  , 0.366085126858  , -0.663658900212  , -0.963965925802  , -0.766837306436  , 1.065579416395  , -0.010904882073  , -1.055764581682  , -0.248177280485  , 1.06556398303  , -0.010951124326  , -1.055914221167  , -0.248285658755  , -0.597921368087  , 0.177902149024  , -0.298180733674  , 0.018936072018  , -0.597929619432  , 0.177876674496  , -0.298234412266  , 0.01887016817  , -0.394005880843  , -0.508406941765  , 0.58695454905  , -0.525498402866  , -0.394039111617  , -0.508517227476  , 0.586732015015  , -0.525778607819 );
	kernels_AL[11] = compute_kernel_AL(x,   0.928842521435  , 1.192087031943  , -0.338442739234  , 1.267422851054  , 0.928843655458  , 1.192071109214  , -0.338599490828  , 1.267432091389  , -0.559623577663  , 1.244842186715  , 0.138646874096  , 1.271658931839  , -0.559620308412  , 1.244822091058  , 0.138672631393  , 1.271663165086  , -0.639239426202  , 0.899035427867  , -0.135025284886  , 0.95694116528  , -0.639240565698  , 0.899021022324  , -0.135027597804  , 0.956933216441  , 0.2819500404  , 1.055846165041  , -0.706741431266  , 1.143586481389  , 0.281949592064  , 1.055837017582  , -0.706739444826  , 1.14357954311  , -0.7509357878  , 0.896558763982  , -0.851636729402  , 0.863504020831  , -0.750920341799  , 0.896540601336  , -0.851582755587  , 0.863499067409 );
	kernels_AL[12] = compute_kernel_AL(x,   0.924198213162  , 1.172507600239  , -0.408543303249  , 1.241768371959  , 0.92418585173  , 1.17244099372  , -0.409222609175  , 1.241674929269  , -0.571062999215  , 1.216562680849  , 0.056562704229  , 1.228642210474  , -0.571092392367  , 1.216493664709  , 0.056031778176  , 1.228513697175  , -0.642923800265  , 0.89024150103  , -0.15026241848  , 0.940671169934  , -0.642932777825  , 0.890218993915  , -0.15037540163  , 0.940615928617  , 0.278860193247  , 1.050396776322  , -0.713569846022  , 1.132122077507  , 0.278851704801  , 1.050382410942  , -0.713616850243  , 1.132082300265  , -0.762430488469  , 0.87579389394  , -0.879270596241  , 0.818219399239  , -0.762461521607  , 0.875741704089  , -0.879396617925  , 0.818074075416 );
	kernels_AL[13] = compute_kernel_AL(x,   -0.651063531499  , -0.717227350015  , 1.236325107238  , -0.712432120158  , -0.651083531374  , -0.717363488355  , 1.235827094009  , -0.712654497268  , -0.652429561807  , -0.921859044672  , 1.703671087435  , -0.949872138185  , -0.652460895089  , -0.922025119432  , 1.703193474382  , -0.950174874829  , -0.776063242359  , -1.116939376787  , 1.408873046068  , -0.963842770407  , -0.776070834333  , -1.116996176779  , 1.408769435576  , -0.963967127528  , -1.926312222582  , -1.525777884238  , 1.719895755062  , -1.501177980972  , -1.926320682651  , -1.525806238071  , 1.719851180616  , -1.501255527509  , 1.632543835876  , -0.749577478931  , 0.572379185477  , -0.648286368711  , 1.632510589322  , -0.749693491498  , 0.572154695972  , -0.648574621535 );
	kernels_AL[14] = compute_kernel_AL(x,   -1.646192524819  , -0.442965716037  , 1.957884341931  , -0.466420214256  , -1.64619763693  , -0.442922607222  , 1.958653660394  , -0.466336468753  , 0.00832792649  , -0.205523255428  , 0.706739349151  , -0.095482756872  , 0.008308773055  , -0.205458241614  , 0.707266813808  , -0.095345462943  , 1.271874734978  , 0.284887448376  , 0.108419377083  , 0.687102643297  , 1.271863188829  , 0.284911813762  , 0.108521300681  , 0.687182528131  , -0.351560885532  , -1.295836022199  , 1.369520371201  , -1.227206765348  , -0.351566410533  , -1.295828211055  , 1.369566994941  , -1.227174477067  , 0.948964841419  , 0.797661391068  , -0.607687489888  , 0.940759573605  , 0.948946923519  , 0.79773052941  , -0.607494048641  , 0.940970667525 );
	kernels_AL[15] = compute_kernel_AL(x,   0.926022715466  , 1.182416780113  , -0.371040166326  , 1.254787091931  , 0.926011560173  , 1.182351288857  , -0.371713264158  , 1.254699198942  , -0.567186878108  , 1.23054264168  , 0.104887437161  , 1.250615709229  , -0.567207705996  , 1.230459746924  , 0.104326988672  , 1.250477916152  , -0.641399957213  , 0.894850125569  , -0.14158438899  , 0.949318466758  , -0.641408104009  , 0.894821141078  , -0.141700875881  , 0.94925872559  , 0.280161249406  , 1.053321529253  , -0.709672265198  , 1.138306631547  , 0.280153646287  , 1.053302912632  , -0.7097207756  , 1.138263043821  , -0.758368255014  , 0.886291243464  , -0.86341470354  , 0.841593423696  , -0.758392684877  , 0.886226825779  , -0.863558101553  , 0.841430127359 );
	kernels_AL[16] = compute_kernel_AL(x,   0.086572489724  , -1.000499661203  , -0.023735505155  , -0.992547030764  , 0.086556654353  , -1.000635253635  , -0.02437210975  , -0.992768386034  , 2.050210961681  , -0.450270338447  , -2.221150526371  , -0.500095592637  , 2.050162881404  , -0.45041804061  , -2.222040336435  , -0.500354305533  , 2.121656272082  , -0.718509131214  , -0.490684703774  , -0.761865505812  , 2.121635613061  , -0.718558879191  , -0.490808231455  , -0.76197596749  , 0.858366496292  , -0.615389232542  , 0.408056934525  , -0.517383945241  , 0.858358048457  , -0.61541445498  , 0.408010571962  , -0.517447835982  , -1.237056291588  , -2.188235123649  , 2.3139832052  , -2.284801870425  , -1.237092964174  , -2.18836310589  , 2.313730754936  , -2.285132292 );
	kernels_AL[17] = compute_kernel_AL(x,   1.349123904229  , -1.638117263954  , -0.399942565186  , -1.076968947289  , 1.349110268628  , -1.638280680181  , -0.400725437156  , -1.07721710742  , 2.396095124099  , -1.439599490207  , -0.617880928241  , -1.068942354521  , 2.396041406692  , -1.439779509259  , -0.618672014363  , -1.069258958159  , -0.493487782626  , -2.375407775146  , 2.014396440813  , -2.350803168769  , -0.493500651816  , -2.375478803481  , 2.014301363984  , -2.350966314455  , 1.303526295745  , -0.434404959469  , 0.028810694905  , -0.375374290531  , 1.303514969271  , -0.434433936094  , 0.028755927835  , -0.37544778193  , 0.426644760769  , -1.487782825486  , 1.503499905027  , -1.496566972446  , 0.426604942725  , -1.487913113123  , 1.503241462039  , -1.49690234479 );
	kernels_AL[18] = compute_kernel_AL(x,   -0.748596757596  , -0.923881385371  , 0.433314293771  , -1.035627690192  , -0.748619106116  , -0.92402702148  , 0.432669355248  , -1.035873699947  , 0.006448119989  , -0.908603560285  , 0.096660647691  , -1.031661196005  , 0.006408568315  , -0.908773650468  , 0.095961331305  , -1.031976135104  , 1.377301674583  , 0.072557164341  , -1.181527953529  , -0.190067696108  , 1.37728051997  , 0.072506105053  , -1.181687486986  , -0.190182598486  , 1.488784312385  , -0.54221034945  , 0.165369812052  , -0.410735795807  , 1.488773000142  , -0.542239464094  , 0.16531586806  , -0.41080953563  , 1.316915324209  , 0.180738847947  , -0.27626918814  , 0.240757390922  , 1.316876732524  , 0.180631095192  , -0.276471950218  , 0.240494638998 );
	kernels_AL[19] = compute_kernel_AL(x,   -1.645453140848  , -0.439283180296  , 1.970544012521  , -0.461496292698  , -1.645458655134  , -0.439367942383  , 1.970440511861  , -0.461624733335  , 0.009659457229  , -0.201204931117  , 0.718967257072  , -0.08885966954  , 0.009660752948  , -0.201297820554  , 0.718638799539  , -0.089006818677  , 1.272444278898  , 0.286499414985  , 0.111012853467  , 0.690032525162  , 1.272435339675  , 0.28646971291  , 0.110945606223  , 0.689988895149  , -0.351164301343  , -1.294998140641  , 1.370454995174  , -1.225354000522  , -0.35116640063  , -1.295018237494  , 1.370432789307  , -1.225401668315  , 0.950424540515  , 0.801071134317  , -0.603402178658  , 0.948049015879  , 0.950425363414  , 0.801020973068  , -0.60349824754  , 0.947951391032 );
	kernels_AL[20] = compute_kernel_AL(x,   0.928842018105  , 1.192079524728  , -0.33850572267  , 1.267409208683  , 0.928826636855  , 1.191986563144  , -0.339278424671  , 1.267282992005  , -0.559624824452  , 1.244825605057  , 0.138549908216  , 1.271626440577  , -0.559661020468  , 1.244695780941  , 0.137855971735  , 1.27141433931  , -0.639240036948  , 0.899029698018  , -0.135043678335  , 0.95692708683  , -0.639252260625  , 0.898985380602  , -0.135182105896  , 0.956837793706  , 0.281949333035  , 1.055843185489  , -0.70674907958  , 1.143577810103  , 0.28193792809  , 1.055816116768  , -0.706808280067  , 1.143514989748  , -0.750937030638  , 0.896546015977  , -0.851668079456  , 0.863469038504  , -0.750978470817  , 0.896447930841  , -0.85185283991  , 0.86323231602 );
	kernels_AL[21] = compute_kernel_AL(x,   0.088007303276  , -0.994374900737  , 0.012374998021  , -0.982806377707  , 0.08800748163  , -0.994390836046  , 0.012493298014  , -0.982840121205  , 2.053042642826  , -0.44305564391  , -2.186472465301  , -0.487300875513  , 2.053062240009  , -0.442983278663  , -2.186781055723  , -0.487249481301  , 2.122877209558  , -0.715736045614  , -0.48372462247  , -0.755996356447  , 2.122879842741  , -0.715704741771  , -0.483726610562  , -0.755969028055  , 0.859211439162  , -0.613991781631  , 0.410553344221  , -0.513924102032  , 0.859219490951  , -0.613975576753  , 0.410549827521  , -0.513907035894  , -1.234133283746  , -2.182719582347  , 2.32467598516  , -2.27033522084  , -1.234116678618  , -2.182710537917  , 2.324604060405  , -2.270360387214 );
	kernels_AL[22] = compute_kernel_AL(x,   -0.651244323299  , -0.7180491517  , 1.231692325628  , -0.713722298694  , -0.651244995516  , -0.718137944032  , 1.231634502543  , -0.713856062887  , -0.652815241084  , -0.922849218344  , 1.699195346514  , -0.951664287817  , -0.652817734908  , -0.922947522818  , 1.699202050306  , -0.951834568411  , -0.77619681543  , -1.117292522337  , 1.407993839181  , -0.964607699522  , -0.776198801086  , -1.117326645539  , 1.407978501295  , -0.964678887279  , -1.926415180276  , -1.525966561734  , 1.71955616992  , -1.501669353858  , -1.9264193758  , -1.525982067488  , 1.719548305555  , -1.501711254976  , 1.632166590078  , -0.750296744441  , 0.570903321396  , -0.650159380773  , 1.632165652512  , -0.750366700023  , 0.570830800496  , -0.650312149708 );
	kernels_AL[23] = compute_kernel_AL(x,   0.929505708492  , 1.196201130081  , -0.320499458198  , 1.273075665018  , 0.929502088045  , 1.196159002344  , -0.321276178845  , 1.272990672325  , -0.557991840558  , 1.250861206804  , 0.158310534038  , 1.280874479899  , -0.558003944628  , 1.250809705685  , 0.157598718956  , 1.280738892895  , -0.63867364328  , 0.900895041995  , -0.131276699871  , 0.960487370399  , -0.638677700693  , 0.900880658768  , -0.131411372693  , 0.960432571524  , 0.28242563148  , 1.056951719209  , -0.705086336112  , 1.146007697202  , 0.282421015712  , 1.056940802484  , -0.705143996905  , 1.145966090544  , -0.749317902525  , 0.900860668115  , -0.844775890659  , 0.873182464482  , -0.749333118391  , 0.900820627199  , -0.844960866738  , 0.873027776861 );
	kernels_AL[24] = compute_kernel_AL(x,   -1.200503869042  , 0.164149792204  , -2.24346773026  , -0.370539680355  , -1.200516781717  , 0.164069924421  , -2.244226802827  , -0.370679956457  , -0.671662889795  , -0.562170347141  , -0.66851753191  , -0.769051422605  , -0.671665560937  , -0.562288263914  , -0.669013978126  , -0.769259723704  , -0.577436419602  , 0.53132246254  , -1.461704334218  , 0.089389535747  , -0.577439878413  , 0.53129369652  , -1.461803300625  , 0.089324673485  , -0.242825476045  , 0.513167775624  , -1.543127399801  , -0.140434461215  , -0.242832338171  , 0.513148635165  , -1.543168696284  , -0.140483178506  , -0.516711290463  , 0.336885016802  , -0.262229187028  , 0.349244873233  , -0.51671900622  , 0.33681533132  , -0.262352809937  , 0.349081403863 );
	kernels_AL[25] = compute_kernel_AL(x,   -1.198224359702  , 0.177955509352  , -2.142834196214  , -0.347243382572  , -1.198248575758  , 0.177837302263  , -2.143905578321  , -0.347453585834  , -0.667404793036  , -0.546400305359  , -0.581682033882  , -0.739791330738  , -0.667440350136  , -0.546563622855  , -0.582468470922  , -0.740093238349  , -0.57590509377  , 0.537411881153  , -1.442450071245  , 0.103011218227  , -0.575917597947  , 0.537364613874  , -1.442614867079  , 0.102902859499  , -0.241923072486  , 0.515741452149  , -1.536349463918  , -0.133541752132  , -0.241934517672  , 0.515713691958  , -1.536413664628  , -0.133613544593  , -0.512035114046  , 0.347575858041  , -0.238984327751  , 0.376754100196  , -0.512076225135  , 0.34747035857  , -0.239188256303  , 0.376497032955 );
	kernels_AL[26] = compute_kernel_AL(x,   -0.750081525974  , -0.931994327166  , 0.387889240259  , -1.048309248704  , -0.750100248904  , -0.932109485562  , 0.387292776829  , -1.048521810391  , 0.003845140803  , -0.917140388265  , 0.055873736128  , -1.047049228889  , 0.003809665947  , -0.9172844902  , 0.055250847379  , -1.047325521753  , 1.376060994901  , 0.069099373812  , -1.190239091229  , -0.197316533569  , 1.376041507776  , 0.069061049601  , -1.19037672779  , -0.197408133186  , 1.487994277979  , -0.543767391543  , 0.162513931597  , -0.414588737325  , 1.487984103533  , -0.543790654284  , 0.16246608908  , -0.414649015454  , 1.31457440485  , 0.17517417237  , -0.286260209199  , 0.227351871906  , 1.314538485366  , 0.175084508627  , -0.286438544031  , 0.227125001076 );
	kernels_AL[27] = compute_kernel_AL(x,   0.088216596303  , -0.992611734032  , 0.02432085634  , -0.979848906516  , 0.088198795774  , -0.992748998464  , 0.023685207452  , -0.980073499312  , 2.053455952937  , -0.440913007943  , -2.175443872222  , -0.483463486416  , 2.053404920241  , -0.441062007921  , -2.176348228598  , -0.483727442216  , 2.1230699037  , -0.714948199092  , -0.481521087216  , -0.754278785551  , 2.123046023889  , -0.71499903514  , -0.481648108845  , -0.754390642147  , 0.859351735104  , -0.613601666096  , 0.411359476519  , -0.512918232829  , 0.859340744125  , -0.613627430872  , 0.411313133861  , -0.512984019163  , -1.233708355171  , -2.181120811209  , 2.328066614079  , -2.266071749804  , -1.233749643908  , -2.181251078761  , 2.327808900274  , -2.266408676747 );
	kernels_AL[28] = compute_kernel_AL(x,   0.924254305773  , 1.173058655061  , -0.407003708152  , 1.242407614497  , 0.924239101769  , 1.172983198998  , -0.407675759903  , 1.242306409011  , -0.570950317052  , 1.217317578924  , 0.059277748893  , 1.22981959122  , -0.570985444714  , 1.217215763345  , 0.058747171537  , 1.229657782704  , -0.642862463971  , 0.890508552348  , -0.149809939622  , 0.941146708688  , -0.642873782529  , 0.890475125924  , -0.149919234881  , 0.941078963532  , 0.278911236921  , 1.050579017694  , -0.713357222893  , 1.132482417624  , 0.278900285971  , 1.050559707373  , -0.713401166488  , 1.132436862016  , -0.762289447082  , 0.876401163883  , -0.878361444675  , 0.81954143966  , -0.762330181401  , 0.87632588653  , -0.878489906269  , 0.81936118731 );
	kernels_AL[29] = compute_kernel_AL(x,   -1.198612377516  , 0.173528169825  , -2.172387423911  , -0.354472864868  , -1.198625832292  , 0.174623390795  , -2.16383263659  , -0.352551225539  , -0.668283867524  , -0.551511621025  , -0.607485165121  , -0.7489837929  , -0.668299752238  , -0.550298518818  , -0.599740822678  , -0.746627693966  , -0.576255715048  , 0.535387472393  , -1.447979142175  , 0.098706341081  , -0.576255308334  , 0.5358639888  , -1.446348812641  , 0.099821174424  , -0.242125748179  , 0.514890890715  , -1.538284487364  , -0.135703792834  , -0.242128598322  , 0.515079749981  , -1.53771541552  , -0.135160898319  , -0.512727800418  , 0.344096907555  , -0.245927158943  , 0.368164481455  , -0.51274614429  , 0.344933418619  , -0.243811038867  , 0.370420057323 );
	kernels_AL[30] = compute_kernel_AL(x,   -0.650635371216  , -0.713789975581  , 1.245170780884  , -0.708237091005  , -0.6506480411  , -0.713854953009  , 1.245122188277  , -0.70833451317  , -0.65175581588  , -0.918166816273  , 1.712938984257  , -0.944330667878  , -0.651778525613  , -0.91824676226  , 1.712916828429  , -0.944457867468  , -0.775735359804  , -1.115477871038  , 1.410727105781  , -0.961330549224  , -0.775740650245  , -1.115506508064  , 1.410715501785  , -0.961382892125  , -1.926071039711  , -1.525008795085  , 1.720522916812  , -1.499596916448  , -1.926078804163  , -1.525019718426  , 1.720515058274  , -1.499624350761  , 1.633287890675  , -0.746858969362  , 0.575304386671  , -0.642576961515  , 1.633260949088  , -0.746912530754  , 0.575226905147  , -0.642685683767 );
	kernels_AL[31] = compute_kernel_AL(x,   0.924195710016  , 1.172489833406  , -0.408634279323  , 1.241743036127  , 0.924181877214  , 1.172408750358  , -0.409348596899  , 1.241634000026  , -0.571069728372  , 1.216531461361  , 0.056404496739  , 1.228590053448  , -0.571100479076  , 1.216423245412  , 0.055827613262  , 1.228416219036  , -0.642931039885  , 0.890230456995  , -0.150291847999  , 0.940649270123  , -0.642937505603  , 0.890193231051  , -0.150408510506  , 0.940575256631  , 0.278854505549  , 1.050389600767  , -0.713582083325  , 1.132105698411  , 0.278846992458  , 1.050367672207  , -0.713632146964  , 1.132055322741  , -0.762437197765  , 0.875770744846  , -0.879323650179  , 0.818165468152  , -0.762474595759  , 0.875689848426  , -0.879466550473  , 0.81796912405 );
	kernels_AL[32] = compute_kernel_AL(x,   -0.749744765372  , -0.931015859854  , 0.392298080763  , -1.046893365462  , -0.749743700854  , -0.93112653217  , 0.391632353973  , -1.047101955478  , 0.00441908069  , -0.916130853286  , 0.059920785787  , -1.045322916815  , 0.004422434362  , -0.916261963311  , 0.059201438472  , -1.045588871745  , 1.376349398614  , 0.069526156343  , -1.189359884341  , -0.19647808366  , 1.376340961119  , 0.069487739884  , -1.189515896991  , -0.196574357478  , 1.488182318349  , -0.543571440385  , 0.162796919216  , -0.414137830441  , 1.488177676113  , -0.543595072074  , 0.162744489388  , -0.414200995851  , 1.31512223975  , 0.175841867853  , -0.285266653641  , 0.228880891092  , 1.315114777271  , 0.175759841465  , -0.285473957163  , 0.228659914806 );
	kernels_AL[33] = compute_kernel_AL(x,   -1.198265249061  , 0.177594378901  , -2.144408782109  , -0.347745226942  , -1.198285660743  , 0.17756124742  , -2.145179454192  , -0.347847286167  , -0.667486728875  , -0.546764591311  , -0.583197763703  , -0.74041293989  , -0.667503399008  , -0.546829116866  , -0.583739397514  , -0.740570368189  , -0.575930268674  , 0.537252447069  , -1.442803225476  , 0.102699928055  , -0.575939012489  , 0.537245330776  , -1.442898131915  , 0.102661956199  , -0.241938826615  , 0.515669552011  , -1.536468777616  , -0.13370168919  , -0.241948534562  , 0.5156585231  , -1.536510033966  , -0.133739760868  , -0.512119763388  , 0.347305973957  , -0.23938946691  , 0.37614336708  , -0.512147909489  , 0.347270341493  , -0.239525861706  , 0.376024751807 );
	kernels_AL[34] = compute_kernel_AL(x,   -1.645943986348  , -0.441881585553  , 1.961943274459  , -0.464920527876  , -1.645969931938  , -0.442003842495  , 1.961586374625  , -0.465122234559  , 0.008806587968  , -0.204309181374  , 0.710929295897  , -0.093490529467  , 0.008767358534  , -0.204449335952  , 0.710359912261  , -0.09373963886  , 1.272075141167  , 0.285346088985  , 0.10931329873  , 0.687998971278  , 1.272054649729  , 0.285306204622  , 0.109190835747  , 0.687917752489  , -0.351419004152  , -1.295594657062  , 1.369847719041  , -1.226636387409  , -0.351430178882  , -1.295619879641  , 1.369804094105  , -1.226707187804  , 0.949474446051  , 0.798626378372  , -0.606228506605  , 0.942963460171  , 0.949435736139  , 0.798541797869  , -0.60640406548  , 0.942757756065 );
	kernels_AL[35] = compute_kernel_AL(x,   -0.649247325306  , -0.707165849681  , 1.287194728863  , -0.697199438226  , -0.649251903701  , -0.707244480471  , 1.286740132944  , -0.697362552658  , -0.648875477495  , -0.910053514389  , 1.755491695544  , -0.928781888748  , -0.648876682074  , -0.910154807368  , 1.755041154388  , -0.929002451966  , -0.774622029452  , -1.112536154903  , 1.419004158072  , -0.954597921595  , -0.774619553866  , -1.11256336755  , 1.4189117882  , -0.954681400318  , -1.925257235447  , -1.523442250451  , 1.723718382409  , -1.495298848903  , -1.925259080542  , -1.523454813597  , 1.723675360674  , -1.495350340096  , 1.636034285397  , -0.740861440233  , 0.588956129421  , -0.626298518939  , 1.636033639194  , -0.740925559649  , 0.588743178634  , -0.626496935538 );
	kernels_AL[36] = compute_kernel_AL(x,   0.92419393666  , 1.172456164201  , -0.408711259078  , 1.241708930199  , 0.924179987366  , 1.172380865665  , -0.409467585304  , 1.241598917819  , -0.571077232418  , 1.216470201511  , 0.056287116989  , 1.228513955491  , -0.571106154182  , 1.216371830642  , 0.055618344225  , 1.228337552467  , -0.642933065165  , 0.890210072159  , -0.150313920139  , 0.940617984678  , -0.642943811319  , 0.890175405471  , -0.150445298147  , 0.940543970488  , 0.278853230599  , 1.050376731252  , -0.713592790964  , 1.132083538457  , 0.278842828406  , 1.050356331071  , -0.713648973356  , 1.132032199148  , -0.762442180047  , 0.87572638512  , -0.879364646403  , 0.818085300321  , -0.762478826573  , 0.875650102155  , -0.879534071554  , 0.817884579894 );
	kernels_AL[37] = compute_kernel_AL(x,   -1.198777859999  , 0.171612681167  , -2.185795897571  , -0.357645690634  , -1.198794684141  , 0.171532992517  , -2.186860392721  , -0.357821352766  , -0.668607509439  , -0.553533148543  , -0.619575279422  , -0.752846832994  , -0.668630722684  , -0.553650855297  , -0.620351270784  , -0.753098019228  , -0.576396817466  , 0.534565760627  , -1.450517438211  , 0.096873014041  , -0.576405176554  , 0.534542364399  , -1.450678717987  , 0.096791111486  , -0.242213296994  , 0.514540800811  , -1.539174751116  , -0.13663451089  , -0.242222426931  , 0.514523970517  , -1.539237439184  , -0.13669090935  , -0.513035772156  , 0.342719508586  , -0.249235795412  , 0.364526319504  , -0.513062234258  , 0.342652593119  , -0.249436991775  , 0.364325589796 );
	kernels_AL[38] = compute_kernel_AL(x,   -0.652670177355  , -0.728530594782  , 1.17891920461  , -0.729294090995  , -0.652688642638  , -0.728646922309  , 1.1785376764  , -0.729488110012  , -0.655921545063  , -0.93661442103  , 1.647333910665  , -0.97446802383  , -0.655950252034  , -0.936747631992  , 1.646981769331  , -0.974720554354  , -0.77738911387  , -1.122077226031  , 1.398042982982  , -0.974057467994  , -0.777397456295  , -1.122125291123  , 1.397964905414  , -0.974163281496  , -1.927314327377  , -1.528580065813  , 1.71575342819  , -1.507838492278  , -1.9273232513  , -1.528604022231  , 1.71571953648  , -1.507904523811  , 1.628961427914  , -0.760594207282  , 0.5541310425  , -0.674203899821  , 1.628929496893  , -0.760686529986  , 0.553948118839  , -0.674442217976 );
	kernels_AL[39] = compute_kernel_AL(x,   1.347620864935  , -1.647238015272  , -0.448726735272  , -1.090688300469  , 1.347615846776  , -1.647381861987  , -0.449461688202  , -1.09091086256  , 2.393489295759  , -1.449668887392  , -0.661888127741  , -1.086145622934  , 2.393450403221  , -1.449823283271  , -0.66261340806  , -1.086424516456  , -0.494496608401  , -2.379244760836  , 2.005442509579  , -2.358766878634  , -0.494501919656  , -2.379304062776  , 2.005358288457  , -2.358909866135  , 1.302875999492  , -0.436159391455  , 0.025729954018  , -0.379534580973  , 1.302869089318  , -0.436182469415  , 0.025679757396  , -0.379596539802  , 0.424344177006  , -1.494245633083  , 1.493532999394  , -1.511696828637  , 0.424317384227  , -1.494356390842  , 1.493286925562  , -1.511994934306 );
	kernels_AL[40] = compute_kernel_AL(x,   0.087270132245  , -0.997268126799  , -0.004693513073  , -0.987407754631  , 0.087298640477  , -0.997167402556  , -0.00361913196  , -0.987204932568  , 2.051626315074  , -0.446417683206  , -2.202823974891  , -0.493292948328  , 2.0516703792  , -0.446257881337  , -2.202159777898  , -0.492974184304  , 2.1222691368  , -0.71704691441  , -0.487009692557  , -0.758766682546  , 2.122279203608  , -0.716989744858  , -0.486816772406  , -0.758625221587  , 0.858795928535  , -0.614651943179  , 0.409381622513  , -0.515551413416  , 0.858807075685  , -0.614624236142  , 0.409451523008  , -0.515467878382  , -1.235582078838  , -2.185316893514  , 2.319672034232  , -2.277129080156  , -1.235540053744  , -2.185210125701  , 2.319901699424  , -2.276810523259 );
	kernels_AL[41] = compute_kernel_AL(x,   1.34703205885  , -1.650920207361  , -0.468468543307  , -1.096283621583  , 1.3470200304  , -1.65107717085  , -0.469178766931  , -1.096515245267  , 2.392587392699  , -1.453591456617  , -0.680081989068  , -1.093046596063  , 2.392535851357  , -1.453765264866  , -0.680773877194  , -1.093338623773  , -0.494908853252  , -2.380818392041  , 2.001771177052  , -2.362076878649  , -0.494919776787  , -2.38088482329  , 2.001701596941  , -2.362224632974  , 1.302597387499  , -0.43689017282  , 0.024463393217  , -0.381286180793  , 1.302588043207  , -0.436916633701  , 0.024416248304  , -0.381350078893  , 0.423418981599  , -1.496836427054  , 1.489312799816  , -1.517923682745  , 0.423381133064  , -1.496961708137  , 1.489081326817  , -1.518235167618 );
	kernels_AL[42] = compute_kernel_AL(x,   -1.161158835063  , -0.577855714136  , -0.167379727675  , -0.837020100943  , -1.161145060304  , -0.577841385151  , -0.167417171163  , -0.837032618249  , 0.365769759736  , -0.664984667916  , -0.970015076256  , -0.769148896392  , 0.365804197952  , -0.664982337156  , -0.97020826806  , -0.76917165135  , 1.065413758829  , -0.011507140875  , -1.057188234676  , -0.24940054136  , 1.065422307907  , -0.011499852289  , -1.05720914613  , -0.249397881135  , -0.598037187719  , 0.177619545345  , -0.298668696109  , 0.018265492549  , -0.598030543746  , 0.177617692252  , -0.298679546825  , 0.018259319938  , -0.39435689008  , -0.509343000323  , 0.58535087321  , -0.527753305325  , -0.394336756439  , -0.509361627147  , 0.58527066591  , -0.527814955854 );
	kernels_AL[43] = compute_kernel_AL(x,   0.086611096781  , -1.000421475092  , -0.0233646027  , -0.992427172788  , 0.086612843897  , -1.000469648674  , -0.02344120046  , -0.992505269474  , 2.050305973317  , -0.450161243274  , -2.220798387119  , -0.499912615527  , 2.050307661046  , -0.450210593157  , -2.221147114935  , -0.499987479903  , 2.121711094157  , -0.718458750719  , -0.490607451286  , -0.761770085206  , 2.12169576877  , -0.718470738331  , -0.490635329542  , -0.76180076509  , 0.858404608968  , -0.615363809696  , 0.40808140913  , -0.517329027095  , 0.858398888972  , -0.615368867989  , 0.408073288515  , -0.517343779816  , -1.236950299413  , -2.188160768389  , 2.314101370788  , -2.284605094839  , -1.236941550303  , -2.188213757617  , 2.314020130996  , -2.284725605456 );
	kernels_AL[44] = compute_kernel_AL(x,   -0.749330655767  , -0.928875798994  , 0.405153699821  , -1.043399943972  , -0.749351701437  , -0.929014567973  , 0.404560094269  , -1.043633689427  , 0.00507389948  , -0.91399908173  , 0.071786347521  , -1.041200801655  , 0.005035118562  , -0.914161806611  , 0.071145085963  , -1.041499065253  , 1.376638131736  , 0.070387667127  , -1.186814230925  , -0.194533693292  , 1.376618592304  , 0.070340334834  , -1.186962834705  , -0.194639309541  , 1.488367901711  , -0.54317351829  , 0.163636704095  , -0.413090531759  , 1.488357661152  , -0.543200744171  , 0.163587338673  , -0.413159470709  , 1.315723484273  , 0.177251441173  , -0.282392094843  , 0.232482613119  , 1.315685835629  , 0.177149498721  , -0.282580196559  , 0.232234091887 );
	kernels_AL[45] = compute_kernel_AL(x,   0.087148034451  , -0.997945836967  , -0.007772703266  , -0.988406571096  , 0.087139070919  , -0.997987230931  , -0.007895715242  , -0.988487382167  , 2.051375687771  , -0.44723186957  , -2.205829917198  , -0.494643900818  , 2.051347626161  , -0.447262171554  , -2.206222659694  , -0.494708269098  , 2.122173613758  , -0.71736400436  , -0.487642427221  , -0.759393955706  , 2.122160925787  , -0.717374355381  , -0.487659209385  , -0.759419889616  , 0.858730784638  , -0.614811345547  , 0.409159821407  , -0.515920424819  , 0.858726631518  , -0.614817864193  , 0.409153236963  , -0.515937094611  , -1.235846980327  , -2.185943415816  , 2.318770117293  , -2.278656641745  , -1.235869148778  , -2.185982589898  , 2.318671851167  , -2.278769615427 );
	kernels_AL[46] = compute_kernel_AL(x,   -0.652588391369  , -0.727614891791  , 1.183223072721  , -0.727975653262  , -0.652568980343  , -0.727450512071  , 1.185564991645  , -0.727595619799  , -0.655756643364  , -0.935507363765  , 1.651952548674  , -0.972587805776  , -0.655702824331  , -0.935272445395  , 1.654357226863  , -0.972021949025  , -0.77732344999  , -1.121663555307  , 1.3989479407  , -0.973233096535  , -0.7773065371  , -1.121590654843  , 1.399373872064  , -0.97301038713  , -1.92726131588  , -1.528345192876  , 1.716089954006  , -1.507293164721  , -1.927250886672  , -1.528299898978  , 1.71626409972  , -1.507136627847  , 1.629137203319  , -0.759751040861  , 0.555614141209  , -0.672196788841  , 1.629204515561  , -0.759576497962  , 0.556304122264  , -0.671577920275 );
	kernels_AL[47] = compute_kernel_AL(x,   -0.652639447944  , -0.728258553546  , 1.180178873326  , -0.72890236005  , -0.652659312298  , -0.728364321644  , 1.17967856523  , -0.729097333197  , -0.655861281212  , -0.936286407933  , 1.648767985008  , -0.973901136804  , -0.655893925002  , -0.936411710465  , 1.648303737152  , -0.974157917375  , -0.777366442532  , -1.121944772406  , 1.398329920795  , -0.973793105989  , -0.777376944954  , -1.121988289353  , 1.398233455193  , -0.973900477896  , -1.927296999218  , -1.528502956352  , 1.71585744526  , -1.507663139601  , -1.92730793062  , -1.528524123917  , 1.715815905818  , -1.507729169902  , 1.629024747988  , -0.760343276295  , 0.55459164714  , -0.673598997093  , 1.628990313224  , -0.760429702902  , 0.554374948528  , -0.673840205279 );
	kernels_AL[48] = compute_kernel_AL(x,   -0.749228112798  , -0.928201581096  , 0.408386849524  , -1.042422565519  , -0.749248433801  , -0.928340761785  , 0.407786779854  , -1.042658209147  , 0.005275059906  , -0.913247742516  , 0.074853531437  , -1.039931077321  , 0.005239730186  , -0.913410500541  , 0.074212663801  , -1.040230994371  , 1.376739461599  , 0.070714081122  , -1.186152066742  , -0.193907984405  , 1.376721390266  , 0.070668522981  , -1.186296978403  , -0.194012022376  , 1.488432967019  , -0.543028026132  , 0.163850856887  , -0.412761986358  , 1.488423793229  , -0.543054481467  , 0.163801492756  , -0.412829959517  , 1.315891501383  , 0.177722628665  , -0.281637282004  , 0.233564150045  , 1.315856839122  , 0.177620398891  , -0.281825407335  , 0.233315674021 );
	kernels_AL[49] = compute_kernel_AL(x,   0.925615792308  , 1.179917159589  , -0.383028013602  , 1.251219611855  , 0.925605427697  , 1.179867118231  , -0.383710095164  , 1.251139329349  , -0.56824235703  , 1.226532531183  , 0.090817177504  , 1.244324374787  , -0.568259820172  , 1.226470814012  , 0.090229401334  , 1.244195706598  , -0.641735792162  , 0.893651112737  , -0.144078540747  , 0.947011165236  , -0.641742924761  , 0.893623945529  , -0.144187720413  , 0.946951372552  , 0.27988218421  , 1.052587565179  , -0.710788919045  , 1.136693772307  , 0.279874837065  , 1.052574244533  , -0.710838965849  , 1.136654027182  , -0.759409555775  , 0.883602377272  , -0.867888115093  , 0.835426331062  , -0.75943036241  , 0.883555737792  , -0.868036196087  , 0.835280268834 );
	kernels_AL[50] = compute_kernel_AL(x,   -1.200413257012  , 0.165251626122  , -2.235020951707  , -0.368593693544  , -1.200408442053  , 0.165235068592  , -2.234945707195  , -0.368605233664  , -0.671478471066  , -0.560861983553  , -0.661127711097  , -0.766562420898  , -0.671462860287  , -0.560906240463  , -0.660959672254  , -0.76662524873  , -0.577359302196  , 0.531813009414  , -1.460100425418  , 0.090537711556  , -0.57734482317  , 0.531819179995  , -1.460030136329  , 0.090555783207  , -0.242778904051  , 0.513375893987  , -1.542562954227  , -0.139850594608  , -0.242772829229  , 0.513371116268  , -1.542543060426  , -0.139855951062  , -0.516546588934  , 0.337763313292  , -0.260198668146  , 0.35158140112  , -0.516497651568  , 0.337740635225  , -0.260136671608  , 0.351568168177 );
	kernels_AL[51] = compute_kernel_AL(x,   -1.200581930069  , 0.161983307121  , -2.260767180619  , -0.374378058945  , -1.200600888335  , 0.161990644515  , -2.260857182331  , -0.374367486307  , -0.671787660576  , -0.564821039919  , -0.683562553843  , -0.774008050189  , -0.671809099146  , -0.564817289811  , -0.683524999415  , -0.774014775743  , -0.577496599189  , 0.53030903658  , -1.464860650158  , 0.087111955397  , -0.577499976558  , 0.530326768186  , -1.464838281008  , 0.08714715794  , -0.242863211524  , 0.512739563003  , -1.544245583311  , -0.14159159619  , -0.242868155271  , 0.512739940794  , -1.544244055717  , -0.14158925701  , -0.516834662478  , 0.335079161121  , -0.26635051336  , 0.344571817458  , -0.516864272865  , 0.335103765879  , -0.266334142235  , 0.344612224854 );
	kernels_AL[52] = compute_kernel_AL(x,   0.920231246206  , 1.141584241847  , -0.481506114512  , 1.207164497339  , 0.920218259021  , 1.141510054893  , -0.482176500407  , 1.207063407684  , -0.579188104454  , 1.179592625779  , -0.049834384393  , 1.174289458661  , -0.579217951636  , 1.179498450326  , -0.050465745285  , 1.174120895463  , -0.645839437653  , 0.87998436803  , -0.166934241138  , 0.922477119759  , -0.645851320982  , 0.879954666783  , -0.167062275588  , 0.922405829147  , 0.275446472437  , 1.041237942855  , -0.723583018736  , 1.114082911705  , 0.275436126968  , 1.041225048819  , -0.723633142653  , 1.114043007733  , -0.772973947916  , 0.844847680137  , -0.916589218227  , 0.754000593456  , -0.773008937214  , 0.844776118664  , -0.916743009987  , 0.753810313199 );
	kernels_AL[53] = compute_kernel_AL(x,   1.347405940944  , -1.648840605978  , -0.456837602168  , -1.093085459985  , 1.347411485349  , -1.648933778021  , -0.457594895686  , -1.093266243016  , 2.3931093202  , -1.451333598425  , -0.669410638708  , -1.089104892913  , 2.393090995519  , -1.451433354858  , -0.670167509892  , -1.089325773706  , -0.494658981422  , -2.379892924772  , 2.003890102439  , -2.360173159359  , -0.494661031871  , -2.379933822232  , 2.003813207535  , -2.360294277958  , 1.302765767399  , -0.43646133358  , 0.025193042374  , -0.380279348113  , 1.302761217996  , -0.436476638493  , 0.025144372187  , -0.380330713861  , 0.423953115087  , -1.495354835991  , 1.49179668871  , -1.514375891804  , 0.423945432315  , -1.495429049249  , 1.491538611864  , -1.514621633775 );
	kernels_AL[54] = compute_kernel_AL(x,   -0.64891823459  , -0.705522567748  , 1.295102649133  , -0.694812997716  , -0.648940169094  , -0.705662768053  , 1.294600367028  , -0.695041279904  , -0.648259071439  , -0.907843632613  , 1.76307544812  , -0.92522580558  , -0.648294742034  , -0.908013708586  , 1.762590152097  , -0.925535992522  , -0.774379617065  , -1.111742399911  , 1.420523457003  , -0.953083706087  , -0.77439124223  , -1.111803120012  , 1.420416402717  , -0.953215644524  , -1.925091382684  , -1.523031961777  , 1.72429200596  , -1.49435175175  , -1.925102957161  , -1.523062332127  , 1.724247458011  , -1.494433104264  , 1.636690577759  , -0.739225910793  , 0.591490660711  , -0.62254520683  , 1.636652426568  , -0.739346088497  , 0.59126075036  , -0.622844044933 );
	kernels_AL[55] = compute_kernel_AL(x,   -0.64936330543  , -0.707457259196  , 1.2851652626  , -0.697721746153  , -0.649363012922  , -0.7075064211  , 1.285487255027  , -0.69776794706  , -0.649056044399  , -0.910421367787  , 1.753348239231  , -0.929520637451  , -0.649053598259  , -0.910476251893  , 1.753729394813  , -0.929574494731  , -0.774685749638  , -1.112665978133  , 1.418562715283  , -0.954920161672  , -0.774684860397  , -1.112687132452  , 1.4186248446  , -0.954944203918  , -1.925303198002  , -1.523508924477  , 1.723547060175  , -1.495502142391  , -1.925304404426  , -1.523518769085  , 1.723569813305  , -1.495515095692  , 1.635853866515  , -0.741137369092  , 0.588247135892  , -0.627094366866  , 1.635855965376  , -0.741170397449  , 0.588294645741  , -0.627119355446 );
	kernels_AL[56] = compute_kernel_AL(x,   -0.65015787986  , -0.711362928281  , 1.259642974793  , -0.7042427996  , -0.65016101832  , -0.711440824238  , 1.259603777163  , -0.704364376646  , -0.65074764156  , -0.915015930946  , 1.727330762361  , -0.938540382903  , -0.65074836218  , -0.915100481559  , 1.727310454892  , -0.938692976109  , -0.775315391654  , -1.114362254056  , 1.413478765832  , -0.958871513296  , -0.775320737041  , -1.114395334019  , 1.413470896096  , -0.958937880058  , -1.925767150288  , -1.524414581763  , 1.721584502798  , -1.498021632781  , -1.925772727174  , -1.524431005478  , 1.721579710002  , -1.498061581307  , 1.634265365185  , -0.74455705973  , 0.579941783122  , -0.636560001365  , 1.63426417293  , -0.744618046176  , 0.579861745047  , -0.636699082923 );
	kernels_AL[57] = compute_kernel_AL(x,   0.922600232679  , 1.159981237163  , -0.44593446962  , 1.226753967968  , 0.92258617396  , 1.159914478873  , -0.446598967151  , 1.226660718805  , -0.57476388038  , 1.199201055649  , -0.004010350493  , 1.201473529867  , -0.57479437395  , 1.199140063988  , -0.004538847796  , 1.201351499175  , -0.644382733571  , 0.885147859509  , -0.159731366301  , 0.931155702028  , -0.644392929106  , 0.885122290014  , -0.159840861659  , 0.931095555335  , 0.277413999146  , 1.046671884671  , -0.718599377321  , 1.124211937506  , 0.277404364697  , 1.046660137128  , -0.718643352513  , 1.124176922108  , -0.767383251297  , 0.860855711214  , -0.900827375688  , 0.785191710278  , -0.767418748406  , 0.860813968739  , -0.900947900023  , 0.785058124814 );
	kernels_AL[58] = compute_kernel_AL(x,   -1.160018391033  , -0.572377733145  , -0.136069961936  , -0.828412739153  , -1.1600424484  , -0.572514618956  , -0.136809153668  , -0.828647970567  , 0.367413774178  , -0.659150455701  , -0.940420068729  , -0.75858410591  , 0.367372082714  , -0.659315881464  , -0.941252579078  , -0.758886852586  , 1.066084456646  , -0.009244056723  , -1.051210363577  , -0.24459196856  , 1.066064680364  , -0.009295783297  , -1.051367268739  , -0.244708088316  , -0.597585503679  , 0.178671590684  , -0.296596003009  , 0.020890965327  , -0.597596976185  , 0.178643398956  , -0.296652731393  , 0.020820257797  , -0.392797802912  , -0.505691902913  , 0.5923105852  , -0.518641866882  , -0.392838749749  , -0.505808926531  , 0.592080649198  , -0.518936361809 );
	kernels_AL[59] = compute_kernel_AL(x,   -1.200605241286  , 0.161837700813  , -2.261411011296  , -0.374577822238  , -1.200620382619  , 0.161781989526  , -2.262215050018  , -0.374706614317  , -0.671813805308  , -0.564983999717  , -0.684231108074  , -0.774273110488  , -0.671832425381  , -0.565066274946  , -0.684785717761  , -0.774461978084  , -0.577511248103  , 0.530241127329  , -1.465026191204  , 0.086977427986  , -0.577520564888  , 0.530220297547  , -1.465121545844  , 0.086920333404  , -0.242872663121  , 0.512709506643  , -1.544303710497  , -0.141660966479  , -0.242882775428  , 0.512693194983  , -1.54434501407  , -0.141706801938  , -0.516863370229  , 0.33495834441  , -0.266533790598  , 0.344309450009  , -0.516887530265  , 0.334911552763  , -0.266671747639  , 0.344161808574 );
	kernels_AL[60] = compute_kernel_AL(x,   -0.64989139284  , -0.709816271462  , 1.269559366847  , -0.701669263714  , -0.649901158289  , -0.709856405309  , 1.26976678686  , -0.701728338527  , -0.650183588598  , -0.913120971108  , 1.737348868892  , -0.934915042044  , -0.65018642341  , -0.913162586249  , 1.73756974184  , -0.93498453146  , -0.775086304571  , -1.113667447804  , 1.415417435413  , -0.957297855444  , -0.775087260792  , -1.113686589022  , 1.41545742871  , -0.957328208007  , -1.925604006742  , -1.524045350874  , 1.722332507909  , -1.49701769053  , -1.925607964871  , -1.524052596317  , 1.722346075686  , -1.497033544927  , 1.634786798551  , -0.743166202022  , 0.583146723259  , -0.632777537318  , 1.634777008907  , -0.743192656826  , 0.5831485748  , -0.632824628322 );
	kernels_AL[61] = compute_kernel_AL(x,   -1.161393150884  , -0.578899251166  , -0.175441607453  , -0.838920288364  , -1.16136532526  , -0.578874937376  , -0.173772551883  , -0.838706819169  , 0.365360572211  , -0.666155136971  , -0.977547794157  , -0.771545554512  , 0.365381864816  , -0.666162494139  , -0.976088217594  , -0.771318735628  , 1.065237735175  , -0.01195150488  , -1.058733284437  , -0.250493967641  , 1.065241491941  , -0.011947468085  , -1.058441532103  , -0.250372444486  , -0.598156695236  , 0.177411796289  , -0.299210196741  , 0.017666210323  , -0.598152853329  , 0.177409128721  , -0.299107854991  , 0.017725550346  , -0.3947670183  , -0.510062389901  , 0.583554273961  , -0.529812889795  , -0.394736551687  , -0.510085423714  , 0.583874426418  , -0.529655977735 );
	kernels_AL[62] = compute_kernel_AL(x,   -1.162268664875  , -0.58366586899  , -0.200998886058  , -0.84620141678  , -1.162273105614  , -0.583691586548  , -0.201279871516  , -0.846271907494  , 0.363761954899  , -0.671431432862  , -1.001115606669  , -0.780748277073  , 0.363749862045  , -0.671472835678  , -1.001491437065  , -0.780838245492  , 1.06457402178  , -0.013947347529  , -1.063600191184  , -0.254636160476  , 1.064564752207  , -0.013953199872  , -1.063661698362  , -0.254660210369  , -0.598605029682  , 0.176477902793  , -0.300908122453  , 0.015388552471  , -0.598610516473  , 0.176471753371  , -0.300931224043  , 0.015368870886  , -0.396214572243  , -0.513289323766  , 0.577945025836  , -0.53766350689  , -0.396228462634  , -0.51332830626  , 0.577816820887  , -0.537778047349 );
	kernels_AL[63] = compute_kernel_AL(x,   -0.649331724177  , -0.707312140931  , 1.286249977327  , -0.69746059219  , -0.649324603451  , -0.707430730592  , 1.285795225018  , -0.697655878896  , -0.649010299476  , -0.910257709435  , 1.754547554073  , -0.929165798664  , -0.64901123596  , -0.910398901787  , 1.75415303701  , -0.929424002165  , -0.774665183764  , -1.112602201045  , 1.418801830127  , -0.954759041633  , -0.774665132631  , -1.112652611168  , 1.418716813703  , -0.954867552868  , -1.925286227269  , -1.523475915764  , 1.723638839943  , -1.495400977385  , -1.925289592131  , -1.523500863485  , 1.723603466089  , -1.495467885024  , 1.635904840055  , -0.741010621794  , 0.588630571168  , -0.626711018872  , 1.635904321555  , -0.741108569836  , 0.588436922304  , -0.626950267134 );
	kernels_AL[64] = compute_kernel_AL(x,   -1.161616210335  , -0.580496446811  , -0.185581940613  , -0.841534751365  , -1.161620704603  , -0.580534614919  , -0.186399321506  , -0.841690755849  , 0.364944837529  , -0.668039054939  , -0.986586034945  , -0.774905835071  , 0.364953495858  , -0.66810161861  , -0.987501036307  , -0.775104136703  , 1.065051343738  , -0.012670359715  , -1.060557914631  , -0.252008183149  , 1.065049115446  , -0.012682806309  , -1.060722365846  , -0.252079103581  , -0.598285215949  , 0.177079219059  , -0.29984806613  , 0.016837620749  , -0.598284361273  , 0.177069028386  , -0.299907873459  , 0.016791935302  , -0.395164377747  , -0.51122084441  , 0.581417647203  , -0.532690186146  , -0.395161984977  , -0.511276035209  , 0.581166348786  , -0.532897808823 );
	kernels_AL[65] = compute_kernel_AL(x,   0.924124323032  , 1.171755935906  , -0.4116644824  , 1.2407802745  , 0.924111328109  , 1.17169987322  , -0.412365302945  , 1.240692627449  , -0.571370330551  , 1.215172644014  , 0.051974687025  , 1.226535408617  , -0.57139675423  , 1.215104365561  , 0.051417651111  , 1.226406801253  , -0.643028766867  , 0.889819737923  , -0.151009192531  , 0.939920319269  , -0.64303585422  , 0.889797185151  , -0.151122190742  , 0.939865061188  , 0.278774551854  , 1.05011714866  , -0.713935435432  , 1.131551699568  , 0.278766301143  , 1.050103590385  , -0.713982441857  , 1.131513845285  , -0.762725681192  , 0.874765515373  , -0.880789868089  , 0.816003851897  , -0.762759003169  , 0.87472054921  , -0.880930311045  , 0.815862808438 );
	kernels_AL[66] = compute_kernel_AL(x,   -1.200324647919  , 0.165870314219  , -2.230556125927  , -0.367623136277  , -1.200340971367  , 0.165864306055  , -2.231117080264  , -0.367678478673  , -0.671331902835  , -0.560151762134  , -0.657228661993  , -0.765329462993  , -0.671337048655  , -0.560163016756  , -0.657641992395  , -0.765411047346  , -0.577302933739  , 0.532089898604  , -1.459224897221  , 0.091116492277  , -0.577303228081  , 0.53209483063  , -1.459287025981  , 0.091104855015  , -0.242744413788  , 0.513495621177  , -1.54225396234  , -0.139552880447  , -0.242748094431  , 0.513488404116  , -1.54228148651  , -0.139576540987  , -0.516322172177  , 0.338281661346  , -0.259188231789  , 0.352797036965  , -0.516335364073  , 0.338277074623  , -0.259278189296  , 0.352747413389 );
	kernels_AL[67] = compute_kernel_AL(x,   -1.645432302374  , -0.439222281568  , 1.9708589297  , -0.461394949369  , -1.645458375916  , -0.43935585262  , 1.970468509132  , -0.461611090254  , 0.009701842707  , -0.201125585319  , 0.719298982454  , -0.088710893759  , 0.009662271746  , -0.201282446668  , 0.718679632522  , -0.088983731749  , 1.272456379854  , 0.286525676958  , 0.111086427265  , 0.690095096051  , 1.272435689584  , 0.286476363098  , 0.110952963751  , 0.689999845299  , -0.351154694984  , -1.294984625873  , 1.370482529105  , -1.225314497996  , -0.351166148561  , -1.295014704263  , 1.370435848651  , -1.225393960451  , 0.950467877573  , 0.801133735131  , -0.603291247698  , 0.948209351542  , 0.950428781102  , 0.801034361365  , -0.603483778737  , 0.947976171216 );
	kernels_AL[68] = compute_kernel_AL(x,   0.925925924481  , 1.181670289849  , -0.373979393329  , 1.253811662389  , 0.925912923526  , 1.181602704112  , -0.374659977025  , 1.253717871627  , -0.567406969519  , 1.229297211798  , 0.101503838266  , 1.24885348576  , -0.56743575686  , 1.229206574013  , 0.100948059339  , 1.24870193286  , -0.641468744724  , 0.894482555957  , -0.142187694135  , 0.948681807965  , -0.641477885341  , 0.89445187859  , -0.14230051443  , 0.948617359661  , 0.280108114786  , 1.053103652367  , -0.709944545177  , 1.137868249854  , 0.280099383769  , 1.053085555649  , -0.70999305722  , 1.137824659048  , -0.758576299552  , 0.885471770666  , -0.8645216016  , 0.839883662491  , -0.75860909762  , 0.885401363994  , -0.864660142049  , 0.839708633423 );
	kernels_AL[69] = compute_kernel_AL(x,   -1.64470470461  , -0.436460304908  , 1.977906076347  , -0.4579726631  , -1.644698795542  , -0.436450996268  , 1.977698804598  , -0.458032705051  , 0.011142907871  , -0.197586886101  , 0.72536190174  , -0.083837204398  , 0.011158191007  , -0.197577466362  , 0.724937287147  , -0.083895201865  , 1.273036407657  , 0.28785304814  , 0.112524795019  , 0.692245970351  , 1.273046476614  , 0.28786682524  , 0.112420790627  , 0.692243061744  , -0.350746413858  , -1.294310323467  , 1.370965902551  , -1.223976229487  , -0.350736125578  , -1.294309208807  , 1.37092687337  , -1.223999800525  , 0.951992343194  , 0.803888599092  , -0.6009882245  , 0.953536868341  , 0.952003981572  , 0.803918175236  , -0.601110895042  , 0.953534220648 );
	kernels_AL[70] = compute_kernel_AL(x,   -1.16007528778  , -0.572813397774  , -0.13675578157  , -0.828863911859  , -1.160073453845  , -0.572696895429  , -0.137040131161  , -0.828835075675  , 0.367365432465  , -0.659431657674  , -0.941333589396  , -0.758989391656  , 0.367353644657  , -0.659447671259  , -0.941686429521  , -0.759078388579  , 1.066042274856  , -0.009364071437  , -1.051405334142  , -0.244793759676  , 1.066044067007  , -0.009364767384  , -1.05146659537  , -0.244819154123  , -0.597612970643  , 0.178617700253  , -0.296664837836  , 0.020784019463  , -0.597610965417  , 0.178612564931  , -0.296686384178  , 0.020761485333  , -0.392842804202  , -0.505874339748  , 0.592086311737  , -0.519006266116  , -0.39285787405  , -0.505898440653  , 0.591974544642  , -0.519114196068 );
	kernels_AL[71] = compute_kernel_AL(x,   0.929417415213  , 1.195554380131  , -0.323928556368  , 1.272122647942  , 0.929407046311  , 1.195491188846  , -0.32464285079  , 1.27202786062  , -0.558174589021  , 1.24997281088  , 0.154278794782  , 1.279363636197  , -0.558199867544  , 1.249886898451  , 0.153663440231  , 1.279208315094  , -0.638748230684  , 0.900598962653  , -0.132012437852  , 0.959877304234  , -0.638757285479  , 0.900569257651  , -0.132128731693  , 0.959811541587  , 0.282358550245  , 1.056768731177  , -0.705402976313  , 1.145587621558  , 0.282350519846  , 1.056749547579  , -0.705454520326  , 1.145539267567  , -0.749517775379  , 0.900196675539  , -0.846138412237  , 0.871555786302  , -0.749549612483  , 0.900131887533  , -0.84629681955  , 0.871379165818 );
	kernels_AL[72] = compute_kernel_AL(x,   0.924308256116  , 1.173544156658  , -0.405009232686  , 1.243064397226  , 0.924297653648  , 1.173460233321  , -0.40575094746  , 1.242950557327  , -0.57082878229  , 1.217991084584  , 0.062033621296  , 1.230973031036  , -0.570844908553  , 1.217878510624  , 0.061396211301  , 1.230791607377  , -0.642811140202  , 0.890720227088  , -0.149346424693  , 0.941578447821  , -0.64281341765  , 0.89068161831  , -0.149470425661  , 0.941501326461  , 0.27895524852  , 1.050726082829  , -0.713136951449  , 1.132810963025  , 0.278951607196  , 1.050702738055  , -0.713190071749  , 1.13275770186  , -0.762157630487  , 0.876966910741  , -0.87743541231  , 0.820841616126  , -0.762179928652  , 0.876879053449  , -0.877592840482  , 0.82063663794 );
	kernels_AL[73] = compute_kernel_AL(x,   -0.749298230292  , -0.928625350031  , 0.406378377738  , -1.043040370045  , -0.749314132372  , -0.928705961965  , 0.405742979006  , -1.043228295025  , 0.005144996967  , -0.913704127475  , 0.072939731157  , -1.040725403184  , 0.005120600352  , -0.913804771018  , 0.072237368255  , -1.040965500701  , 1.376670751195  , 0.070505868436  , -1.186571437391  , -0.194313130909  , 1.376652010842  , 0.070482309637  , -1.186723715039  , -0.194393713319  , 1.488387177967  , -0.543118587713  , 0.163714716898  , -0.412972987656  , 1.488376968399  , -0.543135986781  , 0.163662292602  , -0.413029400502  , 1.315776137092  , 0.177445393723  , -0.282114767442  , 0.232895113052  , 1.315749194318  , 0.177381162227  , -0.282317346638  , 0.232696169429 );
	kernels_AL[74] = compute_kernel_AL(x,   0.925310598789  , 1.178982280279  , -0.386436117293  , 1.249955743606  , 0.925295595942  , 1.178904974307  , -0.387034771201  , 1.24986370129  , -0.569238125946  , 1.225005274  , 0.086790541715  , 1.241978163627  , -0.569272511361  , 1.224899097136  , 0.086340059715  , 1.241826303756  , -0.642019379792  , 0.893183156569  , -0.144792206589  , 0.946155508332  , -0.642030478046  , 0.893147670304  , -0.144886685592  , 0.94609256793  , 0.279634883647  , 1.052297214854  , -0.711113207559  , 1.136085818794  , 0.279624957045  , 1.052275683634  , -0.711154078286  , 1.136041251983  , -0.760310788773  , 0.882530457879  , -0.869195171191  , 0.833076684802  , -0.760349883698  , 0.882447938322  , -0.869302216352  , 0.832898455886 );
	kernels_AL[75] = compute_kernel_AL(x,   0.929130133561  , 1.193926685579  , -0.330422848412  , 1.269948638641  , 0.92915616861  , 1.193970698915  , -0.330445285389  , 1.270028174771  , -0.558862103118  , 1.247490388752  , 0.147593252471  , 1.275788742298  , -0.558790590963  , 1.247574243248  , 0.147696720608  , 1.275913725001  , -0.638982735069  , 0.899870938427  , -0.133314694079  , 0.958552365665  , -0.638956953744  , 0.899889105346  , -0.133305936205  , 0.958586689093  , 0.282169121364  , 1.056337374668  , -0.705985777841  , 1.144680990408  , 0.282188233677  , 1.056345953762  , -0.70597919783  , 1.144702000825  , -0.750129912781  , 0.898452347529  , -0.848552366396  , 0.867835998923  , -0.75006900507  , 0.898497787335  , -0.848457494134  , 0.867942008576 );
	kernels_AL[76] = compute_kernel_AL(x,   0.924358875583  , 1.173984399618  , -0.402335935746  , 1.243753336973  , 0.924343475713  , 1.173890987575  , -0.403119203903  , 1.243625889829  , -0.570690111596  , 1.218725046047  , 0.065600945017  , 1.2322666963  , -0.570726242017  , 1.218594733888  , 0.064897639583  , 1.232052837688  , -0.642754371073  , 0.8909180523  , -0.148765191688  , 0.942021136859  , -0.642766579185  , 0.890873668715  , -0.14890389599  , 0.941931510925  , 0.279005668795  , 1.050856432141  , -0.71285396383  , 1.133144325807  , 0.278994263624  , 1.050829357036  , -0.712913201113  , 1.133081432154  , -0.762006600149  , 0.877550746628  , -0.876251344886  , 0.82227151872  , -0.762048055576  , 0.877452404944  , -0.87643533624  , 0.822033074173 );
	kernels_AL[77] = compute_kernel_AL(x,   1.34856597731  , -1.641525426555  , -0.414400762776  , -1.081730134848  , 1.348593119449  , -1.641506298245  , -0.414017141987  , -1.081682292877  , 2.395182707666  , -1.443258922324  , -0.631451048091  , -1.07490364614  , 2.395207762899  , -1.443231332506  , -0.631238364843  , -1.074854545382  , -0.493849053868  , -2.376813345827  , 2.011659495522  , -2.353565673507  , -0.493831175702  , -2.376810019466  , 2.011770374283  , -2.353566192929  , 1.303290438119  , -0.435048011584  , 0.027876070932  , -0.376814687523  , 1.303296651714  , -0.43504246764  , 0.027893192814  , -0.376802439052  , 0.425850261939  , -1.49007050874  , 1.500519238353  , -1.501709374435  , 0.425871739028  , -1.490070401999  , 1.5004972124  , -1.501727192317 );
	kernels_AL[78] = compute_kernel_AL(x,   -0.749171826578  , -0.927367599565  , 0.414776169175  , -1.040947240516  , -0.749136440392  , -0.927409876049  , 0.414716104647  , -1.041024937469  , 0.005398644049  , -0.912308021241  , 0.080406103982  , -1.038126102191  , 0.005457632332  , -0.912361117373  , 0.080199799915  , -1.038231837445  , 1.376794942636  , 0.071074598447  , -1.185022708941  , -0.193092998579  , 1.376816956984  , 0.071067878969  , -1.185075628722  , -0.193112545767  , 1.488468239271  , -0.542870306225  , 0.1642286836  , -0.412332275951  , 1.488484834248  , -0.542879550642  , 0.164209915187  , -0.412355925872  , 1.31599222942  , 0.178315089925  , -0.280291641224  , 0.235100457215  , 1.316039906208  , 0.178280144262  , -0.280368881164  , 0.23501530309 );
	kernels_AL[79] = compute_kernel_AL(x,   -1.64578809209  , -0.440747680269  , 1.965904232753  , -0.463429611592  , -1.645782806925  , -0.440775730112  , 1.965540989279  , -0.463545484216  , 0.009148575289  , -0.202754970826  , 0.714312894792  , -0.09130164442  , 0.009175861537  , -0.202780844514  , 0.713703112734  , -0.091428380873  , 1.272212478085  , 0.285916352721  , 0.110026964572  , 0.688946920242  , 1.272224548693  , 0.28591113809  , 0.10991187351  , 0.688911087526  , -0.351325305247  , -1.295307299788  , 1.370103172729  , -1.226045776469  , -0.351312303179  , -1.295314465051  , 1.370059549333  , -1.226087668224  , 0.949836384211  , 0.799811515249  , -0.605010677584  , 0.945311648834  , 0.949868847611  , 0.799815386667  , -0.605188686027  , 0.945238689748 );
	kernels_AL[80] = compute_kernel_AL(x,   -1.162201628028  , -0.583328274118  , -0.199529272557  , -0.845720035966  , -1.162205488313  , -0.583411330533  , -0.20033496359  , -0.845913289369  , 0.363879399946  , -0.671103155313  , -0.99959477338  , -0.780162579316  , 0.363881480548  , -0.671216441096  , -1.000485924862  , -0.780413275008  , 1.064622091455  , -0.013822177656  , -1.063269109092  , -0.254367105654  , 1.0646232239  , -0.013855355008  , -1.063429936223  , -0.254461543362  , -0.598571355508  , 0.176536156944  , -0.30079186808  , 0.015535964337  , -0.598570345158  , 0.176515818137  , -0.300850151426  , 0.015476780984  , -0.396108490861  , -0.513085234869  , 0.578306757228  , -0.537160635947  , -0.39611164065  , -0.513169813745  , 0.578065202006  , -0.537410717568 );
	kernels_AL[81] = compute_kernel_AL(x,   0.925930862509  , 1.181705773929  , -0.373839430138  , 1.253857461778  , 0.925919700418  , 1.181624142737  , -0.374512991347  , 1.253751004824  , -0.567393658319  , 1.229350470545  , 0.101723287365  , 1.248939844116  , -0.567422366959  , 1.229236485583  , 0.101193057236  , 1.248764353072  , -0.641462509166  , 0.894503307513  , -0.142150907235  , 0.948719350499  , -0.641468047623  , 0.894468852318  , -0.142260048025  , 0.948650210111  , 0.280113924988  , 1.053116696883  , -0.709929248549  , 1.137895227189  , 0.280105954392  , 1.053095301715  , -0.709976230827  , 1.137845855675  , -0.75856085699  , 0.885510337958  , -0.864454078407  , 0.839972575904  , -0.758595173144  , 0.885424842612  , -0.864585386567  , 0.839774228027 );
	kernels_AL[82] = compute_kernel_AL(x,   -0.649930315928  , -0.709948614157  , 1.268978519606  , -0.701871950372  , -0.649934435612  , -0.710048975155  , 1.268821878933  , -0.702013868719  , -0.65026721767  , -0.913263243208  , 1.736710935465  , -0.935192927841  , -0.650254241332  , -0.91338749643  , 1.736584646128  , -0.93538213966  , -0.775122615087  , -1.113732898648  , 1.415303396026  , -0.957430818583  , -0.775114944652  , -1.113775417618  , 1.415258775449  , -0.957509667635  , -1.925630020912  , -1.524082961406  , 1.722294266339  , -1.497104403393  , -1.92562776146  , -1.524103519617  , 1.722274181101  , -1.497152053339  , 1.634704186719  , -0.743270464697  , 0.582934507509  , -0.633071971899  , 1.634711252379  , -0.74335579308  , 0.582825438199  , -0.633237145498 );
	kernels_AL[83] = compute_kernel_AL(x,   -1.644126587437  , -0.431529042937  , 2.00169981875  , -0.450731487344  , -1.644111996326  , -0.431597930212  , 2.001489486389  , -0.450857419035  , 0.012477391435  , -0.191372144225  , 0.747240466539  , -0.073890602934  , 0.012535924596  , -0.191454790937  , 0.746839078337  , -0.074031953299  , 1.273604420718  , 0.290044954608  , 0.117009118015  , 0.696488276608  , 1.273610024112  , 0.290027116854  , 0.116927276649  , 0.69645261227  , -0.350355913349  , -1.293199162204  , 1.372665357926  , -1.221327633279  , -0.35034732874  , -1.293211800966  , 1.37263551702  , -1.221368528405  , 0.95335162947  , 0.808703582187  , -0.593338811321  , 0.964420744659  , 0.953420403427  , 0.808668964074  , -0.593456898245  , 0.964339838388 );
	kernels_AL[84] = compute_kernel_AL(x,   -0.65265327457  , -0.728395416793  , 1.179430070256  , -0.729113816804  , -0.652662374795  , -0.728418639662  , 1.179629570004  , -0.729150931014  , -0.655904002512  , -0.936466809921  , 1.647992257962  , -0.974222629295  , -0.655899607306  , -0.936472587591  , 1.648206758817  , -0.974238294086  , -0.777377932926  , -1.122013319307  , 1.398182773199  , -0.973933890489  , -0.777379092646  , -1.12201478366  , 1.398215061373  , -0.973939585574  , -1.927304880618  , -1.528542316344  , 1.715802377399  , -1.507757560273  , -1.927309158203  , -1.528540217825  , 1.715811316801  , -1.507756147427  , 1.628982858623  , -0.760472315312  , 0.554338435165  , -0.673931329194  , 1.628983550644  , -0.760476097231  , 0.554343599455  , -0.673926207093 );
	kernels_AL[85] = compute_kernel_AL(x,   -1.200470887458  , 0.164266925788  , -2.242599958479  , -0.370333095876  , -1.200489367197  , 0.164159438338  , -2.243596864209  , -0.370515264982  , -0.671603625116  , -0.56203041711  , -0.66769077019  , -0.768776956941  , -0.671627547422  , -0.562181035023  , -0.668370858646  , -0.769038260212  , -0.577409471268  , 0.531382803562  , -1.461520399722  , 0.08952562743  , -0.577419221373  , 0.531343191043  , -1.46166350759  , 0.089438867906  , -0.242809899638  , 0.513195361563  , -1.543064683626  , -0.140364127449  , -0.242819881603  , 0.513171083007  , -1.543119746779  , -0.140424406042  , -0.516662362773  , 0.336988949182  , -0.262004913565  , 0.349513071069  , -0.516686787323  , 0.336894936859  , -0.262179184301  , 0.349298594884 );
	kernels_AL[86] = compute_kernel_AL(x,   1.348667646541  , -1.641101562482  , -0.412231333322  , -1.081097713496  , 1.348654479784  , -1.641256294473  , -0.412960244973  , -1.081331470799  , 2.395365600819  , -1.442795803402  , -0.62948110967  , -1.074117015576  , 2.395312166407  , -1.442962090538  , -0.630202227903  , -1.074409053184  , -0.49377936766  , -2.376636724236  , 2.012078866171  , -2.353198069536  , -0.493791573828  , -2.376700972571  , 2.012002136422  , -2.353347189929  , 1.303335890767  , -0.434967681265  , 0.028021388898  , -0.376622955749  , 1.303325060655  , -0.434993818785  , 0.027972735759  , -0.376689711539  , 0.426001637839  , -1.489771380852  , 1.500982254536  , -1.5010126431  , 0.425962676409  , -1.48989265647  , 1.500740770584  , -1.501324878747 );
	kernels_AL[87] = compute_kernel_AL(x,   0.928261972841  , 1.189879838007  , -0.349716774237  , 1.264103857025  , 0.928255408657  , 1.189882068322  , -0.350204360027  , 1.264097332629  , -0.561043984638  , 1.241538618586  , 0.126255655218  , 1.26620724002  , -0.561053055787  , 1.241538983401  , 0.125861283016  , 1.266185577717  , -0.63970386717  , 0.898098766447  , -0.137158925032  , 0.955012417634  , -0.639705927858  , 0.898088356342  , -0.137234856264  , 0.954990346968  , 0.281567402892  , 1.055287452033  , -0.707714296809  , 1.14224821288  , 0.281563371695  , 1.055281962407  , -0.707747498689  , 1.142232593852  , -0.752401955875  , 0.894146756353  , -0.855873809779  , 0.857699869833  , -0.752414724571  , 0.894144983747  , -0.855957157033  , 0.857664062982 );
	kernels_AL[88] = compute_kernel_AL(x,   -1.161013003152  , -0.577140472586  , -0.163831660793  , -0.835958919353  , -1.161030873464  , -0.577262794614  , -0.164456459661  , -0.836163359098  , 0.365987493709  , -0.664209004469  , -0.966457959469  , -0.767803074102  , 0.365954224844  , -0.664360723773  , -0.967145794344  , -0.768065188962  , 1.065518495766  , -0.01117477874  , -1.056437781935  , -0.248745111301  , 1.0655027228  , -0.011220987385  , -1.056558004884  , -0.248840987791  , -0.597965488567  , 0.177777144273  , -0.298414772083  , 0.018626796143  , -0.597973628797  , 0.177751253659  , -0.298459274053  , 0.01856667102  , -0.394136803848  , -0.508848784338  , 0.586182855413  , -0.526577024598  , -0.394168921796  , -0.508958009305  , 0.585989283126  , -0.526836867428 );
	kernels_AL[89] = compute_kernel_AL(x,   0.925099202368  , 1.177291065321  , -0.394693945539  , 1.247534222713  , 0.925095077304  , 1.177240887156  , -0.395090986188  , 1.247489805224  , -0.569862948065  , 1.222339187008  , 0.076757124781  , 1.23768675189  , -0.569859458094  , 1.22227978163  , 0.07656566444  , 1.237627048125  , -0.64219503357  , 0.892377032705  , -0.146543262984  , 0.944574029119  , -0.642200101009  , 0.892351539304  , -0.146589953371  , 0.944539210935  , 0.279483331985  , 1.051781550714  , -0.711904043229  , 1.134951807249  , 0.27947838149  , 1.051766107329  , -0.711921973641  , 1.134927465615  , -0.760891960721  , 0.88066904494  , -0.872438696009  , 0.828737418725  , -0.760901516661  , 0.880627184233  , -0.87245641541  , 0.828665417451 );
	kernels_AL[90] = compute_kernel_AL(x,   1.348747812216  , -1.64011957745  , -0.40644385539  , -1.079542483176  , 1.348756135962  , -1.640218506661  , -0.407290797415  , -1.079731332317  , 2.39546448254  , -1.441776026239  , -0.62419391743  , -1.072241927722  , 2.395442518801  , -1.441905473585  , -0.624990918463  , -1.072494548326  , -0.493754556792  , -2.376277755298  , 2.013178794453  , -2.352353362538  , -0.493757810324  , -2.3763155708  , 2.013076335539  , -2.352472742235  , 1.303349996906  , -0.434808317149  , 0.028400745274  , -0.376187464485  , 1.303345253423  , -0.434819909541  , 0.028341386716  , -0.376236874521  , 0.426068315626  , -1.489116666656  , 1.502214552813  , -1.499361185772  , 0.426059465489  , -1.489205671256  , 1.501944092702  , -1.499628164994 );
	kernels_AL[91] = compute_kernel_AL(x,   -0.651292925084  , -0.718275594538  , 1.23122344894  , -0.713986376022  , -0.651311128475  , -0.718338041943  , 1.230913572792  , -0.71412307747  , -0.652881325407  , -0.923093966705  , 1.698649275501  , -0.952022546737  , -0.652904996055  , -0.923150897566  , 1.698349661788  , -0.952179162184  , -0.776226947763  , -1.117389462754  , 1.407876121104  , -0.964770383832  , -0.77623625318  , -1.117413566473  , 1.40781295691  , -0.964841575222  , -1.926438665936  , -1.526019637102  , 1.719519458013  , -1.50177437277  , -1.926448388294  , -1.52603066808  , 1.719490178018  , -1.501817238108  , 1.632091519323  , -0.750482699991  , 0.570727278785  , -0.650536898379  , 1.632066323182  , -0.750519202601  , 0.570560716173  , -0.650676564174 );
	kernels_AL[92] = compute_kernel_AL(x,   0.087461089666  , -0.996308607287  , -7.4727783e-05  , -0.985994794754  , 0.08750063305  , -0.99635137382  , -0.0001684682  , -0.986058913778  , 2.05198413589  , -0.445317122622  , -2.198190026481  , -0.491425555773  , 2.052026370507  , -0.445346860628  , -2.198591996019  , -0.491476954288  , 2.122413040536  , -0.716594289072  , -0.486049554491  , -0.75787348311  , 2.122428183722  , -0.71659819025  , -0.486077340822  , -0.757888432922  , 0.858894637899  , -0.61442100233  , 0.409716618667  , -0.515024391908  , 0.858912891893  , -0.614422981481  , 0.409705448564  , -0.515031420575  , -1.235227442298  , -2.184442598053  , 2.321077963577  , -2.27498203987  , -1.23515853136  , -2.184482849126  , 2.320972390847  , -2.275081741033 );
	kernels_AL[93] = compute_kernel_AL(x,   0.928001688366  , 1.188421370687  , -0.355014381002  , 1.262225107616  , 0.927998666261  , 1.188363307926  , -0.355698824636  , 1.262147346575  , -0.561661304462  , 1.239440609923  , 0.120560185585  , 1.26315220632  , -0.561661414056  , 1.239367763831  , 0.11999664585  , 1.263039770047  , -0.639867632184  , 0.897440709858  , -0.138207351655  , 0.953862677553  , -0.639872824097  , 0.897413130938  , -0.138316412909  , 0.953809295074  , 0.281430131547  , 1.054888409174  , -0.708186962616  , 1.14144949107  , 0.281424329474  , 1.054871505363  , -0.708232404721  , 1.141410742838  , -0.752998254021  , 0.892644800457  , -0.857839217011  , 0.854532511693  , -0.753004013184  , 0.892588979247  , -0.857975555054  , 0.854401824684 );
	kernels_AL[94] = compute_kernel_AL(x,   0.922864701209  , 1.161635574331  , -0.435556199036  , 1.229411306992  , 0.922870206403  , 1.161571674592  , -0.436246975869  , 1.229325992098  , -0.573875420891  , 1.202761617603  , 0.012744333023  , 1.207684491186  , -0.573860164015  , 1.202693377532  , 0.012212883428  , 1.207573853732  , -0.64410772678  , 0.886005633931  , -0.157285037512  , 0.93306098559  , -0.644101759486  , 0.885982515428  , -0.157401841061  , 0.933008702973  , 0.277716495558  , 1.047365244848  , -0.717216562147  , 1.125928852181  , 0.277722374134  , 1.047354265938  , -0.717263588347  , 1.12589866626  , -0.766349248442  , 0.86376529249  , -0.895112019687  , 0.792301868129  , -0.766334648826  , 0.863723256254  , -0.895237545765  , 0.792186071765 );
	kernels_AL[95] = compute_kernel_AL(x,   -1.20064533788  , 0.161753190606  , -2.261557972646  , -0.374679165567  , -1.200641854529  , 0.161686090058  , -2.262635009096  , -0.374839147102  , -0.671911788967  , -0.565102923457  , -0.684353591292  , -0.774444117132  , -0.671887003245  , -0.565202376822  , -0.685163422853  , -0.774669760434  , -0.577551107735  , 0.530184768953  , -1.465062978103  , 0.08688826447  , -0.577540095183  , 0.530166642279  , -1.465224551238  , 0.086817089132  , -0.242897628552  , 0.512684056753  , -1.544317477463  , -0.141707213339  , -0.242893548838  , 0.512669689163  , -1.544380196527  , -0.141758830021  , -0.516959221597  , 0.334890383539  , -0.266574786823  , 0.344168063107  , -0.516935199045  , 0.334826643993  , -0.266777852194  , 0.343981058999 );
	kernels_AL[96] = compute_kernel_AL(x,   -0.749652792516  , -0.930692239319  , 0.393466773405  , -1.046446090576  , -0.749653824402  , -0.930656231026  , 0.394292094802  , -1.04636815263  , 0.00458151878  , -0.915830521435  , 0.061191549172  , -1.044788521052  , 0.004583923677  , -0.915799393364  , 0.061794332884  , -1.044708148206  , 1.376425947738  , 0.069670522009  , -1.189080303908  , -0.196199643205  , 1.376421265623  , 0.069693794576  , -1.188971439904  , -0.196137915785  , 1.488235737183  , -0.543504490554  , 0.162887169321  , -0.41398656467  , 1.488234713083  , -0.543499658316  , 0.162924990687  , -0.413964942511  , 1.315271676688  , 0.176048261722  , -0.284953153101  , 0.229358982887  , 1.315267757097  , 0.176075807625  , -0.284832506896  , 0.229447050052 );
	kernels_AL[97] = compute_kernel_AL(x,   -1.198166268565  , 0.1784124268  , -2.139230144056  , -0.346410223472  , -1.198149650403  , 0.178713476992  , -2.136451304679  , -0.345791078983  , -0.667272440042  , -0.545881815821  , -0.578512780618  , -0.73873279961  , -0.667220245117  , -0.545550509887  , -0.575970922522  , -0.737996603284  , -0.575857361968  , 0.537597569135  , -1.441747441473  , 0.103494578343  , -0.575820431184  , 0.537737795117  , -1.441220615485  , 0.1038664727  , -0.241898087814  , 0.51582068397  , -1.536107777195  , -0.133298956118  , -0.24187967946  , 0.515871132322  , -1.535931817941  , -0.133129876118  , -0.51191432145  , 0.347940550554  , -0.238125818579  , 0.377746723709  , -0.511878935232  , 0.3481825666  , -0.237444765539  , 0.378475074675 );
	kernels_AL[98] = compute_kernel_AL(x,   0.923052437775  , 1.162950535504  , -0.427256381833  , 1.231526848987  , 0.923037032478  , 1.162856848785  , -0.428043775204  , 1.231398765879  , -0.573272066024  , 1.205555599175  , 0.025804106132  , 1.212552195315  , -0.57330818114  , 1.205425040766  , 0.025095689525  , 1.212337456485  , -0.643904633744  , 0.886725850296  , -0.155339010552  , 0.934620564992  , -0.643916836762  , 0.886681432513  , -0.155477847436  , 0.934530773825  , 0.27792199467  , 1.047925945521  , -0.716128971893  , 1.127296024978  , 0.277910589415  , 1.047898866664  , -0.716188228915  , 1.127233090239  , -0.765573846085  , 0.866130724291  , -0.890669958188  , 0.797985038581  , -0.765615306426  , 0.866032228369  , -0.89085349845  , 0.797745578855 );
	kernels_AL[99] = compute_kernel_AL(x,   -1.200258672105  , 0.168750153275  , -2.20637048659  , -0.362370823354  , -1.199608476643  , 0.169036515073  , -2.198297278288  , -0.361164882078  , -0.671189674993  , -0.556734373374  , -0.636263617862  , -0.758714925992  , -0.670115476794  , -0.556496604447  , -0.629559108423  , -0.757434941354  , -0.577209308917  , 0.533411472343  , -1.454854613611  , 0.09418559437  , -0.576891319169  , 0.533503395165  , -1.453062557123  , 0.094867013698  , -0.242683036804  , 0.51405973025  , -1.540721240211  , -0.137990121972  , -0.24250256336  , 0.514092840312  , -1.540081818141  , -0.137649574952  , -0.516180154549  , 0.340593618666  , -0.253417410309  , 0.359009315104  , -0.514807107999  , 0.340848866235  , -0.251592843425  , 0.360503610879 );
	kernels_AL[100] = compute_kernel_AL(x,   0.920847405132  , 1.148025558042  , -0.471715689329  , 1.213513072236  , 0.920841995411  , 1.14795845016  , -0.472356457291  , 1.213427904896  , -0.578476493885  , 1.183366923069  , -0.03624895414  , 1.180156696626  , -0.578496625672  , 1.183278484397  , -0.036802008391  , 1.180010627246  , -0.645586508809  , 0.880956198237  , -0.165194220812  , 0.924238490277  , -0.645594307364  , 0.880920943526  , -0.165307505112  , 0.924168803299  , 0.275800268689  , 1.042371138865  , -0.722057944921  , 1.116442465038  , 0.275795881067  , 1.04235532426  , -0.722098881614  , 1.116406431574  , -0.772088117363  , 0.847952171514  , -0.912306318541  , 0.760574355635  , -0.772110474119  , 0.847887312986  , -0.912433718154  , 0.760410588004 );
	kernels_AL[101] = compute_kernel_AL(x,   -1.162292378757  , -0.583818378373  , -0.201600727778  , -0.846407026803  , -1.162309105103  , -0.583897571016  , -0.201951806042  , -0.846545743617  , 0.363733456983  , -0.671557332788  , -1.001840299042  , -0.780985121275  , 0.363704305455  , -0.671649899838  , -1.002267263739  , -0.781155476981  , 1.064562424244  , -0.014011273489  , -1.06376205354  , -0.25476599507  , 1.064544689507  , -0.014028986691  , -1.06383092151  , -0.254815076776  , -0.598612310393  , 0.176446158051  , -0.300963190314  , 0.015315328276  , -0.598623028645  , 0.176433117452  , -0.300987821908  , 0.015282157414  , -0.396238941799  , -0.513373835855  , 0.57777380631  , -0.537874858445  , -0.396272291889  , -0.513443952664  , 0.577640783784  , -0.538053544685 );
	kernels_AL[102] = compute_kernel_AL(x,   -0.750313603816  , -0.932485649722  , 0.386881505287  , -1.048942644511  , -0.750319172198  , -0.932556094277  , 0.386851819797  , -1.049041221968  , 0.003473848116  , -0.917718782487  , 0.055164354158  , -1.047872625881  , 0.003465006749  , -0.917804963056  , 0.055046682464  , -1.048003593371  , 1.37588021568  , 0.068886241654  , -1.190434061794  , -0.197676316179  , 1.375875617913  , 0.068865384322  , -1.190476054421  , -0.197710044465  , 1.487883075833  , -0.543861537163  , 0.16245580441  , -0.414778542146  , 1.487882513366  , -0.543877409767  , 0.162441614327  , -0.414807990151  , 1.314251958093  , 0.174815295666  , -0.286448309523  , 0.226656598168  , 1.314249314047  , 0.174763495682  , -0.286513299513  , 0.226556514509 );
	kernels_AL[103] = compute_kernel_AL(x,   -0.652151356915  , -0.72467330785  , 1.201936151305  , -0.723189129871  , -0.652155089078  , -0.724782357218  , 1.201530435941  , -0.723376984302  , -0.654871537092  , -0.931748228017  , 1.671059930667  , -0.965681702447  , -0.654872298533  , -0.931872243895  , 1.670700628259  , -0.965921014607  , -0.776982207345  , -1.12035995983  , 1.40247212563  , -0.970382992553  , -0.776981166712  , -1.120402805309  , 1.402397816155  , -0.970482466785  , -1.927002202283  , -1.527626304965  , 1.717481947158  , -1.505417276465  , -1.927004692497  , -1.527647369482  , 1.717449595539  , -1.505478473574  , 1.630033248112  , -0.756965296473  , 0.561705697858  , -0.664940871296  , 1.630029940714  , -0.757051326533  , 0.561524948687  , -0.665165683334 );
	kernels_AL[104] = compute_kernel_AL(x,   -0.651415318549  , -0.719062419646  , 1.225960832973  , -0.715313583852  , -0.651434830633  , -0.719162385231  , 1.225755075446  , -0.715466920932  , -0.653150694739  , -0.924132866974  , 1.693377393663  , -0.953954066784  , -0.653177810858  , -0.924257234551  , 1.693245538929  , -0.954151811897  , -0.776333331111  , -1.117760035349  , 1.406853445309  , -0.965599448108  , -0.776343493825  , -1.117802734965  , 1.406819690603  , -0.965678479544  , -1.926521042114  , -1.526219406186  , 1.719120216021  , -1.502309102087  , -1.926531577361  , -1.526239607979  , 1.719104700668  , -1.502356788598  , 1.631816140566  , -0.751272763881  , 0.569044022039  , -0.652590652462  , 1.63178647864  , -0.751355689414  , 0.568928152899  , -0.65276684555 );
	kernels_AL[105] = compute_kernel_AL(x,   -0.749427786234  , -0.929175434703  , 0.403110237238  , -1.043951485552  , -0.749432789387  , -0.929291462885  , 0.402516293421  , -1.044155050016  , 0.004947228418  , -0.914272295354  , 0.069923581916  , -1.041819845707  , 0.004943628657  , -0.9144110493  , 0.069292289365  , -1.042077093517  , 1.376584695659  , 0.070263801451  , -1.187215208125  , -0.194840290647  , 1.376570990724  , 0.070224716289  , -1.1873527837  , -0.194928706362  , 1.48833833135  , -0.543237692706  , 0.163509742082  , -0.413262030531  , 1.488330381017  , -0.543261485049  , 0.163463435239  , -0.413321335856  , 1.315603573547  , 0.177060313642  , -0.282823760971  , 0.231936014268  , 1.315595948745  , 0.176973550828  , -0.283009437715  , 0.231722453977 );
	kernels_AL[106] = compute_kernel_AL(x,   0.922789942154  , 1.160725650898  , -0.440503897824  , 1.22806071224  , 0.922776545614  , 1.16066849563  , -0.441160497086  , 1.227979225117  , -0.574110188748  , 1.200859186732  , 0.00472168225  , 1.204547374297  , -0.574131359051  , 1.200781460345  , 0.004281076505  , 1.204422915633  , -0.644194091506  , 0.885542219827  , -0.158499005182  , 0.932084879726  , -0.64420360197  , 0.885512515715  , -0.158604796922  , 0.932023189472  , 0.277636147521  , 1.04699195333  , -0.717892673106  , 1.125057869653  , 0.277628228299  , 1.046976032365  , -0.717932055022  , 1.125019969749  , -0.766680080295  , 0.86214375021  , -0.897851532099  , 0.788605402301  , -0.766704764466  , 0.862090291522  , -0.897950446331  , 0.788469044214 );
	kernels_AL[107] = compute_kernel_AL(x,   -0.652593265466  , -0.727692061461  , 1.182985135297  , -0.72807114986  , -0.652613302525  , -0.7278206966  , 1.182527287645  , -0.72828264637  , -0.655765949674  , -0.935577031586  , 1.651615719825  , -0.97271349566  , -0.655796926075  , -0.935732186285  , 1.651207983059  , -0.972996730418  , -0.777329882385  , -1.121704584724  , 1.398878045591  , -0.973306617329  , -0.777340437448  , -1.121757408159  , 1.398792627337  , -0.973423364217  , -1.927267109806  , -1.528371594704  , 1.71607006839  , -1.507344228963  , -1.927277718709  , -1.528396983182  , 1.716033119245  , -1.507415074439  , 1.629125937486  , -0.75980957224  , 0.555508033334  , -0.672338175743  , 1.629093095134  , -0.759916352952  , 0.55531059779  , -0.672604111411 );
	kernels_AL[108] = compute_kernel_AL(x,   -0.651900742532  , -0.723196837963  , 1.205757146409  , -0.721437059623  , -0.65190480636  , -0.72329790852  , 1.205233075149  , -0.72163164446  , -0.654353754396  , -0.929889521198  , 1.674479253834  , -0.963155934312  , -0.654356148655  , -0.930007004908  , 1.67395195452  , -0.963411380056  , -0.776786628735  , -1.119728382149  , 1.403185791472  , -0.969364651339  , -0.776782261028  , -1.119768910198  , 1.403078387513  , -0.969470360062  , -1.926861218735  , -1.527280719012  , 1.717728222869  , -1.504754404806  , -1.926861429126  , -1.527299617988  , 1.717680576014  , -1.504818487707  , 1.630589868281  , -0.755518806183  , 0.562839122888  , -0.662229740996  , 1.630585540546  , -0.755599765645  , 0.562605285979  , -0.662471931603 );
	kernels_AL[109] = compute_kernel_AL(x,   -0.749699163224  , -0.930920815875  , 0.392864931685  , -1.046731605917  , -0.749694667578  , -0.930982973112  , 0.392409278268  , -1.046870997609  , 0.004511406667  , -0.916034049776  , 0.060482167202  , -1.045122839041  , 0.00451561174  , -0.916107222724  , 0.059956848655  , -1.045294727185  , 1.37638136494  , 0.069567902037  , -1.189234808884  , -0.196382663055  , 1.376380784468  , 0.069564848675  , -1.189365067663  , -0.1964257483  , 1.488199817778  , -0.543551115279  , 0.162838220111  , -0.414085802724  , 1.488203310097  , -0.543559685624  , 0.162793438893  , -0.41412102676  , 1.315186294091  , 0.175911081594  , -0.285131607255  , 0.229058717918  , 1.315196327437  , 0.175863978695  , -0.285290685658  , 0.22891646259 );
	kernels_AL[110] = compute_kernel_AL(x,   -1.198188801113  , 0.178338215644  , -2.13962204099  , -0.346526183628  , -1.198211510981  , 0.178223873415  , -2.140671893417  , -0.346729528043  , -0.667322318012  , -0.545981839175  , -0.578824092131  , -0.738896110955  , -0.667354429006  , -0.546140799822  , -0.579589745629  , -0.739188572811  , -0.575876247513  , 0.537560409963  , -1.441832051341  , 0.103419493276  , -0.575887003832  , 0.537515998615  , -1.441993155946  , 0.103315836585  , -0.24190761247  , 0.515804652626  , -1.536136840788  , -0.133337495168  , -0.24191777742  , 0.515778524164  , -1.536199510545  , -0.133405432261  , -0.511959058353  , 0.347865363356  , -0.238212634113  , 0.377586388046  , -0.511996891103  , 0.347764451144  , -0.238409352407  , 0.377341016857 );
	kernels_AL[111] = compute_kernel_AL(x,   0.928405087969  , 1.190968244635  , -0.34400627606  , 1.265695142183  , 0.928449188304  , 1.19104975012  , -0.343009061151  , 1.265960587669  , -0.560723269662  , 1.243129043706  , 0.132828921246  , 1.268811671212  , -0.560642950731  , 1.24322957611  , 0.134242252751  , 1.269197139177  , -0.639590448669  , 0.89855608376  , -0.13605899675  , 0.955936902515  , -0.639559869895  , 0.898583111989  , -0.135884749839  , 0.956065025976  , 0.28166562998  , 1.055567461749  , -0.70721256741  , 1.142897595872  , 0.281691919737  , 1.055583401269  , -0.70712798152  , 1.142986037572  , -0.752024717197  , 0.895359444096  , -0.85361660589  , 0.860565505409  , -0.751930122292  , 0.89541349234  , -0.853104391371  , 0.860952539122 );
	kernels_AL[112] = compute_kernel_AL(x,   -0.75033718507  , -0.932754940936  , 0.386265667248  , -1.049249597864  , -0.75035622725  , -0.932837961624  , 0.385654936424  , -1.049438820324  , 0.003447350365  , -0.917948705725  , 0.0543120751  , -1.048230029767  , 0.003414815316  , -0.918047349239  , 0.053648152801  , -1.048467042068  , 1.375856110705  , 0.068769997808  , -1.190614317599  , -0.197874978751  , 1.375839080284  , 0.068751588222  , -1.190766676785  , -0.197949383458  , 1.487865554111  , -0.543918414992  , 0.162402266212  , -0.414887414962  , 1.487857326291  , -0.543932873459  , 0.162348304334  , -0.414939987325  , 1.314223278131  , 0.174653426044  , -0.28664846756  , 0.226333011648  , 1.314191595198  , 0.174592808478  , -0.286843670516  , 0.22613962436 );
	kernels_AL[113] = compute_kernel_AL(x,   -0.650404331862  , -0.712408384085  , 1.254100432445  , -0.705888654243  , -0.650415798227  , -0.712483502566  , 1.253626359614  , -0.706055144164  , -0.651248032183  , -0.916395251876  , 1.721778189816  , -0.940970387318  , -0.651254293588  , -0.916469971445  , 1.721282485796  , -0.941173538232  , -0.775546540066  , -1.11487462278  , 1.412397230999  , -0.959939911221  , -0.775547089297  , -1.11489852759  , 1.412301049112  , -0.960021944909  , -1.92593177264  , -1.524684145647  , 1.721179142155  , -1.498697993108  , -1.925935569436  , -1.524695112036  , 1.721134575443  , -1.498748544698  , 1.63377079358  , -0.745559291371  , 0.57814277233  , -0.639077271273  , 1.63375838506  , -0.745611993521  , 0.577920513976  , -0.639268933736 );
	kernels_AL[114] = compute_kernel_AL(x,   0.925714381425  , 1.180577424805  , -0.379486944879  , 1.252206734859  , 0.925700972773  , 1.180494962671  , -0.380231434131  , 1.252092395996  , -0.567980625228  , 1.227559151374  , 0.095139814402  , 1.246044701628  , -0.568013836246  , 1.227443257927  , 0.094481135676  , 1.245852834965  , -0.641656705661  , 0.8939501485  , -0.143324409316  , 0.947635309851  , -0.641666186136  , 0.893912750607  , -0.143455646357  , 0.947556759417  , 0.279950779153  , 1.052779904925  , -0.710452393228  , 1.137140825286  , 0.279942321786  , 1.052756655424  , -0.710508556692  , 1.137085667574  , -0.759138376077  , 0.884289935801  , -0.8665304166  , 0.837120058701  , -0.759176437359  , 0.884202920283  , -0.866702654742  , 0.836904099694 );
	kernels_AL[115] = compute_kernel_AL(x,   0.922979136628  , 1.162688435132  , -0.429061906992  , 1.231079574102  , 0.922965037316  , 1.162604780906  , -0.42975160879  , 1.23097193235  , -0.573484497041  , 1.205041902549  , 0.022833888098  , 1.211550951413  , -0.573520202959  , 1.204935452805  , 0.022308838444  , 1.21139174752  , -0.64397387289  , 0.886591710167  , -0.155765738581  , 0.93430145346  , -0.643985419789  , 0.886553612422  , -0.155871475195  , 0.93423199116  , 0.277850742954  , 1.047820638056  , -0.71636759929  , 1.127016616866  , 0.277839981544  , 1.047799690038  , -0.71641156103  , 1.126970059375  , -0.765848116055  , 0.865671381947  , -0.89164904449  , 0.796800012272  , -0.765888918384  , 0.865599509264  , -0.891774678909  , 0.796629012932 );
	kernels_AL[116] = compute_kernel_AL(x,   0.925272656761  , 1.178611075728  , -0.388227646133  , 1.24944318023  , 0.925259846749  , 1.178536603613  , -0.388812597966  , 1.249355983782  , -0.569325664432  , 1.224433903729  , 0.084397015498  , 1.241066698214  , -0.569353624286  , 1.224340653281  , 0.083987059077  , 1.240935319361  , -0.642045021449  , 0.89300041547  , -0.145200541168  , 0.945806675628  , -0.642055886773  , 0.892967441115  , -0.145283992115  , 0.945748420358  , 0.279608508336  , 1.052175815492  , -0.71129370777  , 1.135831461064  , 0.279598701544  , 1.052155687355  , -0.711329990568  , 1.135790746399  , -0.760393721594  , 0.882141891739  , -0.869945160944  , 0.832177347493  , -0.760429269839  , 0.88206824026  , -0.870040125306  , 0.832018030536 );
	kernels_AL[117] = compute_kernel_AL(x,   1.347699498732  , -1.646213039857  , -0.442253437707  , -1.089028803455  , 1.347699862873  , -1.646296921322  , -0.442882329307  , -1.089184038328  , 2.393633044544  , -1.448565801865  , -0.656054864488  , -1.084123469366  , 2.393613893365  , -1.448663009977  , -0.656702833789  , -1.084321040819  , -0.494434845724  , -2.378825317808  , 2.00660865428  , -2.357829879575  , -0.494428108176  , -2.378857927907  , 2.006535492969  , -2.357932174169  , 1.302915853434  , -0.435962710913  , 0.026127666347  , -0.379040317657  , 1.302917212838  , -0.435974480842  , 0.026080531466  , -0.379082039871  , 0.42448201405  , -1.493522828597  , 1.494866582461  , -1.509893781228  , 0.42447236047  , -1.493600257843  , 1.494637347177  , -1.510124759267 );
	kernels_AL[118] = compute_kernel_AL(x,   -0.652806032043  , -0.729572706382  , 1.171732094773  , -0.73106857371  , -0.652820108517  , -0.72969681  , 1.171237387754  , -0.73127827712  , -0.656169529625  , -0.937986812295  , 1.639796089297  , -0.97708528052  , -0.656182754858  , -0.938134694056  , 1.639330689165  , -0.977362724971  , -0.77750604707  , -1.122573806504  , 1.396619329988  , -0.975175922631  , -0.777509778118  , -1.122625680747  , 1.396522829887  , -0.975292711254  , -1.927400146532  , -1.528854054537  , 1.715192041941  , -1.50857266118  , -1.927406348222  , -1.52887917265  , 1.715150498487  , -1.508643515286  , 1.628718294002  , -0.76163289842  , 0.551746026853  , -0.676968961207  , 1.628699620481  , -0.761736371733  , 0.551531828734  , -0.677233632784 );
	kernels_AL[119] = compute_kernel_AL(x,   1.347059174863  , -1.650662205779  , -0.467173883794  , -1.095906507464  , 1.347117930575  , -1.650717573273  , -0.467512929254  , -1.096000706219  , 2.392637093702  , -1.45333337605  , -0.678821432617  , -1.092596848589  , 2.392660326858  , -1.453408197964  , -0.679201807353  , -1.092741783938  , -0.494876207772  , -2.380700057513  , 2.002032364036  , -2.361843802088  , -0.494850681249  , -2.380725920467  , 2.00201429189  , -2.361921157388  , 1.302618771871  , -0.436835047104  , 0.024552113659  , -0.381161892356  , 1.302633425523  , -0.436843768169  , 0.024524855018  , -0.381190140713  , 0.42346830488  , -1.496661687611  , 1.489607008015  , -1.517514098006  , 0.42352703322  , -1.496723531484  , 1.489455104229  , -1.517684172946 );
	kernels_AL[120] = compute_kernel_AL(x,   -0.651830465873  , -0.722792085016  , 1.207121787517  , -0.720912802786  , -0.651826029122  , -0.722866819038  , 1.206618940108  , -0.721072278146  , -0.654204233931  , -0.929305483977  , 1.675816362296  , -0.962308596389  , -0.654180271995  , -0.929387192174  , 1.675314755324  , -0.962505859447  , -0.776718882705  , -1.11951305178  , 1.403446978456  , -0.969004868728  , -0.776705891176  , -1.119546059402  , 1.403339579764  , -0.969094926348  , -1.926812070155  , -1.527165418181  , 1.717820002638  , -1.504523170507  , -1.926804673264  , -1.527181917449  , 1.717772356336  , -1.504578580436  , 1.630749514625  , -0.755090036234  , 0.563280435186  , -0.661355182835  , 1.630765429659  , -0.75514673875  , 0.563058641807  , -0.661541945886 );
	kernels_AL[121] = compute_kernel_AL(x,   0.925585130215  , 1.179835052151  , -0.383461899492  , 1.251095856059  , 0.925570749417  , 1.179763974485  , -0.384116055606  , 1.251000949529  , -0.568318494731  , 1.226390280342  , 0.090199657947  , 1.244082400385  , -0.568351546785  , 1.226303712823  , 0.089673051942  , 1.243935764893  , -0.641761055403  , 0.893601055904  , -0.144188901444  , 0.946912616086  , -0.64177208863  , 0.893570466199  , -0.144294404572  , 0.946849692588  , 0.279858619486  , 1.052556653494  , -0.710839397918  , 1.136625365493  , 0.279848046907  , 1.052538559939  , -0.710883326337  , 1.136580802473  , -0.759481359472  , 0.883495587324  , -0.868078626959  , 0.835177081986  , -0.759520414411  , 0.883430272847  , -0.868209821724  , 0.835007686814 );
	kernels_AL[122] = compute_kernel_AL(x,   0.925562889214  , 1.179553154993  , -0.384077737531  , 1.250790851617  , 0.925550596715  , 1.179514904405  , -0.384592009228  , 1.250738807475  , -0.568383545044  , 1.225978974393  , 0.089337171954  , 1.243540309323  , -0.568415396359  , 1.225932116275  , 0.088983995356  , 1.243461200268  , -0.641793387596  , 0.893458088126  , -0.14433604904  , 0.94669674652  , -0.641798940658  , 0.893438040501  , -0.144423161316  , 0.946654154195  , 0.279832421358  , 1.052464175069  , -0.71090058443  , 1.136469282341  , 0.279826905862  , 1.052453783421  , -0.710935335186  , 1.136441097435  , -0.75954510089  , 0.88321062675  , -0.868363188988  , 0.834633398329  , -0.759581307514  , 0.883166876605  , -0.868438911105  , 0.834525202061 );
	kernels_AL[123] = compute_kernel_AL(x,   0.086835528277  , -0.999880377469  , -0.020880256067  , -0.991628119616  , 0.086874741373  , -0.999657442338  , -0.018408690837  , -0.991174094587  , 2.05075977116  , -0.449505585002  , -2.218307895022  , -0.498809622672  , 2.05082956774  , -0.449235739622  , -2.216236948744  , -0.498208076326  , 2.12190193914  , -0.718198643633  , -0.490096113389  , -0.761257003919  , 2.121923606232  , -0.718098398955  , -0.489660457056  , -0.760992018296  , 0.858538448554  , -0.615230875936  , 0.408258850015  , -0.5170245686  , 0.858560008726  , -0.615181589751  , 0.408423583408  , -0.516866855723  , -1.236488338888  , -2.187651385694  , 2.314863418255  , -2.28334864628  , -1.236410007528  , -2.187463799541  , 2.315549001182  , -2.282703834 );
	kernels_AL[124] = compute_kernel_AL(x,   0.92412723732  , 1.171811982156  , -0.411552511847  , 1.240838741806  , 0.924115502134  , 1.171726580405  , -0.412274311811  , 1.240725760645  , -0.571358783318  , 1.215248985481  , 0.052189032656  , 1.226645707903  , -0.571381038573  , 1.215134304104  , 0.051586087166  , 1.226462380893  , -0.643023023118  , 0.889851010995  , -0.150976084322  , 0.939968811708  , -0.643032663646  , 0.889811929473  , -0.151092760629  , 0.939893218716  , 0.278778310139  , 1.050139081402  , -0.713920138804  , 1.131589275142  , 0.278769044325  , 1.050115436767  , -0.713968674809  , 1.131536005394  , -0.76271596381  , 0.874829855103  , -0.880724756439  , 0.816127747637  , -0.762742755452  , 0.874744317544  , -0.880877258768  , 0.81592257241 );
	kernels_AL[125] = compute_kernel_AL(x,   0.92256894526  , 1.159663762689  , -0.447201136495  , 1.226344696831  , 0.922554740975  , 1.15960908896  , -0.447788851206  , 1.226267992978  , -0.574862058448  , 1.198636903173  , -0.006567187667  , 1.20053213829  , -0.574886495645  , 1.198564448215  , -0.006912264926  , 1.200422036566  , -0.644424874347  , 0.884969400866  , -0.160099235291  , 0.930817819229  , -0.644433107217  , 0.8849437371  , -0.160186665485  , 0.930765486528  , 0.277377712242  , 1.046544402755  , -0.718807411463  , 1.123931565918  , 0.27737033548  , 1.046531784358  , -0.71883762086  , 1.123901365965  , -0.767475552375  , 0.8603616371  , -0.90165935789  , 0.784102885367  , -0.767505850464  , 0.860306088421  , -0.901721980985  , 0.783975085021 );
	kernels_AL[126] = compute_kernel_AL(x,   0.920125757898  , 1.140038178456  , -0.484851234768  , 1.205538131798  , 0.92011226795  , 1.139985639211  , -0.485410185311  , 1.205468141732  , -0.579400778227  , 1.178560228958  , -0.053631364148  , 1.17266489554  , -0.57943342255  , 1.178475913151  , -0.053992694181  , 1.172541578593  , -0.645912122061  , 0.879761677164  , -0.167427185586  , 0.92204068781  , -0.645921158813  , 0.879732063485  , -0.1675221211  , 0.921981901911  , 0.275334294323  , 1.040932527787  , -0.724052625217  , 1.11341136876  , 0.275326665992  , 1.040922567182  , -0.72406909918  , 1.113391693213  , -0.773213462059  , 0.844065536157  , -0.917874570442  , 0.752229613179  , -0.773249922125  , 0.844006380492  , -0.917939097703  , 0.752096107552 );
