#include "svmLeftRight.h"
#include <stdarg.h>
#include <math.h>
#include <stdint.h>

double kernels_LR[480] = { 0 };
double kernel_LR = 0.0;
double val_LR;
double bias_LR;
double decision_LR;

double compute_kernel_LR(double *x, ...) {
	va_list w;
	va_start(w, 20);
	kernel_LR = 0.0;

	for (uint16_t i = 0; i < 20; i++) {
		val_LR = x[i] - va_arg(w, double);
		kernel_LR += val_LR*val_LR;
	}

	return exp(-1.0 * kernel_LR);
}

int predict_LR(double *x) {

	kernels_LR[0] = compute_kernel_LR(x,   -0.723861565604  , 1.20305585683  , -0.722369613142  , -0.652031173894  , -0.654614338453  , -0.930764759216  , 1.671958140932  , -0.964496626403  , -0.776887986639  , 1.402681810955  , -1.119946144277  , -0.96976757842  , 1.71754313367  , -1.505110891018  , -1.926936857771  , -1.527398499572  , 1.630293939618  , -0.756187368846  , -0.663649440411  , 0.562366550729 );
	kernels_LR[1] = compute_kernel_LR(x,   0.18127291209  , -2.11771780166  , -0.341309925543  , -1.197807380586  , -0.666552912072  , -0.542636048516  , -0.559834089888  , -0.73234399138  , -0.575528197316  , -1.437752384234  , 0.538818372677  , 0.10637562136  , -1.534702017078  , -0.131827727886  , -0.241707738978  , 0.516314937298  , -0.511350529007  , 0.350133309755  , 0.383741819905  , -0.233183703049 );
	kernels_LR[2] = compute_kernel_LR(x,   1.150556333728  , -0.459461911992  , 1.217119530515  , 0.921205985494  , -0.577846599533  , 1.186504288465  , -0.024138425969  , 1.185242434226  , -0.645442275538  , -0.163582954633  , 0.881604271488  , 0.925543829279  , -0.720740905247  , 1.118321243722  , 0.276054141938  , 1.043192210783  , -0.771361352119  , 0.85029833223  , 0.765960176311  , -0.908541610142 );
	kernels_LR[3] = compute_kernel_LR(x,   1.140102936894  , -0.484557312068  , 1.205623883846  , 0.920130241919  , -0.579394515008  , 1.178624748752  , -0.053156741678  , 1.172801700856  , -0.645907917718  , -0.167364647857  , 0.879743782548  , 0.922005366518  , -0.723992968367  , 1.113474958192  , 0.275330904387  , 1.040932816901  , -0.773202503557  , 0.84412152352  , 0.752389948842  , -0.917893279827 );
	kernels_LR[4] = compute_kernel_LR(x,   1.139125020978  , -0.489071124965  , 1.204286931465  , 0.920013234541  , -0.579714863747  , 1.177123849353  , -0.059934146403  , 1.170221210594  , -0.646000083347  , -0.168129815358  , 0.87942511843  , 0.921365564896  , -0.724763918421  , 1.112421878652  , 0.275175728647  , 1.040485299609  , -0.773576525653  , 0.842898643674  , 0.749515567685  , -0.919998490666 );
	kernels_LR[5] = compute_kernel_LR(x,   -0.57290941308  , -0.137539575437  , -0.829058802877  , -1.160137634986  , 0.367295591458  , -0.659529130654  , -0.942124626845  , -0.759227090892  , 1.066016726378  , -1.051574553878  , -0.009437025173  , -0.244942734387  , -0.296724494685  , 0.020720430031  , -0.597635855437  , 0.178579768528  , -0.392899205784  , -0.505938322659  , -0.519214702477  , 0.591849148349 );
	kernels_LR[6] = compute_kernel_LR(x,   -0.71227136756  , 1.254534318335  , -0.705696686591  , -0.650373290697  , -0.651147656115  , -0.916213622724  , 1.722232398415  , -0.94067369079  , -0.775492561584  , 1.412492876937  , -1.114852942055  , -0.959918700638  , 1.721209735411  , -1.498606462864  , -1.925904249714  , -1.524670796116  , 1.633873182499  , -0.74542506336  , -0.638768260722  , 0.578077259342 );
	kernels_LR[7] = compute_kernel_LR(x,   -0.924521279453  , 0.430892930573  , -1.036484236214  , -0.748721488277  , 0.006262256281  , -0.909222723502  , 0.094466156704  , -1.032655599641  , 1.377203398678  , -1.182006183217  , 0.072299222279  , -0.190567418043  , 0.16522143476  , -0.410987263108  , 1.488713309947  , -0.542334312311  , 1.316753919531  , 0.180306388966  , 0.239852223225  , -0.276891545505 );
	kernels_LR[8] = compute_kernel_LR(x,   -0.577250885673  , -0.164195565088  , -0.83610021534  , -1.161056386558  , 0.365968598133  , -0.66433270609  , -0.966917271536  , -0.768000586776  , 1.065496458934  , -1.056540785252  , -0.011289445407  , -0.248969260977  , -0.298445365339  , 0.018557425853  , -0.597991253101  , 0.177716722335  , -0.394164450643  , -0.508944498513  , -0.526772342588  , 0.585861475366 );
	kernels_LR[9] = compute_kernel_LR(x,   1.146897703454  , -0.475844603452  , 1.21205431297  , 0.920694418529  , -0.578750402005  , 1.182083453769  , -0.040275589929  , 1.178222611479  , -0.645647156368  , -0.165742345608  , 0.880643503227  , 0.923644760406  , -0.722506136122  , 1.115714076994  , 0.275689918158  , 1.042000687982  , -0.772391261818  , 0.846977412622  , 0.758517686359  , -0.913731087491 );
	kernels_LR[10] = compute_kernel_LR(x,   -0.582361797582  , -0.194875496469  , -0.844311948365  , -1.162010119547  , 0.364265574812  , -0.669975993462  , -0.9953946197  , -0.778330243123  , 1.064770117025  , -1.062389902204  , -0.013430250834  , -0.253632460575  , -0.300484405857  , 0.01598205384  , -0.598484270852  , 0.176716184184  , -0.39576758416  , -0.51241533649  , -0.535627243971  , 0.579116601692 );
	kernels_LR[11] = compute_kernel_LR(x,   -1.646088615898  , -0.441917526049  , -1.088875814006  , 1.347710531756  , 2.393687196608  , -1.448447454168  , -0.655697621769  , -1.083935362057  , -0.494396147331  , 2.006671192008  , -2.378828647852  , -2.357874294805  , 0.026149081627  , -0.378983472558  , 1.302931588837  , -0.43596014921  , 0.424536210811  , -1.493444778563  , -1.509723242386  , 1.494697633856 );
	kernels_LR[12] = compute_kernel_LR(x,   1.160631346756  , -0.441203713777  , 1.227901876061  , 0.922773356059  , -0.574159309542  , 1.200649139014  , 0.003588712484  , 1.204172014713  , -0.644206627527  , -0.158679260987  , 0.885491101654  , 0.931984081793  , -0.717990571525  , 1.124950923789  , 0.277623644911  , 1.04695821047  , -0.766730997966  , 0.861967278879  , 0.788175411205  , -0.898051727952 );
	kernels_LR[13] = compute_kernel_LR(x,   1.182455903438  , -0.370893204976  , 1.254839712506  , 0.926021948602  , -0.567170108249  , 1.230606482551  , 0.105096679325  , 1.250716603149  , -0.64139522437  , -0.141547602091  , 0.89484727358  , 0.949299397576  , -0.709655438907  , 1.138334572358  , 0.280157671164  , 1.053320526695  , -0.758350181415  , 0.886334899151  , 0.841691082691  , -0.863512283677 );
	kernels_LR[14] = compute_kernel_LR(x,   -0.576543697977  , -0.161256338085  , -0.835109194516  , -1.160943808105  , 0.366112500019  , -0.663615317681  , -0.963977674306  , -0.766789004701  , 1.065571431374  , -1.055930122728  , -0.010967892533  , -0.248310687669  , -0.298237331198  , 0.018873446062  , -0.597935539701  , 0.177868572635  , -0.394013444536  , -0.508483858767  , -0.525709754422  , 0.586717546212 );
	kernels_LR[15] = compute_kernel_LR(x,   1.192087031943  , -0.338442739234  , 1.267422851054  , 0.928843655458  , -0.559623577663  , 1.244842186715  , 0.138646874096  , 1.271658931839  , -0.639239426202  , -0.135025284886  , 0.899021022324  , 0.956933216441  , -0.706741431266  , 1.143586481389  , 0.281949592064  , 1.055837017582  , -0.7509357878  , 0.896558763982  , 0.863504020831  , -0.851582755587 );
	kernels_LR[16] = compute_kernel_LR(x,   1.172507600239  , -0.408543303249  , 1.241768371959  , 0.92418585173  , -0.571062999215  , 1.216562680849  , 0.056562704229  , 1.228642210474  , -0.642923800265  , -0.15026241848  , 0.890218993915  , 0.940615928617  , -0.713569846022  , 1.132122077507  , 0.278851704801  , 1.050382410942  , -0.762430488469  , 0.87579389394  , 0.818219399239  , -0.879396617925 );
	kernels_LR[17] = compute_kernel_LR(x,   -0.581012301703  , -0.188689123444  , -0.842349395818  , -1.161646939692  , 0.364718270543  , -0.668541621332  , -0.989510321773  , -0.775872877645  , 1.064963698748  , -1.061183291915  , -0.012763458165  , -0.252216762609  , -0.300068337574  , 0.016600605592  , -0.598301222621  , 0.177030385095  , -0.395358103232  , -0.51152916532  , -0.533521016399  , 0.581043363961 );
	kernels_LR[18] = compute_kernel_LR(x,   0.168285659588  , -2.210534391511  , -0.363240037292  , -1.200284187266  , -0.671224095935  , -0.557263036978  , -0.639836045051  , -0.759770892021  , -0.577240075738  , -1.455594030282  , 0.533358691996  , 0.094069217054  , -1.540979753225  , -0.138242552749  , -0.242695536896  , 0.514029273274  , -0.516209554839  , 0.340227981195  , 0.358007946009  , -0.253630533184 );
	kernels_LR[19] = compute_kernel_LR(x,   -1.000499661203  , -0.023735505155  , -0.992547030764  , 0.086556654353  , 2.050210961681  , -0.450270338447  , -2.221150526371  , -0.500095592637  , 2.121656272082  , -0.490684703774  , -0.718558879191  , -0.76197596749  , 0.408056934525  , -0.517383945241  , 0.858358048457  , -0.61541445498  , -1.237056291588  , -2.188235123649  , -2.284801870425  , 2.313730754936 );
	kernels_LR[20] = compute_kernel_LR(x,   0.162148472228  , -2.259472521106  , -0.374086696874  , -1.200579201919  , -0.671769116764  , -0.564606522348  , -0.682429584078  , -0.773617300007  , -0.577483533705  , -1.464606820554  , 0.530402944048  , 0.087292638504  , -1.544156862868  , -0.14149139466  , -0.242857900044  , 0.512772919748  , -0.516816095048  , 0.335243673161  , 0.344963911033  , -0.26611711019 );
	kernels_LR[21] = compute_kernel_LR(x,   1.173603305231  , -0.404764297103  , 1.243146251453  , 0.924312998686  , -0.570770056608  , 1.21809291129  , 0.062452105623  , 1.231156008145  , -0.642787458642  , -0.149276529585  , 0.890720545849  , 0.941585799047  , -0.71310482853  , 1.132864917695  , 0.278965602872  , 1.050728984902  , -0.762110556827  , 0.877051565756  , 0.821045679697  , -0.877414391911 );
	kernels_LR[22] = compute_kernel_LR(x,   1.159790149929  , -0.446802241401  , 1.226489890639  , 0.922565829271  , -0.574834299569  , 1.198857508435  , -0.005760839816  , 1.200862181113  , -0.64440702351  , -0.159981517214  , 0.885008617379  , 0.930867166492  , -0.718741635962  , 1.124034657877  , 0.277383400527  , 1.046573763303  , -0.767446468085  , 0.86055312165  , 0.784484775764  , -0.901570058553 );
	kernels_LR[23] = compute_kernel_LR(x,   -0.433817888555  , 1.99008287393  , -0.454154748067  , -1.644438265366  , 0.011796720399  , -0.194317253793  , 0.736732427136  , -0.078638602412  , 1.273286946585  , 0.11484236966  , 0.289016673  , 0.694508178489  , 1.371840869675  , -1.222605202785  , -0.350582962471  , -1.293724544593  , 0.95263820363  , 0.806404952074  , 0.959199632436  , -0.596804014677 );
	kernels_LR[24] = compute_kernel_LR(x,   -0.429738273037  , 2.009733705891  , -0.448149181361  , -1.643857434671  , 0.013028977339  , -0.189136661319  , 0.754737460168  , -0.070348200298  , 1.273816538319  , 0.118620384194  , 0.290834691954  , 0.697979376043  , 1.373258867094  , -1.220353558792  , -0.3502137738  , -1.292805829579  , 0.953931605594  , 0.810474937479  , 0.9683489684  , -0.59087903984 );
	kernels_LR[25] = compute_kernel_LR(x,   -1.638117263954  , -0.399942565186  , -1.076968947289  , 1.349110268628  , 2.396095124099  , -1.439599490207  , -0.617880928241  , -1.068942354521  , -0.493487782626  , 2.014396440813  , -2.375478803481  , -2.350966314455  , 0.028810694905  , -0.375374290531  , 1.303514969271  , -0.434433936094  , 0.426644760769  , -1.487782825486  , -1.496566972446  , 1.503241462039 );
	kernels_LR[26] = compute_kernel_LR(x,   1.181519774673  , -0.37456024057  , 1.253611899096  , 0.925880369711  , -0.567466884351  , 1.229087040196  , 0.100605628001  , 1.248498646973  , -0.641492978663  , -0.142345877801  , 0.894357427232  , 0.948442157261  , -0.710013380004  , 1.137762267467  , 0.280078198068  , 1.053028348073  , -0.758641512396  , 0.885317122623  , 0.839514890466  , -0.864978455716 );
	kernels_LR[27] = compute_kernel_LR(x,   -0.439283180296  , 1.970544012521  , -0.461496292698  , -1.645458655134  , 0.009659457229  , -0.201204931117  , 0.718967257072  , -0.08885966954  , 1.272444278898  , 0.111012853467  , 0.28646971291  , 0.689988895149  , 1.370454995174  , -1.225354000522  , -0.35116640063  , -1.295018237494  , 0.950424540515  , 0.801071134317  , 0.948049015879  , -0.60349824754 );
	kernels_LR[28] = compute_kernel_LR(x,   1.19341076952  , -0.332074414061  , 1.26932596184  , 0.929062466566  , -0.559186024859  , 1.246682766631  , 0.145868280485  , 1.274709690373  , -0.639097285894  , -0.13367520569  , 0.89964238714  , 0.958167454779  , -0.70614333311  , 1.144391947533  , 0.282116128075  , 1.056204682126  , -0.750456358189  , 0.897883180055  , 0.866713649282  , -0.849164054015 );
	kernels_LR[29] = compute_kernel_LR(x,   1.192692291518  , -0.334950657628  , 1.26837391922  , 0.928888445507  , -0.559449479155  , 1.245727664425  , 0.142448957319  , 1.273193716472  , -0.639197597314  , -0.134315297734  , 0.899284396521  , 0.957530781771  , -0.706423261403  , 1.143969944936  , 0.281975384989  , 1.055997192753  , -0.75073449653  , 0.897201168265  , 0.865114665444  , -0.850181693161 );
	kernels_LR[30] = compute_kernel_LR(x,   -0.994374900737  , 0.012374998021  , -0.982806377707  , 0.08800748163  , 2.053042642826  , -0.44305564391  , -2.186472465301  , -0.487300875513  , 2.122877209558  , -0.48372462247  , -0.715704741771  , -0.755969028055  , 0.410553344221  , -0.513924102032  , 0.859219490951  , -0.613975576753  , -1.234133283746  , -2.182719582347  , -2.27033522084  , 2.324604060405 );
	kernels_LR[31] = compute_kernel_LR(x,   -0.7180491517  , 1.231692325628  , -0.713722298694  , -0.651244995516  , -0.652815241084  , -0.922849218344  , 1.699195346514  , -0.951664287817  , -0.77619681543  , 1.407993839181  , -1.117326645539  , -0.964678887279  , 1.71955616992  , -1.501669353858  , -1.9264193758  , -1.525982067488  , 1.632166590078  , -0.750296744441  , -0.650159380773  , 0.570830800496 );
	kernels_LR[32] = compute_kernel_LR(x,   1.192936106262  , -0.333802959465  , 1.268710106225  , 0.928902039563  , -0.559427945392  , 1.246015497181  , 0.14384730739  , 1.273693910906  , -0.639186531066  , -0.13406146813  , 0.899337089684  , 0.957621511585  , -0.706310066356  , 1.144110612469  , 0.281985195851  , 1.056027887046  , -0.750704990533  , 0.897402622722  , 0.865648145923  , -0.850037005131 );
	kernels_LR[33] = compute_kernel_LR(x,   -1.647770587701  , -0.45040629356  , -1.09137041903  , 1.347508546726  , 2.393292693905  , -1.45017837352  , -0.663613099727  , -1.086966454827  , -0.494590185281  , 2.005063604519  , -2.379495698387  , -2.359294685692  , 0.02559993268  , -0.379758107462  , 1.302809441722  , -0.436276135375  , 0.424116719916  , -1.494604460557  , -1.512473727803  , 1.492881799077 );
	kernels_LR[34] = compute_kernel_LR(x,   0.177955509352  , -2.142834196214  , -0.347243382572  , -1.198248575758  , -0.667404793036  , -0.546400305359  , -0.581682033882  , -0.739791330738  , -0.57590509377  , -1.442450071245  , 0.537364613874  , 0.102902859499  , -1.536349463918  , -0.133541752132  , -0.241934517672  , 0.515713691958  , -0.512035114046  , 0.347575858041  , 0.376754100196  , -0.239188256303 );
	kernels_LR[35] = compute_kernel_LR(x,   1.139254773817  , -0.488175360545  , 1.204499362674  , 0.920015659245  , -0.579687020512  , 1.177384802015  , -0.058122415471  , 1.170755606357  , -0.645993566606  , -0.167990025141  , 0.87946714333  , 0.921450037482  , -0.724595655512  , 1.112601085234  , 0.275181019983  , 1.040546666074  , -0.773542821927  , 0.843096397527  , 0.750062166536  , -0.919542723371 );
	kernels_LR[36] = compute_kernel_LR(x,   -1.641332629752  , -0.413169086699  , -1.08141830922  , 1.348644087081  , 2.395262760453  , -1.443037752239  , -0.630369113  , -1.074513750991  , -0.493817733806  , 2.011883895606  , -2.376735711336  , -2.353426969593  , 0.027954083735  , -0.37672026685  , 1.303314145781  , -0.435010201067  , 0.425912218269  , -1.489929253205  , -1.501366839155  , 1.500632254562 );
	kernels_LR[37] = compute_kernel_LR(x,   1.1938889646  , -0.330499828167  , 1.269908685983  , 0.929114447681  , -0.558864948326  , 1.24743045828  , 0.147491183123  , 1.275712644342  , -0.638984375331  , -0.133336766219  , 0.899809500663  , 0.958439644222  , -0.705993426155  , 1.144657866978  , 0.282157169034  , 1.056300707896  , -0.75013400451  , 0.898403026848  , 0.867750000704  , -0.848754104596 );
	kernels_LR[38] = compute_kernel_LR(x,   1.159813199481  , -0.446746256125  , 1.226515226471  , 0.922566655095  , -0.574826823114  , 1.198908404123  , -0.005658770468  , 1.200924598539  , -0.64440027573  , -0.159966802455  , 0.885025147594  , 0.930892195406  , -0.718732457985  , 1.124052000449  , 0.277384179854  , 1.046582849353  , -0.767443817537  , 0.860598314431  , 0.784562028402  , -0.901524240677 );
	kernels_LR[39] = compute_kernel_LR(x,   -0.724694138685  , 1.201817182593  , -0.723224210254  , -0.652174272306  , -0.654875860505  , -0.931777776221  , 1.670922137047  , -0.96573813464  , -0.776984461458  , 1.402442696111  , -1.120428703157  , -0.970534088921  , 1.717471239518  , -1.505433655562  , -1.927013961198  , -1.527660477465  , 1.630028923979  , -0.756985553646  , -0.664999175173  , 0.561438135869 );
	kernels_LR[40] = compute_kernel_LR(x,   -1.0004519094  , -0.023616536443  , -0.992483691183  , 0.086589996925  , 2.05029841355  , -0.450195658467  , -2.221063767425  , -0.499987858451  , 2.121701537298  , -0.490658952945  , -0.718520082992  , -0.761904009362  , 0.408063053176  , -0.517351187049  , 0.858391595085  , -0.615394846842  , -1.236958595431  , -2.188186565508  , -2.284689635461  , 2.313807921885 );
	kernels_LR[41] = compute_kernel_LR(x,   -0.70900810673  , 1.274710012261  , -0.700292358675  , -0.649629336391  , -0.649510849639  , -0.912169688128  , 1.742692199273  , -0.9329655663  , -0.77487713793  , 1.416480576796  , -1.113370096819  , -0.956561697506  , 1.72274245754  , -1.496477180355  , -1.925454470667  , -1.523885245663  , 1.635414666574  , -0.742455709061  , -0.630736901608  , 0.58468226792 );
	kernels_LR[42] = compute_kernel_LR(x,   -0.997832420488  , -0.007156865228  , -0.988235067001  , 0.087193429107  , 2.0513999838  , -0.447093599241  , -2.205191983771  , -0.494405346549  , 2.122186000506  , -0.487506315695  , -0.71723077536  , -0.759150828787  , 0.409208770617  , -0.515856835387  , 0.858754885886  , -0.614745123833  , -1.235826454625  , -2.18583814675  , -2.278386986312  , 2.318968461629 );
	kernels_LR[43] = compute_kernel_LR(x,   1.173058655061  , -0.407003708152  , 1.242407614497  , 0.924239101769  , -0.570950317052  , 1.217317578924  , 0.059277748893  , 1.22981959122  , -0.642862463971  , -0.149809939622  , 0.890475125924  , 0.941078963532  , -0.713357222893  , 1.132482417624  , 0.278900285971  , 1.050559707373  , -0.762289447082  , 0.876401163883  , 0.81954143966  , -0.878489906269 );
	kernels_LR[44] = compute_kernel_LR(x,   -0.713789975581  , 1.245170780884  , -0.708237091005  , -0.6506480411  , -0.65175581588  , -0.918166816273  , 1.712938984257  , -0.944330667878  , -0.775735359804  , 1.410727105781  , -1.115506508064  , -0.961382892125  , 1.720522916812  , -1.499596916448  , -1.926078804163  , -1.525019718426  , 1.633287890675  , -0.746858969362  , -0.642576961515  , 0.575226905147 );
	kernels_LR[45] = compute_kernel_LR(x,   1.146467451893  , -0.476607402841  , 1.211600216899  , 0.920645413706  , -0.578813987424  , 1.181851925603  , -0.041367731955  , 1.177803645201  , -0.645667856459  , -0.165882135825  , 0.880604376133  , 0.923579059506  , -0.722625449821  , 1.115548359079  , 0.275666033225  , 1.041963608946  , -0.772464796551  , 0.846789652491  , 0.758058543324  , -0.913846837916 );
	kernels_LR[46] = compute_kernel_LR(x,   1.172489833406  , -0.408634279323  , 1.241743036127  , 0.924181877214  , -0.571069728372  , 1.216531461361  , 0.056404496739  , 1.228590053448  , -0.642931039885  , -0.150291847999  , 0.890193231051  , 0.940575256631  , -0.713582083325  , 1.132105698411  , 0.278846992458  , 1.050367672207  , -0.762437197765  , 0.875770744846  , 0.818165468152  , -0.879466550473 );
	kernels_LR[47] = compute_kernel_LR(x,   1.172868412899  , -0.407430595884  , 1.242202004473  , 0.92421855433  , -0.570981640561  , 1.217086434704  , 0.058450987172  , 1.229464752433  , -0.642882021806  , -0.149953408528  , 0.890397899193  , 0.940944433117  , -0.71342146873  , 1.132368727427  , 0.278885000215  , 1.050504081444  , -0.762328360727  , 0.876209201812  , 0.819133312518  , -0.878755167658 );
	kernels_LR[48] = compute_kernel_LR(x,   -0.931015859854  , 0.392298080763  , -1.046893365462  , -0.749743700854  , 0.00441908069  , -0.916130853286  , 0.059920785787  , -1.045322916815  , 1.376349398614  , -1.189359884341  , 0.069487739884  , -0.196574357478  , 0.162796919216  , -0.414137830441  , 1.488177676113  , -0.543595072074  , 1.31512223975  , 0.175841867853  , 0.228880891092  , -0.285473957163 );
	kernels_LR[49] = compute_kernel_LR(x,   0.177594378901  , -2.144408782109  , -0.347745226942  , -1.198285660743  , -0.667486728875  , -0.546764591311  , -0.583197763703  , -0.74041293989  , -0.575930268674  , -1.442803225476  , 0.537245330776  , 0.102661956199  , -1.536468777616  , -0.13370168919  , -0.241948534562  , 0.5156585231  , -0.512119763388  , 0.347305973957  , 0.37614336708  , -0.239525861706 );
	kernels_LR[50] = compute_kernel_LR(x,   -0.931138374347  , 0.391346331067  , -1.047110668946  , -0.749771195447  , 0.004401866067  , -0.916261792195  , 0.059027678989  , -1.045590542213  , 1.37633964436  , -1.189547497526  , 0.069467096507  , -0.196618158078  , 0.162732673378  , -0.414205273778  , 1.488166757484  , -0.543604280229  , 1.315111232062  , 0.175756425887  , 0.228644760388  , -0.285510129171 );
	kernels_LR[51] = compute_kernel_LR(x,   1.172456164201  , -0.408711259078  , 1.241708930199  , 0.924179987366  , -0.571077232418  , 1.216470201511  , 0.056287116989  , 1.228513955491  , -0.642933065165  , -0.150313920139  , 0.890175405471  , 0.940543970488  , -0.713592790964  , 1.132083538457  , 0.278842828406  , 1.050356331071  , -0.762442180047  , 0.87572638512  , 0.818085300321  , -0.879534071554 );
	kernels_LR[52] = compute_kernel_LR(x,   0.171612681167  , -2.185795897571  , -0.357645690634  , -1.198794684141  , -0.668607509439  , -0.553533148543  , -0.619575279422  , -0.752846832994  , -0.576396817466  , -1.450517438211  , 0.534542364399  , 0.096791111486  , -1.539174751116  , -0.13663451089  , -0.242222426931  , 0.514523970517  , -0.513035772156  , 0.342719508586  , 0.364526319504  , -0.249436991775 );
	kernels_LR[53] = compute_kernel_LR(x,   -0.931916752709  , 0.388050197928  , -1.048222522201  , -0.750030767427  , 0.003861540883  , -0.917061059052  , 0.056057460955  , -1.046938929603  , 1.376069110308  , -1.19019126826  , 0.069104050158  , -0.197345560901  , 0.162529228225  , -0.414559833038  , 1.488025102143  , -0.543771811532  , 1.314587995503  , 0.175225395031  , 0.227449530901  , -0.286462658703 );
	kernels_LR[54] = compute_kernel_LR(x,   -1.638440502977  , -0.400894314882  , -1.077360678234  , 1.34910085298  , 2.396074435822  , -1.439891607662  , -0.618830173179  , -1.069389536896  , -0.493502841851  , 2.014183076798  , -2.375577680621  , -2.351164981462  , 0.028737271091  , -0.375482199871  , 1.303507657539  , -0.434479906269  , 0.426625409865  , -1.487984723583  , -1.49698384517  , 1.503031664396 );
	kernels_LR[55] = compute_kernel_LR(x,   -0.997268126799  , -0.004693513073  , -0.987407754631  , 0.087298640477  , 2.051626315074  , -0.446417683206  , -2.202823974891  , -0.493292948328  , 2.1222691368  , -0.487009692557  , -0.716989744858  , -0.758625221587  , 0.409381622513  , -0.515551413416  , 0.858807075685  , -0.614624236142  , -1.235582078838  , -2.185316893514  , -2.277129080156  , 2.319901699424 );
	kernels_LR[56] = compute_kernel_LR(x,   1.170770624029  , -0.415590449896  , 1.239492044875  , 0.924006317751  , -0.571640997779  , 1.213452013435  , 0.045743353314  , 1.22386856  , -0.643158987479  , -0.151980366667  , 0.88921239563  , 0.938837311394  , -0.714412690227  , 1.130778028141  , 0.278651981829  , 1.049715350911  , -0.763042229451  , 0.873385354132  , 0.813037642133  , -0.88298005814 );
	kernels_LR[57] = compute_kernel_LR(x,   -0.927101152314  , 0.415909871019  , -1.040576947583  , -0.749116654042  , 0.005532228552  , -0.912044712981  , 0.08151355641  , -1.03767207955  , 1.376855526993  , -1.184776236717  , 0.071151787583  , -0.192963936589  , 0.164308226066  , -0.41220413361  , 1.488497178842  , -0.542839279771  , 1.316113932801  , 0.178497426798  , 0.235511499551  , -0.280212135798 );
	kernels_LR[58] = compute_kernel_LR(x,   -1.000421475092  , -0.0233646027  , -0.992427172788  , 0.086612843897  , 2.050305973317  , -0.450161243274  , -2.220798387119  , -0.499912615527  , 2.121711094157  , -0.490607451286  , -0.718470738331  , -0.76180076509  , 0.40808140913  , -0.517329027095  , 0.858398888972  , -0.615368867989  , -1.236950299413  , -2.188160768389  , -2.284605094839  , 2.314020130996 );
	kernels_LR[59] = compute_kernel_LR(x,   -0.705533217627  , 1.295039665697  , -0.694831512363  , -0.648940460901  , -0.648260459848  , -0.907853545022  , 1.762993792641  , -0.925250601544  , -0.774382286742  , 1.420505063554  , -1.11180744187  , -0.953226594674  , 1.724285887309  , -1.494363313465  , -1.925103213884  , -1.523065009109  , 1.636689014642  , -0.739238455576  , -0.622580189157  , 0.591239047155 );
	kernels_LR[60] = compute_kernel_LR(x,   -0.928247296363  , 0.408330864247  , -1.042473237184  , -0.749263819692  , 0.005255710372  , -0.91328772579  , 0.074751462088  , -1.039993494746  , 1.376726576017  , -1.186174138881  , 0.070647768925  , -0.19404800144  , 0.163844738236  , -0.412783182835  , 1.4884157007  , -0.543063197664  , 1.315867458354  , 0.177694968225  , 0.233507303765  , -0.28184711054 );
	kernels_LR[61] = compute_kernel_LR(x,   -1.002026898522  , -0.035835322983  , -0.995398286351  , 0.086167262778  , 2.049395631578  , -0.452171207903  , -2.232628224582  , -0.503887664973  , 2.121315349955  , -0.492884560338  , -0.71923654919  , -0.763563739242  , 0.407253861553  , -0.518374398825  , 0.858126461352  , -0.615757531232  , -1.237880534788  , -2.189690849735  , -2.289074087043  , 2.310455982519 );
	kernels_LR[62] = compute_kernel_LR(x,   1.170873681152  , -0.415289529036  , 1.239621647401  , 0.924020769979  , -0.571607435471  , 1.213643326005  , 0.046335355534  , 1.224153286062  , -0.643135733675  , -0.151892078109  , 0.889288596018  , 0.938956198737  , -0.714366800343  , 1.130873412289  , 0.278667812079  , 1.049763385716  , -0.763000849193  , 0.873546205963  , 0.813367059041  , -0.882820901307 );
	kernels_LR[63] = compute_kernel_LR(x,   -1.650304383884  , -0.465270384402  , -1.095396867453  , 1.347189388586  , 2.392806878807  , -1.452927845001  , -0.677045425957  , -1.091947023341  , -0.494795380866  , 2.002359767437  , -2.380593081971  , -2.361675561166  , 0.024663779044  , -0.381001955299  , 1.302663961712  , -0.436782342677  , 0.423668738543  , -1.496403865789  , -1.516932516829  , 1.489797532567 );
	kernels_LR[64] = compute_kernel_LR(x,   -0.997945836967  , -0.007772703266  , -0.988406571096  , 0.087139070919  , 2.051375687771  , -0.44723186957  , -2.205829917198  , -0.494643900818  , 2.122173613758  , -0.487642427221  , -0.717374355381  , -0.759419889616  , 0.409159821407  , -0.515920424819  , 0.858726631518  , -0.614817864193  , -1.235846980327  , -2.185943415816  , -2.278656641745  , 2.318671851167 );
	kernels_LR[65] = compute_kernel_LR(x,   -1.638413616043  , -0.400859324085  , -1.077332419037  , 1.349109998906  , 2.396084091453  , -1.439869181921  , -0.618768931571  , -1.0693561906  , -0.493494789345  , 2.014190434178  , -2.375484661642  , -2.350978828912  , 0.028740330416  , -0.375467747727  , 1.303514709122  , -0.434436800069  , 0.426638151492  , -1.4879662993  , -1.496948862844  , 1.503229404704 );
	kernels_LR[66] = compute_kernel_LR(x,   -0.707093711043  , 1.287278706778  , -0.697120507364  , -0.64925002621  , -0.648839900242  , -0.909970603101  , 1.755573351023  , -0.928668169329  , -0.77460659997  , 1.419026230211  , -1.112548626717  , -0.954646985561  , 1.723722971397  , -1.495261273329  , -1.925256894683  , -1.523447271276  , 1.636073421197  , -0.740791955732  , -0.626170250409  , 0.588808288248 );
	kernels_LR[67] = compute_kernel_LR(x,   1.179917159589  , -0.383028013602  , 1.251219611855  , 0.925605427697  , -0.56824235703  , 1.226532531183  , 0.090817177504  , 1.244324374787  , -0.641735792162  , -0.144078540747  , 0.893623945529  , 0.946951372552  , -0.710788919045  , 1.136693772307  , 0.279874837065  , 1.052574244533  , -0.759409555775  , 0.883602377272  , 0.835426331062  , -0.868036196087 );
	kernels_LR[68] = compute_kernel_LR(x,   1.160771628809  , -0.440321945676  , 1.228120154001  , 0.922779486995  , -0.574091587648  , 1.200927769278  , 0.005073821501  , 1.204666223915  , -0.644189785319  , -0.158451182213  , 0.885532861957  , 0.932077940222  , -0.717865139175  , 1.125093518274  , 0.277630432443  , 1.04699247162  , -0.766657529366  , 0.862200874639  , 0.788742416413  , -0.897752706023 );
	kernels_LR[69] = compute_kernel_LR(x,   -0.9284238711  , 0.407358120073  , -1.042747059063  , -0.749285784154  , 0.005207746696  , -0.913485724788  , 0.073812424084  , -1.040352608699  , 1.376696981587  , -1.186376466826  , 0.070548870389  , -0.194237282604  , 0.163780492398  , -0.412881457413  , 1.488395203167  , -0.543107519726  , 1.315837545282  , 0.17758041159  , 0.233214326781  , -0.282081022855 );
	kernels_LR[70] = compute_kernel_LR(x,   -0.580162567576  , -0.183944371283  , -0.841036804815  , -1.161593412051  , 0.365029605687  , -0.667655733581  , -0.985034580852  , -0.774247459491  , 1.065082750121  , -1.060226832539  , -0.012549353451  , -0.251786578145  , -0.29973334142  , 0.017003338664  , -0.598274097257  , 0.177130262637  , -0.395081251544  , -0.51099991808  , -0.532145044892  , 0.58158112114 );
	kernels_LR[71] = compute_kernel_LR(x,   0.161983307121  , -2.260767180619  , -0.374378058945  , -1.200600888335  , -0.671787660576  , -0.564821039919  , -0.683562553843  , -0.774008050189  , -0.577496599189  , -1.464860650158  , 0.530326768186  , 0.08714715794  , -1.544245583311  , -0.14159159619  , -0.242868155271  , 0.512739940794  , -0.516834662478  , 0.335079161121  , 0.344571817458  , -0.266334142235 );
	kernels_LR[72] = compute_kernel_LR(x,   1.159838959927  , -0.446704267168  , 1.226542511214  , 0.922572794343  , -0.574819678594  , 1.19895095146  , -0.005531183782  , 1.20098872603  , -0.64439944057  , -0.159948409005  , 0.885041610972  , 0.930950074771  , -0.718721750346  , 1.124068379545  , 0.277391258086  , 1.046596874729  , -0.76744087695  , 0.860630804214  , 0.784629077861  , -0.901280682493 );
	kernels_LR[73] = compute_kernel_LR(x,   1.141584241847  , -0.481506114512  , 1.207164497339  , 0.920218259021  , -0.579188104454  , 1.179592625779  , -0.049834384393  , 1.174289458661  , -0.645839437653  , -0.166934241138  , 0.879954666783  , 0.922405829147  , -0.723583018736  , 1.114082911705  , 0.275436126968  , 1.041225048819  , -0.772973947916  , 0.844847680137  , 0.754000593456  , -0.916743009987 );
	kernels_LR[74] = compute_kernel_LR(x,   1.195854918993  , -0.322724872929  , 1.272522174528  , 0.929467220945  , -0.55803286569  , 1.250371572521  , 0.155728179527  , 1.279998070847  , -0.638697234321  , -0.131740214799  , 0.900705945037  , 0.960068087959  , -0.705289781265  , 1.145770682045  , 0.2823932562  , 1.056838669209  , -0.749368126645  , 0.90050072699  , 0.872245229653  , -0.845800057313 );
	kernels_LR[75] = compute_kernel_LR(x,   -0.707457259196  , 1.2851652626  , -0.697721746153  , -0.649363012922  , -0.649056044399  , -0.910421367787  , 1.753348239231  , -0.929520637451  , -0.774685749638  , 1.418562715283  , -1.112687132452  , -0.954944203918  , 1.723547060175  , -1.495502142391  , -1.925304404426  , -1.523518769085  , 1.635853866515  , -0.741137369092  , -0.627094366866  , 0.588294645741 );
	kernels_LR[76] = compute_kernel_LR(x,   -0.711362928281  , 1.259642974793  , -0.7042427996  , -0.65016101832  , -0.65074764156  , -0.915015930946  , 1.727330762361  , -0.938540382903  , -0.775315391654  , 1.413478765832  , -1.114395334019  , -0.958937880058  , 1.721584502798  , -1.498021632781  , -1.925772727174  , -1.524431005478  , 1.634265365185  , -0.74455705973  , -0.636560001365  , 0.579861745047 );
	kernels_LR[77] = compute_kernel_LR(x,   1.180128588893  , -0.381908308077  , 1.251533386394  , 0.925646246767  , -0.568129457258  , 1.226884873363  , 0.092241044912  , 1.244901522211  , -0.641702304433  , -0.143824711143  , 0.89371486131  , 0.947140653717  , -0.710678783323  , 1.13684696503  , 0.279902383475  , 1.05263388901  , -0.759285248951  , 0.883849875586  , 0.836013742627  , -0.867609366398 );
	kernels_LR[78] = compute_kernel_LR(x,   -0.709816271462  , 1.269559366847  , -0.701669263714  , -0.649901158289  , -0.650183588598  , -0.913120971108  , 1.737348868892  , -0.934915042044  , -0.775086304571  , 1.415417435413  , -1.113686589022  , -0.957328208007  , 1.722332507909  , -1.49701769053  , -1.925607964871  , -1.524052596317  , 1.634786798551  , -0.743166202022  , -0.632777537318  , 0.5831485748 );
	kernels_LR[79] = compute_kernel_LR(x,   -0.58366586899  , -0.200998886058  , -0.84620141678  , -1.162273105614  , 0.363761954899  , -0.671431432862  , -1.001115606669  , -0.780748277073  , 1.06457402178  , -1.063600191184  , -0.013953199872  , -0.254660210369  , -0.300908122453  , 0.015388552471  , -0.598610516473  , 0.176471753371  , -0.396214572243  , -0.513289323766  , -0.53766350689  , 0.577816820887 );
	kernels_LR[80] = compute_kernel_LR(x,   1.172945235304  , -0.407108680545  , 1.242304322258  , 0.92422899387  , -0.570958490778  , 1.217214325173  , 0.058981747783  , 1.229673380539  , -0.64287073432  , -0.14985776259  , 0.89042639194  , 0.941002312482  , -0.713377108509  , 1.132430389907  , 0.278896054975  , 1.050523872534  , -0.762300305554  , 0.876320667933  , 0.819375273609  , -0.878632182832 );
	kernels_LR[81] = compute_kernel_LR(x,   -0.707312140931  , 1.286249977327  , -0.69746059219  , -0.649324603451  , -0.649010299476  , -0.910257709435  , 1.754547554073  , -0.929165798664  , -0.774665183764  , 1.418801830127  , -1.112652611168  , -0.954867552868  , 1.723638839943  , -1.495400977385  , -1.925289592131  , -1.523500863485  , 1.635904840055  , -0.741010621794  , -0.626711018872  , 0.588436922304 );
	kernels_LR[82] = compute_kernel_LR(x,   1.161595556325  , -0.435738151184  , 1.229359660872  , 0.922848934181  , -0.573883888319  , 1.202687187733  , 0.012402400706  , 1.207563076469  , -0.644113373319  , -0.157336539171  , 0.885954127533  , 0.932958645144  , -0.71724562574  , 1.12589320356  , 0.277704686289  , 1.047334328676  , -0.766360393704  , 0.863691701436  , 0.792148820451  , -0.895319535649 );
	kernels_LR[83] = compute_kernel_LR(x,   -0.714561229038  , 1.241776673512  , -0.709357714356  , -0.650842653045  , -0.652071199787  , -0.919054500368  , 1.70906545249  , -0.945925304835  , -0.775861850422  , 1.40999504649  , -1.11588152547  , -0.962158788469  , 1.720252166496  , -1.500052640713  , -1.926170603144  , -1.525223134726  , 1.632946275387  , -0.747456944471  , -0.644135132639  , 0.573917478473 );
	kernels_LR[84] = compute_kernel_LR(x,   1.147953274399  , -0.472079593625  , 1.213412703362  , 0.920831165063  , -0.5784819756  , 1.183309969515  , -0.036616403794  , 1.180045542307  , -0.645590754825  , -0.165242043781  , 0.880900076541  , 0.924126567006  , -0.722097716154  , 1.116396218178  , 0.275788330453  , 1.042331721135  , -0.772094965879  , 0.847907674052  , 0.760456290283  , -0.912539822709 );
	kernels_LR[85] = compute_kernel_LR(x,   1.171755935906  , -0.4116644824  , 1.2407802745  , 0.924111328109  , -0.571370330551  , 1.215172644014  , 0.051974687025  , 1.226535408617  , -0.643028766867  , -0.151009192531  , 0.889797185151  , 0.939865061188  , -0.713935435432  , 1.131551699568  , 0.278766301143  , 1.050103590385  , -0.762725681192  , 0.874765515373  , 0.816003851897  , -0.880930311045 );
	kernels_LR[86] = compute_kernel_LR(x,   -0.440465502302  , 1.966583054227  , -0.46308075667  , -1.645723267639  , 0.009282837828  , -0.202450218047  , 0.714971242088  , -0.090848476813  , 1.272289317056  , 0.110181469548  , 0.286067327265  , 0.689211434498  , 1.370155181265  , -1.225912816747  , -0.351270642794  , -1.295229936435  , 0.949989347683  , 0.800055306271  , 0.945811604583  , -0.604783559542 );
	kernels_LR[87] = compute_kernel_LR(x,   1.193577378615  , -0.331444579703  , 1.2695481376  , 0.929107157145  , -0.558990189275  , 1.246956032404  , 0.146465386173  , 1.275095310356  , -0.639033417319  , -0.133553808923  , 0.899736799345  , 0.958311371036  , -0.706089794912  , 1.144492149063  , 0.28215163783  , 1.056260065179  , -0.750259735439  , 0.89806588369  , 0.867104285261  , -0.848971136642 );
	kernels_LR[88] = compute_kernel_LR(x,   0.163677906928  , -2.247288725364  , -0.371374788365  , -1.200536959097  , -0.671689560789  , -0.562703529948  , -0.671834785729  , -0.770075752404  , -0.577449536639  , -1.4624032853  , 0.531118526911  , 0.088930468084  , -1.543373675513  , -0.140676293753  , -0.24284381046  , 0.513074574396  , -0.516738598564  , 0.336525346321  , 0.348278486465  , -0.263044901015 );
	kernels_LR[89] = compute_kernel_LR(x,   -0.713844678903  , 1.2449258453  , -0.708313098502  , -0.650661183409  , -0.651766634588  , -0.918230287852  , 1.71259705194  , -0.944451227562  , -0.775744087396  , 1.410657210673  , -1.115562329795  , -0.961503343775  , 1.720498442207  , -1.49963738245  , -1.926088149941  , -1.525051073752  , 1.633271743044  , -0.746905509617  , -0.642705230045  , 0.575024341904 );
	kernels_LR[90] = compute_kernel_LR(x,   -0.44246404961  , 1.959192997763  , -0.465786818449  , -1.646037671332  , 0.008454423572  , -0.205078674039  , 0.708433700332  , -0.094727762538  , 1.27193777808  , 0.108787246073  , 0.28513530449  , 0.687611148289  , 1.369653451865  , -1.226974567573  , -0.351472891724  , -1.295707056532  , 0.949106339177  , 0.798016713627  , 0.941594776649  , -0.606869478644 );
	kernels_LR[91] = compute_kernel_LR(x,   1.150347573436  , -0.460098744509  , 1.216867146648  , 0.921161952385  , -0.577932790779  , 1.186325928542  , -0.024791669798  , 1.184946592732  , -0.645461894191  , -0.163667564501  , 0.881579924579  , 0.925498464372  , -0.720806680747  , 1.118210443954  , 0.276035134522  , 1.043166108977  , -0.771450594797  , 0.850168883755  , 0.765661368939  , -0.908613954157 );
	kernels_LR[92] = compute_kernel_LR(x,   -0.439222281568  , 1.9708589297  , -0.461394949369  , -1.645458375916  , 0.009701842707  , -0.201125585319  , 0.719298982454  , -0.088710893759  , 1.272456379854  , 0.111086427265  , 0.286476363098  , 0.689999845299  , 1.370482529105  , -1.225314497996  , -0.351166148561  , -1.295014704263  , 0.950467877573  , 0.801133735131  , 0.948209351542  , -0.603483778737 );
	kernels_LR[93] = compute_kernel_LR(x,   -0.572813397774  , -0.13675578157  , -0.828863911859  , -1.160073453845  , 0.367365432465  , -0.659431657674  , -0.941333589396  , -0.758989391656  , 1.066042274856  , -1.051405334142  , -0.009364767384  , -0.244819154123  , -0.296664837836  , 0.020784019463  , -0.597610965417  , 0.178612564931  , -0.392842804202  , -0.505874339748  , -0.519006266116  , 0.591974544642 );
	kernels_LR[94] = compute_kernel_LR(x,   1.195554380131  , -0.323928556368  , 1.272122647942  , 0.929407046311  , -0.558174589021  , 1.24997281088  , 0.154278794782  , 1.279363636197  , -0.638748230684  , -0.132012437852  , 0.900569257651  , 0.959811541587  , -0.705402976313  , 1.145587621558  , 0.282350519846  , 1.056749547579  , -0.749517775379  , 0.900196675539  , 0.871555786302  , -0.84629681955 );
	kernels_LR[95] = compute_kernel_LR(x,   1.173544156658  , -0.405009232686  , 1.243064397226  , 0.924297653648  , -0.57082878229  , 1.217991084584  , 0.062033621296  , 1.230973031036  , -0.642811140202  , -0.149346424693  , 0.89068161831  , 0.941501326461  , -0.713136951449  , 1.132810963025  , 0.278951607196  , 1.050702738055  , -0.762157630487  , 0.876966910741  , 0.820841616126  , -0.877592840482 );
	kernels_LR[96] = compute_kernel_LR(x,   -0.583464737163  , -0.20037604986  , -0.845941237271  , -1.162226422963  , 0.363799372882  , -0.671259626173  , -1.000396017764  , -0.780448160412  , 1.064592080794  , -1.063456722277  , -0.013882687708  , -0.254499086733  , -0.300859173244  , 0.015467557524  , -0.598583594619  , 0.176503642756  , -0.39618115802  , -0.513179309583  , -0.537405512232  , 0.578060379071 );
	kernels_LR[97] = compute_kernel_LR(x,   1.193926685579  , -0.330422848412  , 1.269948638641  , 0.92915616861  , -0.558862103118  , 1.247490388752  , 0.147593252471  , 1.275788742298  , -0.638982735069  , -0.133314694079  , 0.899889105346  , 0.958586689093  , -0.705985777841  , 1.144680990408  , 0.282188233677  , 1.056345953762  , -0.750129912781  , 0.898452347529  , 0.867835998923  , -0.848457494134 );
	kernels_LR[98] = compute_kernel_LR(x,   -0.573511430799  , -0.142494272385  , -0.830300258658  , -1.160370709563  , 0.366693248754  , -0.660208216473  , -0.946758575256  , -0.76077128089  , 1.065829567533  , -1.052538370634  , -0.009539512029  , -0.245122629709  , -0.297061020502  , 0.020354309056  , -0.59770404729  , 0.1785320563  , -0.393483239499  , -0.506360804441  , -0.520539658092  , 0.591808153407 );
	kernels_LR[99] = compute_kernel_LR(x,   0.182702413956  , -2.109508960531  , -0.339161252075  , -1.197680404025  , -0.666282414817  , -0.541033014352  , -0.551852266854  , -0.729535207248  , -0.575397981676  , -1.436166868884  , 0.539414612594  , 0.107609859697  , -1.534154397794  , -0.131185089228  , -0.241643990644  , 0.516568846043  , -0.511110111172  , 0.351283941824  , 0.386452950205  , -0.230989267925 );
	kernels_LR[100] = compute_kernel_LR(x,   -0.429711240155  , 2.009845676444  , -0.448113126523  , -1.643856632437  , 0.013036172643  , -0.189102188994  , 0.754880357256  , -0.070293478172  , 1.273821627186  , 0.118653492404  , 0.290847348967  , 0.698004404957  , 1.373271104396  , -1.22033621622  , -0.350212802931  , -1.292798903668  , 0.9539418378  , 0.810502010823  , 0.968410187471  , -0.590835633431 );
	kernels_LR[101] = compute_kernel_LR(x,   -1.641525426555  , -0.414400762776  , -1.081730134848  , 1.348593119449  , 2.395182707666  , -1.443258922324  , -0.631451048091  , -1.07490364614  , -0.493849053868  , 2.011659495522  , -2.376810019466  , -2.353566192929  , 0.027876070932  , -0.376814687523  , 1.303296651714  , -0.43504246764  , 0.425850261939  , -1.49007050874  , -1.501709374435  , 1.5004972124 );
	kernels_LR[102] = compute_kernel_LR(x,   -0.927367599565  , 0.414776169175  , -1.040947240516  , -0.749136440392  , 0.005398644049  , -0.912308021241  , 0.080406103982  , -1.038126102191  , 1.376794942636  , -1.185022708941  , 0.071067878969  , -0.193112545767  , 0.1642286836  , -0.412332275951  , 1.488484834248  , -0.542879550642  , 1.31599222942  , 0.178315089925  , 0.235100457215  , -0.280368881164 );
	kernels_LR[103] = compute_kernel_LR(x,   -0.583328274118  , -0.199529272557  , -0.845720035966  , -1.162205488313  , 0.363879399946  , -0.671103155313  , -0.99959477338  , -0.780162579316  , 1.064622091455  , -1.063269109092  , -0.013855355008  , -0.254461543362  , -0.30079186808  , 0.015535964337  , -0.598570345158  , 0.176515818137  , -0.396108490861  , -0.513085234869  , -0.537160635947  , 0.578065202006 );
	kernels_LR[104] = compute_kernel_LR(x,   1.172852529888  , -0.40748658116  , 1.242182515372  , 0.924217855683  , -0.570984493706  , 1.217058168805  , 0.058359124758  , 1.229423710839  , -0.642885528362  , -0.149971801978  , 0.890376136815  , 0.940903761131  , -0.713429117044  , 1.132357165712  , 0.278883109411  , 1.050490227036  , -0.762332700566  , 0.876190523844  , 0.81908958461  , -0.878837157542 );
	kernels_LR[105] = compute_kernel_LR(x,   -0.709948614157  , 1.268978519606  , -0.701871950372  , -0.649934435612  , -0.65026721767  , -0.913263243208  , 1.736710935465  , -0.935192927841  , -0.775122615087  , 1.415303396026  , -1.113775417618  , -0.957509667635  , 1.722294266339  , -1.497104403393  , -1.92562776146  , -1.524103519617  , 1.634704186719  , -0.743270464697  , -0.633071971899  , 0.582825438199 );
	kernels_LR[106] = compute_kernel_LR(x,   -1.649455778383  , -0.459545889906  , -1.093949801648  , 1.347281407687  , 2.392918227564  , -1.451955147282  , -0.671982786284  , -1.090146323377  , -0.494742495443  , 2.003371407162  , -2.380180992249  , -2.360744798415  , 0.025015601489  , -0.380556829272  , 1.302708836099  , -0.436593108313  , 0.423778319593  , -1.495771054682  , -1.515320414618  , 1.491121428043 );
	kernels_LR[107] = compute_kernel_LR(x,   -0.724991605698  , 1.199269852524  , -0.723773802924  , -0.65218588508  , -0.654905131832  , -0.932138640976  , 1.668166264644  , -0.966515359838  , -0.777000678955  , 1.401931358214  , -1.120449993212  , -0.970576325214  , 1.717266264703  , -1.505653328146  , -1.927020981739  , -1.527673822983  , 1.630002497134  , -0.757266349525  , -0.665837293411  , 0.561387495058 );
	kernels_LR[108] = compute_kernel_LR(x,   -0.431529042937  , 2.00169981875  , -0.450731487344  , -1.644111996326  , 0.012477391435  , -0.191372144225  , 0.747240466539  , -0.073890602934  , 1.273604420718  , 0.117009118015  , 0.290027116854  , 0.69645261227  , 1.372665357926  , -1.221327633279  , -0.35034732874  , -1.293211800966  , 0.95335162947  , 0.808703582187  , 0.964420744659  , -0.593456898245 );
	kernels_LR[109] = compute_kernel_LR(x,   -0.719606641632  , 1.222160832348  , -0.71623834173  , -0.651513989079  , -0.653321328489  , -0.924862249653  , 1.689590620843  , -0.955295613908  , -0.776401290331  , 1.406139779468  , -1.118071036287  , -0.966280737795  , 1.71884181739  , -1.502680040443  , -1.926581580599  , -1.526384723018  , 1.631628461775  , -0.751833421026  , -0.654040961412  , 0.567633195028 );
	kernels_LR[110] = compute_kernel_LR(x,   -0.577317134243  , -0.164356522757  , -0.836171350562  , -1.161059702134  , 0.365960990077  , -0.664397368611  , -0.967106099831  , -0.768087800165  , 1.065489363896  , -1.056581250841  , -0.011317656372  , -0.249009932963  , -0.298459132305  , 0.018534302423  , -0.59799554667  , 0.177704491869  , -0.394178799364  , -0.508986361406  , -0.526849595225  , 0.585834949227 );
	kernels_LR[111] = compute_kernel_LR(x,   -0.728395416793  , 1.179430070256  , -0.729113816804  , -0.652662374795  , -0.655904002512  , -0.936466809921  , 1.647992257962  , -0.974222629295  , -0.777377932926  , 1.398182773199  , -1.12201478366  , -0.973939585574  , 1.715802377399  , -1.507757560273  , -1.927309158203  , -1.528540217825  , 1.628982858623  , -0.760472315312  , -0.673931329194  , 0.554343599455 );
	kernels_LR[112] = compute_kernel_LR(x,   -0.573997676353  , -0.145426501228  , -0.831080797184  , -1.160578330713  , 0.36658081162  , -0.660752327279  , -0.949391964441  , -0.761738323463  , 1.065762713123  , -1.05307545936  , -0.009754937227  , -0.245804667624  , -0.29725069869  , 0.020112476518  , -0.597768157203  , 0.178432422357  , -0.393593195528  , -0.506700420185  , -0.521376318733  , 0.590462554727 );
	kernels_LR[113] = compute_kernel_LR(x,   -0.430706633666  , 2.005261881951  , -0.449544601047  , -1.644035806219  , 0.01272734673  , -0.190325263892  , 0.750567927292  , -0.072232693518  , 1.273691905212  , 0.117744855997  , 0.290402304752  , 0.697192529549  , 1.372937637905  , -1.2208805803  , -0.350304927839  , -1.293025504769  , 0.953621772768  , 0.809527831465  , 0.9662558592  , -0.592161940374 );
	kernels_LR[114] = compute_kernel_LR(x,   1.178533249896  , -0.388542563311  , 1.249345734722  , 0.925253053344  , -0.569342070497  , 1.22430748828  , 0.084004048508  , 1.240889706337  , -0.642054163505  , -0.145270436277  , 0.892921393111  , 0.945659254851  , -0.711327360352  , 1.135778469871  , 0.279591874211  , 1.052127565225  , -0.760409544577  , 0.882054266547  , 0.832000978264  , -0.870220985343 );
	kernels_LR[115] = compute_kernel_LR(x,   -0.927141969333  , 0.415818894945  , -1.040621772517  , -0.74911850471  , 0.005530485863  , -0.912081809205  , 0.08139617666  , -1.037726801677  , 1.376853052224  , -1.184805666236  , 0.071134277768  , -0.192988965503  , 0.164297518426  , -0.412224366611  , 1.488496066948  , -0.542847858469  , 1.316111150004  , 0.17847020885  , 0.235460483658  , -0.280229016068 );
	kernels_LR[116] = compute_kernel_LR(x,   -0.996905936777  , -0.002433107545  , -0.986808464753  , 0.087359256178  , 2.051739393024  , -0.44597971505  , -2.200639690839  , -0.492487507033  , 2.122314572053  , -0.486557213699  , -0.716836983408  , -0.758329567536  , 0.409542237108  , -0.515331740832  , 0.858837288289  , -0.614545948939  , -1.235479489578  , -2.184976555716  , -2.276213709281  , 2.320367112588 );
	kernels_LR[117] = compute_kernel_LR(x,   -0.439078539854  , 1.971124859762  , -0.461219547453  , -1.645371463541  , 0.009833502631  , -0.20094032548  , 0.71954394889  , -0.088455238826  , 1.272509044635  , 0.111145286304  , 0.286558654005  , 0.690131247099  , 1.370499355396  , -1.225241273801  , -0.351122130112  , -1.294972625261  , 0.950616890124  , 0.801282107659  , 0.948492125348  , -0.60337043978 );
	kernels_LR[118] = compute_kernel_LR(x,   1.189879838007  , -0.349716774237  , 1.264103857025  , 0.928255408657  , -0.561043984638  , 1.241538618586  , 0.126255655218  , 1.26620724002  , -0.63970386717  , -0.137158925032  , 0.898088356342  , 0.954990346968  , -0.707714296809  , 1.14224821288  , 0.281563371695  , 1.055281962407  , -0.752401955875  , 0.894146756353  , 0.857699869833  , -0.855957157033 );
	kernels_LR[119] = compute_kernel_LR(x,   1.139855683539  , -0.485047183235  , 1.205375397798  , 0.920098822907  , -0.579415242728  , 1.178381569866  , -0.05412129702  , 1.172426341272  , -0.645922856497  , -0.167489723314  , 0.879680906643  , 0.921895865018  , -0.724107693078  , 1.113308276801  , 0.275314475589  , 1.04086293476  , -0.773235581777  , 0.843912001564  , 0.751952669761  , -0.918158541215 );
	kernels_LR[120] = compute_kernel_LR(x,   -0.43649079169  , 1.977514179414  , -0.458044772777  , -1.644735126006  , 0.011122788787  , -0.197644487886  , 0.724994452087  , -0.08394921375  , 1.273025384165  , 0.112447542531  , 0.287798062189  , 0.692139817472  , 1.37093836862  , -1.224008024203  , -0.350763094641  , -1.294343436714  , 0.951968708817  , 0.803838409177  , 0.953405684617  , -0.601192884926 );
	kernels_LR[121] = compute_kernel_LR(x,   1.14228061739  , -0.481317164205  , 1.207755991578  , 0.920302879786  , -0.579161816072  , 1.179861310953  , -0.048900449856  , 1.174710990039  , -0.645830523371  , -0.166831237821  , 0.880038181699  , 0.922540359562  , -0.723480531328  , 1.114267899145  , 0.275448394631  , 1.041319782101  , -0.772922599616  , 0.845095026049  , 0.754509294786  , -0.916484983 );
	kernels_LR[122] = compute_kernel_LR(x,   1.163135090107  , -0.42671052539  , 1.231751948113  , 0.923076188215  , -0.573193547412  , 1.205862740214  , 0.026880937756  , 1.213033579019  , -0.643853780149  , -0.155177148196  , 0.886811168285  , 0.934746648211  , -0.716046370102  , 1.12745981594  , 0.277962950668  , 1.047991041551  , -0.76547243607  , 0.866429389907  , 0.798598686891  , -0.890511070112 );
	kernels_LR[123] = compute_kernel_LR(x,   -0.709707453664  , 1.270322166236  , -0.701487040612  , -0.649899863284  , -0.650150343353  , -0.91297664279  , 1.738114389004  , -0.934649126713  , -0.775075526326  , 1.415575619079  , -1.113657052162  , -0.957284407406  , 1.722395224084  , -1.496944466335  , -1.925606193071  , -1.524038118551  , 1.634815378057  , -0.743060128764  , -0.632497678706  , 0.583201627078 );
	kernels_LR[124] = compute_kernel_LR(x,   -0.729499776829  , 1.172054010111  , -0.730962358106  , -0.652812223856  , -0.656138906303  , -0.937889480464  , 1.640250297896  , -0.97691256381  , -0.777488757455  , 1.396711297236  , -1.122579819775  , -0.975205110054  , 1.71522416486  , -1.5085109987  , -1.927395467702  , -1.528852883674  , 1.628749724604  , -0.761554899658  , -0.676780931203  , 0.551674105297 );
	kernels_LR[125] = compute_kernel_LR(x,   1.181414035581  , -0.375351032597  , 1.253428701539  , 0.925876336505  , -0.567478807142  , 1.228895589132  , 0.099717624672  , 1.248176299449  , -0.641498706669  , -0.142496704087  , 0.894341916473  , 0.948421821268  , -0.710080685167  , 1.137680371986  , 0.280076088276  , 1.053019716411  , -0.758655798424  , 0.885181272785  , 0.839194219141  , -0.864992924519 );
	kernels_LR[126] = compute_kernel_LR(x,   -1.649032455362  , -0.457964305852  , -1.093389489972  , 1.34738753301  , 2.393053048469  , -1.451553627607  , -0.670405814853  , -1.089487947796  , -0.494677142161  , 2.003687774494  , -2.379968910953  , -2.360345900093  , 0.025122677885  , -0.380376659214  , 1.302750889026  , -0.436493329563  , 0.423900837862  , -1.495501659056  , -1.514721342278  , 1.491533788929 );
	kernels_LR[127] = compute_kernel_LR(x,   -0.729445101774  , 1.172270953056  , -0.730890248429  , -0.652804972276  , -0.656125501909  , -0.937810968488  , 1.640546299006  , -0.976786873926  , -0.777476225264  , 1.396770156275  , -1.122540184828  , -0.975130023311  , 1.715244050476  , -1.508471496174  , -1.927387116209  , -1.528832587493  , 1.628767734217  , -0.761488248109  , -0.676641001897  , 0.551787444254 );
	kernels_LR[128] = compute_kernel_LR(x,   1.17156046422  , -0.412714206329  , 1.240495733615  , 0.924095173552  , -0.571423361498  , 1.214784979015  , 0.050418129464  , 1.225923204831  , -0.643052404548  , -0.151251986065  , 0.889692479467  , 0.939689858787  , -0.714056278794  , 1.131373456462  , 0.278750452223  , 1.050034838679  , -0.762793914416  , 0.874472252767  , 0.815343560485  , -0.88124139031 );
	kernels_LR[129] = compute_kernel_LR(x,   -0.709619862467  , 1.270609090777  , -0.701374003822  , -0.649894380591  , -0.650138588327  , -0.912881608115  , 1.738492045592  , -0.934488380467  , -0.775069059038  , 1.415652871567  , -1.113628514809  , -0.957226528042  , 1.722422758014  , -1.496892438618  , -1.925601461535  , -1.524023381842  , 1.634828372124  , -0.742985227256  , -0.632324224671  , 0.583295674297 );
	kernels_LR[130] = compute_kernel_LR(x,   -0.709652276283  , 1.27040614415  , -0.701428573307  , -0.649897026554  , -0.650146306004  , -0.912925040114  , 1.738226665287  , -0.934578158955  , -0.775073354781  , 1.415597691218  , -1.113645205648  , -0.957257814185  , 1.722401342735  , -1.496921342905  , -1.925603874277  , -1.524032066366  , 1.634818486022  , -0.743021855666  , -0.632424798859  , 0.583247444954 );
	kernels_LR[131] = compute_kernel_LR(x,   -0.577140472586  , -0.163831660793  , -0.835958919353  , -1.161030873464  , 0.365987493709  , -0.664209004469  , -0.966457959469  , -0.767803074102  , 1.065518495766  , -1.056437781935  , -0.011220987385  , -0.248840987791  , -0.298414772083  , 0.018626796143  , -0.597973628797  , 0.177751253659  , -0.394136803848  , -0.508848784338  , -0.526577024598  , 0.585989283126 );
	kernels_LR[132] = compute_kernel_LR(x,   1.177291065321  , -0.394693945539  , 1.247534222713  , 0.925095077304  , -0.569862948065  , 1.222339187008  , 0.076757124781  , 1.23768675189  , -0.64219503357  , -0.146543262984  , 0.892351539304  , 0.944539210935  , -0.711904043229  , 1.134951807249  , 0.27947838149  , 1.051766107329  , -0.760891960721  , 0.88066904494  , 0.828737418725  , -0.87245641541 );
	kernels_LR[133] = compute_kernel_LR(x,   -0.994237772239  , 0.013214777165  , -0.982591997588  , 0.088010993603  , 2.053114484292  , -0.442816479766  , -2.1857834972  , -0.486952876992  , 2.122904573831  , -0.483581153564  , -0.71568094823  , -0.755923663148  , 0.410602293431  , -0.51382968136  , 0.859223849022  , -0.613963552283  , -1.234074094786  , -2.182566158134  , -2.269985397576  , 2.324688461756 );
	kernels_LR[134] = compute_kernel_LR(x,   -1.64011957745  , -0.40644385539  , -1.079542483176  , 1.348756135962  , 2.39546448254  , -1.441776026239  , -0.62419391743  , -1.072241927722  , -0.493754556792  , 2.013178794453  , -2.3763155708  , -2.352472742235  , 0.028400745274  , -0.376187464485  , 1.303345253423  , -0.434819909541  , 0.426068315626  , -1.489116666656  , -1.499361185772  , 1.501944092702 );
	kernels_LR[135] = compute_kernel_LR(x,   -0.718275594538  , 1.23122344894  , -0.713986376022  , -0.651311128475  , -0.652881325407  , -0.923093966705  , 1.698649275501  , -0.952022546737  , -0.776226947763  , 1.407876121104  , -1.117413566473  , -0.964841575222  , 1.719519458013  , -1.50177437277  , -1.926448388294  , -1.52603066808  , 1.632091519323  , -0.750482699991  , -0.650536898379  , 0.570560716173 );
	kernels_LR[136] = compute_kernel_LR(x,   -0.430508506101  , 2.006290611402  , -0.44924251997  , -1.643951998747  , 0.012748025449  , -0.190107812245  , 0.751649862384  , -0.071844508435  , 1.273707667071  , 0.117976613461  , 0.290558637845  , 0.697406839628  , 1.373021769359  , -1.220760145769  , -0.350264679377  , -1.292946703303  , 0.95364904271  , 0.809711421151  , 0.966698968669  , -0.592077539023 );
	kernels_LR[137] = compute_kernel_LR(x,   -0.578515179201  , -0.172299433824  , -0.838160213396  , -1.161267689032  , 0.365569743966  , -0.66574213143  , -0.974618403862  , -0.770611858234  , 1.065304618133  , -1.058122621912  , -0.011846142186  , -0.250170648864  , -0.298996043949  , 0.017894554194  , -0.59811735477  , 0.177457731002  , -0.394554865677  , -0.509809271159  , -0.529012669078  , 0.584035994719 );
	kernels_LR[138] = compute_kernel_LR(x,   -0.712324335082  , 1.254184410359  , -0.705801927741  , -0.650401978122  , -0.65120716053  , -0.916277895865  , 1.721844534892  , -0.940826741737  , -0.775524788889  , 1.412422981828  , -1.114870543692  , -0.959951551088  , 1.72118220148  , -1.498651746248  , -1.925923057786  , -1.52467998558  , 1.633809943096  , -0.745474163452  , -0.638928596385  , 0.578062790539 );
	kernels_LR[139] = compute_kernel_LR(x,   1.188421370687  , -0.355014381002  , 1.262225107616  , 0.927998666261  , -0.561661304462  , 1.239440609923  , 0.120560185585  , 1.26315220632  , -0.639867632184  , -0.138207351655  , 0.897413130938  , 0.953809295074  , -0.708186962616  , 1.14144949107  , 0.281424329474  , 1.054871505363  , -0.752998254021  , 0.892644800457  , 0.854532511693  , -0.857975555054 );
	kernels_LR[140] = compute_kernel_LR(x,   -0.44267872278  , 1.95909502353  , -0.466006070844  , -1.646181138233  , 0.008366317821  , -0.205212810396  , 0.708071354146  , -0.094946651042  , 1.271893127112  , 0.108702636205  , 0.284956457996  , 0.687257614874  , 1.369627447597  , -1.227052609149  , -0.351556025828  , -1.295804535396  , 0.9490103043  , 0.797901269075  , 0.941344069976  , -0.607421704626 );
	kernels_LR[141] = compute_kernel_LR(x,   1.161635574331  , -0.435556199036  , 1.229411306992  , 0.922870206403  , -0.573875420891  , 1.202761617603  , 0.012744333023  , 1.207684491186  , -0.64410772678  , -0.157285037512  , 0.885982515428  , 0.933008702973  , -0.717216562147  , 1.125928852181  , 0.277722374134  , 1.047354265938  , -0.766349248442  , 0.86376529249  , 0.792301868129  , -0.895237545765 );
	kernels_LR[142] = compute_kernel_LR(x,   -0.931581760035  , 0.388952960508  , -1.047793761963  , -0.749961853286  , 0.004085790393  , -0.916741205737  , 0.056909740013  , -1.04643103987  , 1.376182225913  , -1.189988940315  , 0.069237571482  , -0.197103093293  , 0.162590414737  , -0.414417238553  , 1.488059858  , -0.543710016186  , 1.314805328242  , 0.175448040607  , 0.227913046727  , -0.286204631716 );
	kernels_LR[143] = compute_kernel_LR(x,   -0.924032487698  , 0.432698455732  , -1.035846942587  , -0.748639236416  , 0.006400339197  , -0.908751081893  , 0.096099266276  , -1.031910865705  , 1.377279791248  , -1.181641992916  , 0.072461317935  , -0.190267071072  , 0.16533615947  , -0.41080709305  , 1.488765436647  , -0.542262730882  , 1.316873044343  , 0.180627582924  , 0.240524175412  , -0.276578054773 );
	kernels_LR[144] = compute_kernel_LR(x,   1.150910491875  , -0.458951046346  , 1.217461564251  , 0.921249177648  , -0.5778203462  , 1.186844234507  , -0.023352491988  , 1.185687906535  , -0.645430197991  , -0.163472593936  , 0.881740633658  , 0.925792554115  , -0.720659833118  , 1.118489852066  , 0.276087890577  , 1.043338668702  , -0.771306940474  , 0.85057624954  , 0.766451386479  , -0.907972503889 );
	kernels_LR[145] = compute_kernel_LR(x,   1.178392801595  , -0.389676265155  , 1.249069963932  , 0.925239687278  , -0.569481397992  , 1.224083802583  , 0.082661836578  , 1.240404047467  , -0.642096257297  , -0.145494836361  , 0.892884902258  , 0.945604504101  , -0.71142984776  , 1.135655144911  , 0.279576699332  , 1.052106890986  , -0.760536318395  , 0.881897123667  , 0.831519971275  , -0.870269214687 );
	kernels_LR[146] = compute_kernel_LR(x,   1.180595085682  , -0.379409965124  , 1.252230121781  , 0.925710980941  , -0.567974830619  , 1.227586615595  , 0.095257194153  , 1.246089163356  , -0.641652438436  , -0.143298658486  , 0.89395642249  , 0.947627153239  , -0.710441685589  , 1.137156240906  , 0.279946571304  , 1.052786494147  , -0.759132805432  , 0.884311754587  , 0.8371681594  , -0.866598961654 );
	kernels_LR[147] = compute_kernel_LR(x,   1.182309048286  , -0.371593020929  , 1.254629230207  , 0.926004301733  , -0.567195053772  , 1.230376629942  , 0.104188262125  , 1.250346373765  , -0.641401913158  , -0.141698428377  , 0.894794401547  , 0.949211796376  , -0.709724273734  , 1.138236297781  , 0.28014762657  , 1.053288694193  , -0.758378200632  , 0.886181635796  , 0.841326683457  , -0.863620799699 );
	kernels_LR[148] = compute_kernel_LR(x,   1.162950535504  , -0.427256381833  , 1.231526848987  , 0.923037032478  , -0.573272066024  , 1.205555599175  , 0.025804106132  , 1.212552195315  , -0.643904633744  , -0.155339010552  , 0.886681432513  , 0.934530773825  , -0.716128971893  , 1.127296024978  , 0.277910589415  , 1.047898866664  , -0.765573846085  , 0.866130724291  , 0.797985038581  , -0.89085349845 );
	kernels_LR[149] = compute_kernel_LR(x,   -0.580358372672  , -0.185651922208  , -0.841418791209  , -1.161607097687  , 0.365012582187  , -0.667859389242  , -0.986637069619  , -0.774713452597  , 1.065076354987  , -1.060550557251  , -0.012640564478  , -0.252024352831  , -0.299846536468  , 0.016885794561  , -0.598278908579  , 0.177090317809  , -0.395101195147  , -0.511126225128  , -0.532548799243  , 0.581171171721 );
	kernels_LR[150] = compute_kernel_LR(x,   -0.927506724698  , 0.41395738451  , -1.04116064618  , -0.749194453314  , 0.005394888431  , -0.912452678577  , 0.079630376935  , -1.03838603229  , 1.376792416078  , -1.185184571296  , 0.071015066387  , -0.193225175882  , 0.164175145402  , -0.41239682886  , 1.488456336806  , -0.54290315654  , 1.315989875591  , 0.178215760292  , 0.234868699303  , -0.280520803596 );
	kernels_LR[151] = compute_kernel_LR(x,   -0.583818378373  , -0.201600727778  , -0.846407026803  , -1.162309105103  , 0.363733456983  , -0.671557332788  , -1.001840299042  , -0.780985121275  , 1.064562424244  , -1.06376205354  , -0.014028986691  , -0.254815076776  , -0.300963190314  , 0.015315328276  , -0.598623028645  , 0.176433117452  , -0.396238941799  , -0.513373835855  , -0.537874858445  , 0.577640783784 );
	kernels_LR[152] = compute_kernel_LR(x,   -1.647247845498  , -0.448789718708  , -1.090705840661  , 1.347606053062  , 2.3934853207  , -1.449678939884  , -0.661959576285  , -1.086170418897  , -0.494499042959  , 2.00542411613  , -2.379319236879  , -2.35893958797  , 0.025723835367  , -0.379543252259  , 1.30286256304  , -0.436190187945  , 0.424337650441  , -1.494255846118  , -1.511723065382  , 1.493260399423 );
	kernels_LR[153] = compute_kernel_LR(x,   -0.72467330785  , 1.201936151305  , -0.723189129871  , -0.652155089078  , -0.654871537092  , -0.931748228017  , 1.671059930667  , -0.965681702447  , -0.776982207345  , 1.40247212563  , -1.120402805309  , -0.970482466785  , 1.717481947158  , -1.505417276465  , -1.927004692497  , -1.527647369482  , 1.630033248112  , -0.756965296473  , -0.664940871296  , 0.561524948687 );
	kernels_LR[154] = compute_kernel_LR(x,   -0.719062419646  , 1.225960832973  , -0.715313583852  , -0.651434830633  , -0.653150694739  , -0.924132866974  , 1.693377393663  , -0.953954066784  , -0.776333331111  , 1.406853445309  , -1.117802734965  , -0.965678479544  , 1.719120216021  , -1.502309102087  , -1.926531577361  , -1.526239607979  , 1.631816140566  , -0.751272763881  , -0.652590652462  , 0.568928152899 );
	kernels_LR[155] = compute_kernel_LR(x,   1.171847003351  , -0.411307576264  , 1.240895260201  , 0.924123453379  , -0.571342880136  , 1.215321165773  , 0.052622827386  , 1.226775672952  , -0.643019491018  , -0.150898831834  , 0.889868228789  , 0.940008977445  , -0.713883426897  , 1.131630704621  , 0.278774099063  , 1.050152670388  , -0.762698622045  , 0.874888959237  , 0.816274964927  , -0.88058547124 );
	kernels_LR[156] = compute_kernel_LR(x,   -0.929175434703  , 0.403110237238  , -1.043951485552  , -0.749432789387  , 0.004947228418  , -0.914272295354  , 0.069923581916  , -1.041819845707  , 1.376584695659  , -1.187215208125  , 0.070224716289  , -0.194928706362  , 0.163509742082  , -0.413262030531  , 1.488330381017  , -0.543261485049  , 1.315603573547  , 0.177060313642  , 0.231936014268  , -0.283009437715 );
	kernels_LR[157] = compute_kernel_LR(x,   1.194247135173  , -0.328862258837  , 1.270415402628  , 0.929207379429  , -0.558657283837  , 1.247990838343  , 0.149205948173  , 1.276552286965  , -0.638900858188  , -0.133009362817  , 0.900004181869  , 0.958797870558  , -0.705849637852  , 1.144878503039  , 0.282226843584  , 1.056413014571  , -0.749938047377  , 0.898802059752  , 0.868634762043  , -0.84808612819 );
	kernels_LR[158] = compute_kernel_LR(x,   1.160725650898  , -0.440503897824  , 1.22806071224  , 0.922776545614  , -0.574110188748  , 1.200859186732  , 0.00472168225  , 1.204547374297  , -0.644194091506  , -0.158499005182  , 0.885512515715  , 0.932023189472  , -0.717892673106  , 1.125057869653  , 0.277628228299  , 1.046976032365  , -0.766680080295  , 0.86214375021  , 0.788605402301  , -0.897950446331 );
	kernels_LR[159] = compute_kernel_LR(x,   1.171341162151  , -0.413435016761  , 1.240225809556  , 0.924071763499  , -0.571463811722  , 1.214442202968  , 0.049157573013  , 1.225388809067  , -0.643086775022  , -0.15145431401  , 0.889522425854  , 0.93938169028  , -0.714152647551  , 1.131208702024  , 0.27872375258  , 1.049927050871  , -0.762854556584  , 0.874185705093  , 0.814728454579  , -0.881882840577 );
	kernels_LR[160] = compute_kernel_LR(x,   -0.727692061461  , 1.182985135297  , -0.72807114986  , -0.652613302525  , -0.655765949674  , -0.935577031586  , 1.651615719825  , -0.97271349566  , -0.777329882385  , 1.398878045591  , -1.121757408159  , -0.973423364217  , 1.71607006839  , -1.507344228963  , -1.927277718709  , -1.528396983182  , 1.629125937486  , -0.75980957224  , -0.672338175743  , 0.55531059779 );
	kernels_LR[161] = compute_kernel_LR(x,   1.142223655267  , -0.481471123715  , 1.207679009626  , 0.920299342583  , -0.5791668766  , 1.179815291649  , -0.049135209357  , 1.174616081352  , -0.645832662193  , -0.16686066734  , 0.880021906448  , 0.922509073419  , -0.723508065259  , 1.114226469666  , 0.275447144527  , 1.041297546095  , -0.772928624848  , 0.845056587824  , 0.754401432613  , -0.916547681146 );
	kernels_LR[162] = compute_kernel_LR(x,   1.150646536884  , -0.459356939599  , 1.217200410288  , 0.921207374946  , -0.577842020104  , 1.186599652182  , -0.024015942751  , 1.185346748279  , -0.645441762573  , -0.163560882494  , 0.881628331156  , 0.925578244037  , -0.720728667944  , 1.118362673201  , 0.276056298922  , 1.043219408386  , -0.771348666159  , 0.850380324132  , 0.766084072051  , -0.908488557864 );
	kernels_LR[163] = compute_kernel_LR(x,   -0.723196837963  , 1.205757146409  , -0.721437059623  , -0.65190480636  , -0.654353754396  , -0.929889521198  , 1.674479253834  , -0.963155934312  , -0.776786628735  , 1.403185791472  , -1.119768910198  , -0.969470360062  , 1.717728222869  , -1.504754404806  , -1.926861429126  , -1.527299617988  , 1.630589868281  , -0.755518806183  , -0.662229740996  , 0.562605285979 );
	kernels_LR[164] = compute_kernel_LR(x,   0.182678964236  , -2.109606934764  , -0.339198281368  , -1.19768323328  , -0.66631344221  , -0.541057101453  , -0.551949232735  , -0.729579668976  , -0.575422421764  , -1.436188941024  , 0.539411721859  , 0.107603602469  , -1.534162046108  , -0.131199541372  , -0.24164659958  , 0.516567590396  , -0.511167335209  , 0.351259995676  , 0.386399019118  , -0.230994090859 );
	kernels_LR[165] = compute_kernel_LR(x,   -0.930920815875  , 0.392864931685  , -1.046731605917  , -0.749694667578  , 0.004511406667  , -0.916034049776  , 0.060482167202  , -1.045122839041  , 1.37638136494  , -1.189234808884  , 0.069564848675  , -0.1964257483  , 0.162838220111  , -0.414085802724  , 1.488203310097  , -0.543559685624  , 1.315186294091  , 0.175911081594  , 0.229058717918  , -0.285290685658 );
	kernels_LR[166] = compute_kernel_LR(x,   -0.927164083931  , 0.415727918871  , -1.040651980625  , -0.749119129029  , 0.005527932308  , -0.912103754184  , 0.081283900377  , -1.037766133205  , 1.376851886465  , -1.184831417065  , 0.071121837011  , -0.193017123032  , 0.164289870112  , -0.412238818755  , 1.488494854211  , -0.542853485458  , 1.316108693851  , 0.178453026721  , 0.235421128541  , -0.280265188076 );
	kernels_LR[167] = compute_kernel_LR(x,   1.142528581316  , -0.481212191812  , 1.207973295062  , 0.920342762409  , -0.579150278835  , 1.179978260377  , -0.048522793268  , 1.174886271849  , -0.645822091645  , -0.166779736162  , 0.880067448136  , 0.922593546005  , -0.72343770077  , 1.114346904197  , 0.275457309384  , 1.041350049025  , -0.772908846005  , 0.845198765083  , 0.754719188745  , -0.916366821108 );
	kernels_LR[168] = compute_kernel_LR(x,   -1.641143725631  , -0.412595237617  , -1.081177618813  , 1.348649604845  , 2.395344701625  , -1.442833841508  , -0.629817938519  , -1.074208504131  , -0.493790131422  , 2.012012649753  , -2.376714491738  , -2.353372218843  , 0.027998443956  , -0.376648006132  , 1.303318856962  , -0.435000206182  , 0.425985245583  , -1.489797122644  , -1.501092810931  , 1.500721478847 );
	kernels_LR[169] = compute_kernel_LR(x,   -0.711380134493  , 1.259551998719  , -0.704270084343  , -0.650180535691  , -0.650751747168  , -0.915043147745  , 1.727218486078  , -0.93858740973  , -0.775320692588  , 1.413453015002  , -1.114423900833  , -0.959006709573  , 1.721575324821  , -1.498036084925  , -1.925779667323  , -1.52444537765  , 1.634260475875  , -0.744579909205  , -0.636612474855  , 0.579707411149 );
	kernels_LR[170] = compute_kernel_LR(x,   1.193865329331  , -0.33060480056  , 1.269876528965  , 0.929113589801  , -0.558866823669  , 1.247393842856  , 0.147363596437  , 1.275657067182  , -0.638987460477  , -0.133362517048  , 0.899791942397  , 0.958406793772  , -0.706005663458  , 1.144639560929  , 0.282156238695  , 1.056291269896  , -0.750136634713  , 0.898373424212  , 0.867688781632  , -0.848807156874 );
	kernels_LR[171] = compute_kernel_LR(x,   0.178338215644  , -2.13962204099  , -0.346526183628  , -1.198211510981  , -0.667322318012  , -0.545981839175  , -0.578824092131  , -0.738896110955  , -0.575876247513  , -1.441832051341  , 0.537515998615  , 0.103315836585  , -1.536136840788  , -0.133337495168  , -0.24191777742  , 0.515778524164  , -0.511959058353  , 0.347865363356  , 0.377586388046  , -0.238409352407 );
	kernels_LR[172] = compute_kernel_LR(x,   1.171682911028  , -0.412049381174  , 1.240673084441  , 0.924104996691  , -0.571380202688  , 1.215029197776  , 0.051438822947  , 1.226314810046  , -0.643038516053  , -0.151097481089  , 0.889736740748  , 0.939757123995  , -0.713978265991  , 1.131483292755  , 0.278759565061  , 1.050064068769  , -0.762738626549  , 0.874658172898  , 0.815764806  , -0.881128051353 );
	kernels_LR[173] = compute_kernel_LR(x,   -0.721644845014  , 1.213742046433  , -0.71912662661  , -0.651769280003  , -0.653978816254  , -0.927624382044  , 1.681960937061  , -0.95960412631  , -0.776629000564  , 1.404627837916  , -1.118905376963  , -0.967768393889  , 1.718281960804  , -1.503812125035  , -1.926756124049  , -1.52683714979  , 1.63095065197  , -0.753879335392  , -0.658552223928  , 0.565754662103 );
	kernels_LR[174] = compute_kernel_LR(x,   1.178901312943  , -0.386695049195  , 1.249856349188  , 0.925290335585  , -0.569243115978  , 1.224897754632  , 0.086412885126  , 1.241813142216  , -0.642023698718  , -0.144854744317  , 0.893115816  , 0.94602686703  , -0.711139211827  , 1.1360328276  , 0.279622035663  , 1.052252197499  , -0.760316067824  , 0.882453405801  , 0.832907603558  , -0.86943966998 );
	kernels_LR[175] = compute_kernel_LR(x,   -0.577213721458  , -0.164118585333  , -0.836057339317  , -1.161048208313  , 0.365972124217  , -0.664294372165  , -0.966810098721  , -0.767945009617  , 1.065505350948  , -1.056518713113  , -0.011269762836  , -0.248936410527  , -0.298440776351  , 0.018579585807  , -0.597987362508  , 0.177727307481  , -0.394157706358  , -0.50891009571  , -0.526711123517  , 0.585885590038 );
	kernels_LR[176] = compute_kernel_LR(x,   -0.574165308003  , -0.148029816573  , -0.831495915051  , -1.160680080478  , 0.366502774769  , -0.6609600291  , -0.951928387745  , -0.762265023927  , 1.065719397749  , -1.053513223459  , -0.009952259525  , -0.246209823174  , -0.297400605644  , 0.019974699414  , -0.597828827788  , 0.178340486723  , -0.393664160547  , -0.506838760932  , -0.521842749752  , 0.589907917278 );
	kernels_LR[177] = compute_kernel_LR(x,   -0.728652446513  , 1.178100419945  , -0.729499701019  , -0.652702125308  , -0.65593969609  , -0.936754894984  , 1.646445907335  , -0.974758735125  , -0.777404500977  , 1.397877441937  , -1.122174371542  , -0.974257139925  , 1.715690712015  , -1.507928095569  , -1.927335931629  , -1.528629985789  , 1.628940201501  , -0.760710097303  , -0.674518740759  , 0.55381066521 );
	kernels_LR[178] = compute_kernel_LR(x,   -0.712408384085  , 1.254100432445  , -0.705888654243  , -0.650415798227  , -0.651248032183  , -0.916395251876  , 1.721778189816  , -0.940970387318  , -0.775546540066  , 1.412397230999  , -1.11489852759  , -0.960021944909  , 1.721179142155  , -1.498697993108  , -1.925935569436  , -1.524695112036  , 1.63377079358  , -0.745559291371  , -0.639077271273  , 0.577920513976 );
	kernels_LR[179] = compute_kernel_LR(x,   1.179761377301  , -0.383566871885  , 1.251022771928  , 0.925565340823  , -0.568322909859  , 1.226312364391  , 0.089980208848  , 1.243978941365  , -0.641770113666  , -0.144222009653  , 0.893535420649  , 0.946790248916  , -0.71085163522  , 1.136589716872  , 0.279842437895  , 1.052513161157  , -0.759489639761  , 0.883438506863  , 0.83507067741  , -0.868303868943 );
	kernels_LR[180] = compute_kernel_LR(x,   -0.933281883454  , 0.382416679507  , -1.050170457922  , -0.750425513465  , 0.003343298678  , -0.918491047118  , 0.050760061781  , -1.049338152822  , 1.37581020843  , -1.19135373427  , 0.068525649721  , -0.198474990659  , 0.162154460838  , -0.415158151788  , 1.487825643608  , -0.544035274929  , 1.314131221572  , 0.174302576232  , 0.225382658447  , -0.287680449624 );
	kernels_LR[181] = compute_kernel_LR(x,   1.180577424805  , -0.379486944879  , 1.252206734859  , 0.925700972773  , -0.567980625228  , 1.227559151374  , 0.095139814402  , 1.246044701628  , -0.641656705661  , -0.143324409316  , 0.893912750607  , 0.947556759417  , -0.710452393228  , 1.137140825286  , 0.279942321786  , 1.052756655424  , -0.759138376077  , 0.884289935801  , 0.837120058701  , -0.866702654742 );
	kernels_LR[182] = compute_kernel_LR(x,   1.162688435132  , -0.429061906992  , 1.231079574102  , 0.922965037316  , -0.573484497041  , 1.205041902549  , 0.022833888098  , 1.211550951413  , -0.64397387289  , -0.155765738581  , 0.886553612422  , 0.93423199116  , -0.71636759929  , 1.127016616866  , 0.277839981544  , 1.047799690038  , -0.765848116055  , 0.865671381947  , 0.796800012272  , -0.891774678909 );
	kernels_LR[183] = compute_kernel_LR(x,   1.178611075728  , -0.388227646133  , 1.24944318023  , 0.925259846749  , -0.569325664432  , 1.224433903729  , 0.084397015498  , 1.241066698214  , -0.642045021449  , -0.145200541168  , 0.892967441115  , 0.945748420358  , -0.71129370777  , 1.135831461064  , 0.279598701544  , 1.052155687355  , -0.760393721594  , 0.882141891739  , 0.832177347493  , -0.870040125306 );
	kernels_LR[184] = compute_kernel_LR(x,   -0.729572706382  , 1.171732094773  , -0.73106857371  , -0.652820108517  , -0.656169529625  , -0.937986812295  , 1.639796089297  , -0.97708528052  , -0.77750604707  , 1.396619329988  , -1.122625680747  , -0.975292711254  , 1.715192041941  , -1.50857266118  , -1.927406348222  , -1.52887917265  , 1.628718294002  , -0.76163289842  , -0.676968961207  , 0.551531828734 );
	kernels_LR[185] = compute_kernel_LR(x,   -1.643539577987  , -0.425800764651  , -1.084694427224  , 1.348463768116  , 2.394907729538  , -1.445577454486  , -0.641285429796  , -1.078661517148  , -0.493938821093  , 2.009617822624  , -2.377645782807  , -2.355321345545  , 0.027172426042  , -0.377681816147  , 1.303237727781  , -0.435420895695  , 0.425581392943  , -1.49154129759  , -1.505003543509  , 1.497919353995 );
	kernels_LR[186] = compute_kernel_LR(x,   -0.443046133169  , 1.95759741739  , -0.466525455405  , -1.64622617495  , 0.008314378525  , -0.20560818122  , 0.706336175225  , -0.09562811252  , 1.271862294495  , 0.108334767215  , 0.284798712061  , 0.686938496217  , 1.369491307608  , -1.227258793066  , -0.351580267248  , -1.295886432989  , 0.948940958658  , 0.79759002759  , 0.940593407554  , -0.607983576477 );
	kernels_LR[187] = compute_kernel_LR(x,   -0.996620583324  , -0.000977490362  , -0.986378730059  , 0.087400327148  , 2.051843489304  , -0.445652927479  , -2.199154581822  , -0.491922330074  , 2.122349271468  , -0.486251882436  , -0.716734452141  , -0.758137157758  , 0.409650843167  , -0.515175657679  , 0.858865015452  , -0.614493097228  , -1.235378293899  , -2.184720885167  , -2.275566536242  , 2.320651665714 );
	kernels_LR[188] = compute_kernel_LR(x,   1.149616454784  , -0.464024712006  , 1.215790373776  , 0.92108393375  , -0.57806777276  , 1.185276741085  , -0.028700925836  , 1.183290393382  , -0.645490178096  , -0.164200974537  , 0.88136714538  , 0.92507766575  , -0.721236515995  , 1.11760538087  , 0.275970025128  , 1.042893944251  , -0.771607135823  , 0.849372295839  , 0.763907879826  , -0.909749755194 );
	kernels_LR[189] = compute_kernel_LR(x,   -0.437950012254  , 1.974924860387  , -0.459719861073  , -1.645126945922  , 0.010365409329  , -0.199497901606  , 0.722825478436  , -0.086344161803  , 1.272728182193  , 0.111895739045  , 0.287099463134  , 0.69108391015  , 1.370768576049  , -1.2246612611  , -0.350972448968  , -1.294697046879  , 0.951176871089  , 0.802386081442  , 0.950790755715  , -0.602085127779 );
	kernels_LR[190] = compute_kernel_LR(x,   -1.647591756906  , -0.450056385583  , -1.091157987821  , 1.347599052966  , 2.393365908665  , -1.450016294867  , -0.663169098062  , -1.086709089827  , -0.494551030216  , 2.005162929146  , -2.379370601699  , -2.359024060556  , 0.025633585262  , -0.37967910241  , 1.302858014608  , -0.436214523591  , 0.424200167338  , -1.494498259383  , -1.5122375971  , 1.493188055408 );
	kernels_LR[191] = compute_kernel_LR(x,   -0.438926770772  , 1.972118598416  , -0.460951572304  , -1.645340759122  , 0.009913602293  , -0.200774623608  , 0.720508504231  , -0.088114080571  , 1.272537458954  , 0.111354971628  , 0.286632624006  , 0.690312706728  , 1.370580427524  , -1.225141072271  , -0.351106715251  , -1.294934298226  , 0.950699451888  , 0.801422164813  , 0.948890049311  , -0.602994250902 );
	kernels_LR[192] = compute_kernel_LR(x,   -0.726127163411  , 1.193069483181  , -0.725517103075  , -0.652330338766  , -0.6552290041  , -0.933634396155  , 1.662169690434  , -0.969064213871  , -0.777113901382  , 1.400809357792  , -1.121072487118  , -0.971901293365  , 1.716830310803  , -1.506334505854  , -1.92710959062  , -1.528013934291  , 1.629704202218  , -0.758370048283  , -0.668503238206  , 0.558657714222 );
	kernels_LR[193] = compute_kernel_LR(x,   -1.639900050107  , -0.405960982382  , -1.079277431392  , 1.348769768272  , 2.395512462683  , -1.441583110078  , -0.623561087471  , -1.071923855364  , -0.493730867494  , 2.01331122729  , -2.376238872337  , -2.352322568749  , 0.02844204617  , -0.376084372526  , 1.303357377276  , -0.434782253087  , 0.426122369269  , -1.488975809173  , -1.499056548012  , 1.502088780732 );
	kernels_LR[194] = compute_kernel_LR(x,   1.170841236369  , -0.415352512472  , 1.239584618108  , 0.924013810919  , -0.571619829991  , 1.213591206183  , 0.046187354979  , 1.224078043139  , -0.643145042758  , -0.151914150248  , 0.88926135615  , 0.938913962444  , -0.714379037646  , 1.130844508002  , 0.27866040921  , 1.049747246444  , -0.763019791977  , 0.873500686816  , 0.813278145628  , -0.882861896248 );
	kernels_LR[195] = compute_kernel_LR(x,   1.142777152974  , -0.481219189972  , 1.208190598547  , 0.920387587187  , -0.579127950968  , 1.180057715176  , -0.048354378843  , 1.175000846301  , -0.645809794965  , -0.166761342713  , 0.88009821114  , 0.922643603833  , -0.723419344816  , 1.114398931914  , 0.275474026382  , 1.041379131683  , -0.772876115432  , 0.845276754158  , 0.754864948438  , -0.916294477093 );
	kernels_LR[196] = compute_kernel_LR(x,   -0.926444113972  , 0.42124946674  , -1.039360827633  , -0.749030697742  , 0.005657497562  , -0.911325055447  , 0.086264884572  , -1.036200567377  , 1.37691756896  , -1.183779311752  , 0.071457364514  , -0.192239662381  , 0.164638633231  , -0.411840903064  , 1.488542262612  , -0.542705355441  , 1.316211521516  , 0.178970425573  , 0.236807303227  , -0.279047397155 );
	kernels_LR[197] = compute_kernel_LR(x,   -0.728459056829  , 1.179241119949  , -0.729195671032  , -0.652680297422  , -0.655908725588  , -0.936523890416  , 1.647737084591  , -0.974314972883  , -0.77738208621  , 1.39812759285  , -1.122095522417  , -0.974103837824  , 1.715782491783  , -1.507790318466  , -1.927317600009  , -1.528586303381  , 1.628976687476  , -0.76052382496  , -0.674039191367  , 0.554051811927 );
	kernels_LR[198] = compute_kernel_LR(x,   1.145984825236  , -0.476838342106  , 1.211205562588  , 0.920586902796  , -0.578833797457  , 1.18164870486  , -0.041959734175  , 1.177522339271  , -0.645676992258  , -0.165952030933  , 0.880514087601  , 0.923411678641  , -0.722694284647  , 1.115432741929  , 0.275641575234  , 1.041859366995  , -0.772499186372  , 0.846610247681  , 0.757734956804  , -0.914273667605 );
	kernels_LR[199] = compute_kernel_LR(x,   1.171422759173  , -0.413169086699  , 1.24032812734  , 0.924077544775  , -0.571443280267  , 1.214558336093  , 0.049632195483  , 1.225580336509  , -0.643067810876  , -0.151380740212  , 0.889564073635  , 0.939464598559  , -0.714115935643  , 1.131268437551  , 0.278731070913  , 1.049953965095  , -0.762825432216  , 0.874280106184  , 0.814947094119  , -0.881709214941 );
	kernels_LR[200] = compute_kernel_LR(x,   -0.581302203533  , -0.18949391179  , -0.842724561027  , -1.161811714317  , 0.364530189829  , -0.668829776974  , -0.990255428015  , -0.776329465385  , 1.064888346893  , -1.061352511651  , -0.012976456127  , -0.25272046951  , -0.300121875772  , 0.016484988442  , -0.598376096922  , 0.176929756531  , -0.395523394058  , -0.511707583087  , -0.533913109975  , 0.580283751802 );
	kernels_LR[201] = compute_kernel_LR(x,   -1.003130498238  , -0.041874734658  , -0.997085068108  , 0.085909177918  , 2.04883567549  , -0.453483798041  , -2.238731971608  , -0.50615093791  , 2.121094392849  , -0.494080134558  , -0.719652628253  , -0.764549252743  , 0.406825555968  , -0.518983315814  , 0.857977516361  , -0.615971911575  , -1.238483069442  , -2.190699427517  , -2.291640915246  , 2.308295307935 );
	kernels_LR[202] = compute_kernel_LR(x,   -0.583246988008  , -0.199466289121  , -0.845639156194  , -1.162200549699  , 0.363942128679  , -0.671024230474  , -0.999513117902  , -0.780058265263  , 1.064654146581  , -1.063243358263  , -0.013827816009  , -0.254395842462  , -0.300784219766  , 0.015567759053  , -0.598561825974  , 0.176531076284  , -0.396055314939  , -0.513032048747  , -0.537062976952  , 0.57816407216 );
	kernels_LR[203] = compute_kernel_LR(x,   -0.577496774673  , -0.165238290858  , -0.836434453436  , -1.161065105209  , 0.365903159561  , -0.66460318276  , -0.967958378888  , -0.768428103387  , 1.065465461728  , -1.056761506647  , -0.011330673136  , -0.249036526184  , -0.298521848479  , 0.018449516513  , -0.597999894004  , 0.177697979109  , -0.39424899289  , -0.509111589985  , -0.527141114612  , 0.585789131351 );
	kernels_LR[204] = compute_kernel_LR(x,   -1.650662205779  , -0.467173883794  , -1.095906507464  , 1.347117930575  , 2.392637093702  , -1.45333337605  , -0.678821432617  , -1.092596848589  , -0.494876207772  , 2.002032364036  , -2.380725920467  , -2.361921157388  , 0.024552113659  , -0.381161892356  , 1.302633425523  , -0.436843768169  , 0.42346830488  , -1.496661687611  , -1.517514098006  , 1.489455104229 );
	kernels_LR[205] = compute_kernel_LR(x,   -0.430532144828  , 2.006220629807  , -0.449268830257  , -1.644007350466  , 0.012744408549  , -0.19013289897  , 0.751552896503  , -0.07188298493  , 1.273705145312  , 0.117954541321  , 0.290457884539  , 0.697298902435  , 1.373014121045  , -1.220773634437  , -0.35029258235  , -1.292996306842  , 0.95364594638  , 0.809689180553  , 0.966652325567  , -0.592007606475 );
	kernels_LR[206] = compute_kernel_LR(x,   0.174755458621  , -2.162743960078  , -0.35232614031  , -1.198601084554  , -0.668250303901  , -0.550115047026  , -0.598947064139  , -0.746299843619  , -0.576240223956  , -1.446172905431  , 0.53596677424  , 0.100052691882  , -1.537648147638  , -0.135084277606  , -0.242113577477  , 0.51512371918  , -0.512689884281  , 0.345053962105  , 0.370703615317  , -0.243415558252 );
	kernels_LR[207] = compute_kernel_LR(x,   -0.924385275968  , 0.431557755729  , -1.036284472921  , -0.748703785592  , 0.00628696723  , -0.909071872942  , 0.095073469326  , -1.032401654774  , 1.377222291847  , -1.18187007169  , 0.072320165733  , -0.1905142316  , 0.165264265318  , -0.410924637152  , 1.488733527179  , -0.542324231912  , 1.316773831323  , 0.180406127405  , 0.240075235556  , -0.276811967089 );
	kernels_LR[208] = compute_kernel_LR(x,   -0.931751962365  , 0.388190161119  , -1.048018861088  , -0.749968047102  , 0.004078712823  , -0.916881899348  , 0.056149323369  , -1.046678144471  , 1.376172383977  , -1.190154481361  , 0.06919930188  , -0.1971703585  , 0.162538406202  , -0.414490462748  , 1.488052378629  , -0.543728033185  , 1.314796220361  , 0.175353864741  , 0.227691491992  , -0.286272152796 );
	kernels_LR[209] = compute_kernel_LR(x,   1.16271011249  , -0.428914945642  , 1.231116603396  , 0.922967731708  , -0.573482882008  , 1.205083823337  , 0.023109475338  , 1.211638164802  , -0.643972161955  , -0.155717915612  , 0.886565298145  , 0.934252327153  , -0.716344654348  , 1.127044557677  , 0.277843534038  , 1.047807955494  , -0.765845608307  , 0.865715560518  , 0.796907874445  , -0.891743329835 );
	kernels_LR[210] = compute_kernel_LR(x,   -0.705582172823  , 1.294724748518  , -0.694912392135  , -0.648952061183  , -0.648279405147  , -0.907919887323  , 1.762631446455  , -0.925375436394  , -0.774391469865  , 1.420431489756  , -1.111827469824  , -0.953271959581  , 1.724259883042  , -1.494399925563  , -1.925108811397  , -1.523075933996  , 1.636669095343  , -0.739292750767  , -0.622717203269  , 0.591154645804 );
	kernels_LR[211] = compute_kernel_LR(x,   1.179835052151  , -0.383461899492  , 1.251095856059  , 0.925570749417  , -0.568318494731  , 1.226390280342  , 0.090199657947  , 1.244082400385  , -0.641761055403  , -0.144188901444  , 0.893570466199  , 0.946849692588  , -0.710839397918  , 1.136625365493  , 0.279848046907  , 1.052538559939  , -0.759481359472  , 0.883495587324  , 0.835177081986  , -0.868209821724 );
	kernels_LR[212] = compute_kernel_LR(x,   -0.443195299939  , 1.956925594075  , -0.4667447078  , -1.646243744438  , 0.008286932406  , -0.205755136615  , 0.705494103102  , -0.095913693616  , 1.271841394733  , 0.108165547479  , 0.284734872071  , 0.686813351645  , 1.369428591433  , -1.227348396357  , -0.351596963962  , -1.295918946478  , 0.948905887827  , 0.797469970736  , 0.940272736228  , -0.60817649385 );
	kernels_LR[213] = compute_kernel_LR(x,   1.179553154993  , -0.384077737531  , 1.250790851617  , 0.925550596715  , -0.568383545044  , 1.225978974393  , 0.089337171954  , 1.243540309323  , -0.641793387596  , -0.14433604904  , 0.893438040501  , 0.946654154195  , -0.71090058443  , 1.136469282341  , 0.279826905862  , 1.052453783421  , -0.75954510089  , 0.88321062675  , 0.834633398329  , -0.868438911105 );
	kernels_LR[214] = compute_kernel_LR(x,   -0.437495061089  , 1.975470716831  , -0.459219965613  , -1.644825468997  , 0.010611194349  , -0.198952931749  , 0.723371549449  , -0.085651584893  , 1.272818221674  , 0.112042886641  , 0.287493739137  , 0.691728404693  , 1.370809876945  , -1.22446856585  , -0.350823806623  , -1.294497066081  , 0.951447812729  , 0.802816569364  , 0.951551621315  , -0.601400271103 );
	kernels_LR[215] = compute_kernel_LR(x,   1.171811982156  , -0.411552511847  , 1.240838741806  , 0.924115502134  , -0.571358783318  , 1.215248985481  , 0.052189032656  , 1.226645707903  , -0.643023023118  , -0.150976084322  , 0.889811929473  , 0.939893218716  , -0.713920138804  , 1.131589275142  , 0.278769044325  , 1.050115436767  , -0.76271596381  , 0.874829855103  , 0.816127747637  , -0.880877258768 );
	kernels_LR[216] = compute_kernel_LR(x,   1.159663762689  , -0.447201136495  , 1.226344696831  , 0.922554740975  , -0.574862058448  , 1.198636903173  , -0.006567187667  , 1.20053213829  , -0.644424874347  , -0.160099235291  , 0.8849437371  , 0.930765486528  , -0.718807411463  , 1.123931565918  , 0.27737033548  , 1.046531784358  , -0.767475552375  , 0.8603616371  , 0.784102885367  , -0.901721980985 );
	kernels_LR[217] = compute_kernel_LR(x,   1.162112609891  , -0.432693951788  , 1.230158714044  , 0.922901362877  , -0.573734050899  , 1.203838039684  , 0.017112901128  , 1.209441584456  , -0.644064114981  , -0.156622873329  , 0.886234502249  , 0.933535874481  , -0.716846383748  , 1.126420225068  , 0.277754373581  , 1.047552524464  , -0.766181694504  , 0.864674084352  , 0.794355622211  , -0.893771373725 );
	kernels_LR[218] = compute_kernel_LR(x,   1.140038178456  , -0.484851234768  , 1.205538131798  , 0.92011226795  , -0.579400778227  , 1.178560228958  , -0.053631364148  , 1.17266489554  , -0.645912122061  , -0.167427185586  , 0.879732063485  , 0.921981901911  , -0.724052625217  , 1.11341136876  , 0.275326665992  , 1.040922567182  , -0.773213462059  , 0.844065536157  , 0.752229613179  , -0.917939097703 );
	kernels_LR[219] = compute_kernel_LR(x,   0.175301859201  , -2.16151928216  , -0.35166545976  , -1.198371020036  , -0.667676684544  , -0.549409203367  , -0.597941681059  , -0.745302019849  , -0.576003847401  , -1.445915397137  , 0.536493360848  , 0.101019433697  , -1.537557897533  , -0.134836664211  , -0.241989334613  , 0.515342199615  , -0.512301398488  , 0.345473831207  , 0.371500920841  , -0.242347278295 );
	kernels_LR[220] = compute_kernel_LR(x,   0.177886606551  , -2.143030144681  , -0.347336930261  , -1.198269693739  , -0.667457739008  , -0.546471428646  , -0.581891276046  , -0.739914455522  , -0.575921974815  , -1.442501572904  , 0.537340325821  , 0.102854365978  , -1.536366290208  , -0.133573546849  , -0.241940715484  , 0.515703033097  , -0.512097760812  , 0.347513307524  , 0.376621458875  , -0.239226839777 );
	kernels_LR[221] = compute_kernel_LR(x,   1.144873266766  , -0.477706113887  , 1.210235005321  , 0.92052645752  , -0.578943842175  , 1.181195064545  , -0.043740844302  , 1.176798126132  , -0.645724178431  , -0.166198503157  , 0.880413767101  , 0.923223961784  , -0.722899259463  , 1.11513984515  , 0.275601219083  , 1.041744217498  , -0.772627974235  , 0.846222039997  , 0.756908499342  , -0.914688439958 );
	kernels_LR[222] = compute_kernel_LR(x,   -0.707646189705  , 1.284759369347  , -0.697935151817  , -0.649402448264  , -0.649068976804  , -0.91056972924  , 1.752720512739  , -0.929772872251  , -0.774696895314  , 1.418433961136  , -1.112800894707  , -0.95517884999  , 1.723510348268  , -1.495600416968  , -1.925321631845  , -1.523584438235  , 1.635839787205  , -0.741261464931  , -0.627378598269  , 0.587853347249 );
	kernels_LR[223] = compute_kernel_LR(x,   1.171652853703  , -0.412133359088  , 1.240638004058  , 0.924098092387  , -0.571395871238  , 1.214975583983  , 0.051260201587  , 1.226235291956  , -0.6430446688  , -0.151123231918  , 0.88971000112  , 0.939716452009  , -0.713990503293  , 1.131458242372  , 0.278753628657  , 1.050047909171  , -0.762755837111  , 0.874612579507  , 0.815671519796  , -0.881195572434 );
	kernels_LR[224] = compute_kernel_LR(x,   1.179886997014  , -0.383251954707  , 1.251166016825  , 0.925600193566  , -0.56827744351  , 1.226480040891  , 0.090516072926  , 1.244222625833  , -0.641748963035  , -0.144130042405  , 0.893600675517  , 0.946909136259  , -0.71081339365  , 1.136665831496  , 0.279870311565  , 1.052557731835  , -0.759442352274  , 0.883567422511  , 0.835325756874  , -0.868101305701 );
	kernels_LR[225] = compute_kernel_LR(x,   1.179623895083  , -0.383776816671  , 1.25088147594  , 0.925564022387  , -0.568378677852  , 1.22608436308  , 0.089745449347  , 1.243704475701  , -0.641786230205  , -0.144273511312  , 0.893505338891  , 0.946737062473  , -0.710871520836  , 1.136514565725  , 0.279840532231  , 1.05249546146  , -0.7595391758  , 0.883281088021  , 0.834795191589  , -0.868395504696 );
	kernels_LR[226] = compute_kernel_LR(x,   -0.726213923118  , 1.192677586247  , -0.725634037686  , -0.652344234183  , -0.655248111349  , -0.933748520772  , 1.661715481834  , -0.969244625881  , -0.777131207697  , 1.400724747925  , -1.121117580194  , -0.971982637336  , 1.71680124721  , -1.506393277905  , -1.927125749472  , -1.528038732748  , 1.629676624768  , -0.758461518913  , -0.668701471389  , 0.55850579179 );
	kernels_LR[227] = compute_kernel_LR(x,   -0.723088302563  , 1.206030074631  , -0.721316227192  , -0.651871775784  , -0.654310014974  , -0.929748484304  , 1.674785461879  , -0.962965261903  , -0.776764117632  , 1.403248329201  , -1.119669031335  , -0.969318622269  , 1.717746578823  , -1.504698523184  , -1.926835427866  , -1.527247055561  , 1.630634545019  , -0.75541542842  , -0.66203296541  , 0.562713802002 );
	kernels_LR[228] = compute_kernel_LR(x,   1.163759076737  , -0.423092476913  , 1.232705939644  , 0.923161088843  , -0.572989810697  , 1.207113704501  , 0.032423303367  , 1.215127555378  , -0.64378617094  , -0.154342085587  , 0.887153396215  , 0.935447457811  , -0.715604297551  , 1.128052353833  , 0.27804550978  , 1.048250996365  , -0.765146872711  , 0.867587359493  , 0.801156769512  , -0.888625302785 );
	kernels_LR[229] = compute_kernel_LR(x,   1.171912678417  , -0.410866692213  , 1.241001475805  , 0.924132667138  , -0.571326460362  , 1.215460919819  , 0.053179105334  , 1.227006531922  , -0.643014344485  , -0.150806864586  , 0.889917050486  , 0.940093450031  , -0.713839066676  , 1.131689476672  , 0.278781671304  , 1.05018521911  , -0.762682684768  , 0.874990327186  , 0.816516926018  , -0.880409434137 );
	kernels_LR[230] = compute_kernel_LR(x,   -0.577196108831  , -0.163971623983  , -0.836024207844  , -1.161045716686  , 0.365976592766  , -0.664271819643  , -0.966631477361  , -0.767893707623  , 1.065506706371  , -1.056478247524  , -0.011255988165  , -0.248905124384  , -0.298425479723  , 0.01859403795  , -0.597986229821  , 0.177733900572  , -0.394153397323  , -0.508893034551  , -0.526663022818  , 0.585928996447 );
	kernels_LR[231] = compute_kernel_LR(x,   -1.649345985939  , -0.458664121805  , -1.093743217169  , 1.347327257578  , 2.392972371393  , -1.451827519088  , -0.6711815419  , -1.089888103344  , -0.494711505921  , 2.003529590828  , -2.380136780107  , -2.360680661822  , 0.025069139687  , -0.380488422459  , 1.302725155664  , -0.436572757547  , 0.423830508579  , -1.495682327673  , -1.515084283915  , 1.491116605109 );
	kernels_LR[232] = compute_kernel_LR(x,   1.14436344426  , -0.477909060514  , 1.209811117358  , 0.920491679167  , -0.578958931343  , 1.181027213868  , -0.044388984663  , 1.176532210801  , -0.645733315616  , -0.166279434335  , 0.880361160149  , 0.923128539048  , -0.722972683277  , 1.115026154952  , 0.27557363763  , 1.041687484454  , -0.772664750725  , 0.846077861347  , 0.756598031195  , -0.914931998142 );
	kernels_LR[233] = compute_kernel_LR(x,   1.170895906791  , -0.415212549282  , 1.239647957689  , 0.924023915138  , -0.571605721813  , 1.21369236447  , 0.046468045687  , 1.224217413554  , -0.643133530162  , -0.15186632728  , 0.889340370685  , 0.939031285479  , -0.714356092703  , 1.130892681814  , 0.278670445646  , 1.049797409399  , -0.762999078425  , 0.873591014485  , 0.813445769275  , -0.882702739415 );
	kernels_LR[234] = compute_kernel_LR(x,   0.16211416908  , -2.259724454849  , -0.374145164179  , -1.200598451812  , -0.671771557508  , -0.564646330301  , -0.682679653981  , -0.773694252997  , -0.577486080907  , -1.464662000903  , 0.530344333984  , 0.087189394232  , -1.544176748485  , -0.141512591137  , -0.24286646395  , 0.51274825115  , -0.516819604723  , 0.335214948078  , 0.344888115993  , -0.26626179822 );
	kernels_LR[235] = compute_kernel_LR(x,   -0.998066920468  , -0.008731451122  , -0.98861413003  , 0.087128857932  , 2.051370917413  , -0.447373862856  , -2.206743437865  , -0.494910671183  , 2.122171033959  , -0.487815325647  , -0.717425242275  , -0.759527826809  , 0.409095575569  , -0.515990758586  , 0.858718584436  , -0.614842228345  , -1.235850852563  , -2.186046683162  , -2.278952533923  , 2.318478933794 );
	kernels_LR[236] = compute_kernel_LR(x,   1.162566604366  , -0.429768721105  , 1.230890529815  , 0.922956000621  , -0.573545081218  , 1.204799023479  , 0.021644780191  , 1.211118304603  , -0.643998528674  , -0.155949673076  , 0.886514408492  , 0.934156904417  , -0.716470086698  , 1.126889438001  , 0.27783020319  , 1.047770315208  , -0.765929849763  , 0.865456936719  , 0.796288395748  , -0.89190972107 );
	kernels_LR[237] = compute_kernel_LR(x,   -1.645162297706  , -0.436137046277  , -1.087184159974  , 1.348323854736  , 2.394644767161  , -1.447478080409  , -0.650359394856  , -1.081855066229  , -0.494038361675  , 2.00780054981  , -2.378343696597  , -2.356688549989  , 0.026542204967  , -0.378460304955  , 1.303172477111  , -0.435737467755  , 0.425348842449  , -1.492820057664  , -1.507875009472  , 1.496175863231 );
	kernels_LR[238] = compute_kernel_LR(x,   1.189825794084  , -0.34996870798  , 1.264026875073  , 0.92824519735  , -0.561049311581  , 1.241480069887  , 0.125923929836  , 1.266096085701  , -0.639706804101  , -0.13722146276  , 0.898048738595  , 0.954910567304  , -0.707743360403  , 1.14221738164  , 0.281555504483  , 1.055257045334  , -0.752406280209  , 0.894106035266  , 0.857581804482  , -0.856082553326 );
	kernels_LR[239] = compute_kernel_LR(x,   -0.722983575112  , 1.206142045183  , -0.721195394761  , -0.651864400467  , -0.654241293059  , -0.929551484611  , 1.674795668813  , -0.962722432468  , -0.776735293387  , 1.40326304396  , -1.119626371009  , -0.969218506612  , 1.717748108486  , -1.504636860704  , -1.926830674577  , -1.527224614629  , 1.630709533262  , -0.755276037272  , -0.661788089124  , 0.562957360186 );
	kernels_LR[240] = compute_kernel_LR(x,   -0.995810293101  , 0.002829508422  , -0.985150916648  , 0.087724917552  , 2.052495462319  , -0.444704000459  , -2.195398429806  , -0.490298621987  , 2.122637655191  , -0.485483036246  , -0.716394631906  , -0.757436348157  , 0.409915474832  , -0.514718006461  , 0.859038915061  , -0.614321057097  , -1.234683550595  , -2.183984927893  , -2.273722676118  , 2.321724768605 );
	kernels_LR[241] = compute_kernel_LR(x,   -0.929028100262  , 0.403509132331  , -1.043759517899  , -0.749395351154  , 0.004996189417  , -0.91417332949  , 0.07040841132  , -1.041627463232  , 1.376604754581  , -1.187097490048  , 0.070315610415  , -0.194673724298  , 0.163544924327  , -0.413198441099  , 1.488346808512  , -0.543214083655  , 1.315649977026  , 0.177127037167  , 0.23210655311  , -0.282577785092 );
