#pragma once
#include <cstdarg>
namespace Eloquent {
    namespace ML {
        namespace Port {
            class SVM {
                public:
                    /**
                    * Predict class for features vector
                    */
                    int predict(float *x) {
                        float kernels[120] = { 0 };
                        float decisions[10] = { 0 };
                        int votes[5] = { 0 };
                        kernels[0] = compute_kernel(x,   4103157.392791  , 164504460.760797  , 28.679927  , 86.164198  , 20597859.141858  , 444025378.071858  , 28.52819  , 143.513423  , 6529193.426378  , 266194990.195602  , 27.261067  , 106.777428  , 7604282.587035001  , 303075261.127116  , 27.386703  , 113.610529  , 2506841.82504  , 56474968.166177  , 30.467915  , 53.096054 );
                        kernels[1] = compute_kernel(x,   4103177.758318  , 164505082.993632  , 28.67994  , 86.16438  , 20597940.810738  , 444034342.36155695  , 28.528344  , 143.515193  , 6529520.382782  , 266217093.238607  , 27.261599  , 106.782737  , 7604293.038522  , 303075967.006736  , 27.386772  , 113.610804  , 2506861.390977  , 56475566.204418  , 30.467932  , 53.09634 );
                        kernels[2] = compute_kernel(x,   4103140.514711  , 164504030.010302  , 28.679918  , 86.164068  , 20597785.988885  , 444019858.145861  , 28.528092  , 143.512291  , 6529004.897519  , 266180914.504811  , 27.260705  , 106.773966  , 7604274.592495  , 303074665.253376  , 27.386644  , 113.610289  , 2506826.152091  , 56474543.062387  , 30.467905  , 53.095847 );
                        kernels[3] = compute_kernel(x,   4103109.582832  , 164502734.181056  , 28.679853  , 86.163626  , 20597450.69056  , 443999466.776974  , 28.527773  , 143.508276  , 6528296.122605  , 266136919.35158703  , 27.25962  , 106.76323  , 7604234.265644  , 303072120.216968  , 27.386399  , 113.609287  , 2506795.959294  , 56473256.832825  , 30.467785  , 53.095135 );
                        kernels[4] = compute_kernel(x,   4103183.525004  , 164505404.413684  , 28.679949  , 86.164477  , 20598006.172035  , 444039610.914272  , 28.528428  , 143.516229  , 6529768.820705  , 266230684.960989  , 27.261883  , 106.785951  , 7604299.437342  , 303076322.377984  , 27.386813  , 113.610954  , 2506867.064597  , 56475889.157762  , 30.467943  , 53.096495 );
                        kernels[5] = compute_kernel(x,   4103132.149942  , 164503512.734601  , 28.679896  , 86.163901  , 20597712.031499  , 444011737.24708605  , 28.527956  , 143.510699  , 6528787.106067  , 266162621.669644  , 27.260251  , 106.769552  , 7604261.734069  , 303073821.151074  , 27.386557  , 113.609947  , 2506818.127665  , 56474030.284537  , 30.467867  , 53.095577 );
                        kernels[6] = compute_kernel(x,   4103171.054714  , 164504898.780778  , 28.679939  , 86.164331  , 20597932.046029  , 444032441.314101  , 28.528308  , 143.514799  , 6529464.113514  , 266212535.074681  , 27.261471  , 106.781566  , 7604289.118202  , 303075792.788233  , 27.386758  , 113.610741  , 2506854.385792  , 56475391.204035  , 30.467934  , 53.096263 );
                        kernels[7] = compute_kernel(x,   4103164.983097  , 164504684.68762  , 28.679933  , 86.164264  , 20597906.440737  , 444028546.017353  , 28.528249  , 143.514055  , 6529329.02455  , 266203032.46908  , 27.261277  , 106.779354  , 7604285.936469  , 303075523.16761607  , 27.38673  , 113.610633  , 2506848.577268  , 56475185.475414  , 30.467923  , 53.096158 );
                        kernels[8] = compute_kernel(x,   4103182.875689  , 164505362.30161598  , 28.679948  , 86.164464  , 20597999.96069  , 444038913.208248  , 28.528414  , 143.516084  , 6529739.456296  , 266228819.124158  , 27.261834  , 106.785485  , 7604298.489553  , 303076272.080213  , 27.386807  , 113.610933  , 2506866.4495229996  , 56475846.760768  , 30.46794  , 53.096474 );
                        kernels[9] = compute_kernel(x,   4103104.9884189996  , 164502474.037335  , 28.679838  , 86.163536  , 20597417.567007  , 443996206.22876006  , 28.527729  , 143.507689  , 6528240.184878  , 266130588.11646003  , 27.259469  , 106.76178  , 7604223.195385  , 303071232.693102  , 27.386346  , 113.609021  , 2506791.3585  , 56473004.03221  , 30.467753  , 53.094992 );
                        kernels[10] = compute_kernel(x,   4103169.351494  , 164504848.489748  , 28.679939  , 86.164317  , 20597930.837842  , 444031677.060032  , 28.528297  , 143.514663  , 6529450.551846  , 266210617.965114  , 27.261431  , 106.781144  , 7604288.743017  , 303075736.123657  , 27.386754  , 113.610723  , 2506852.751949  , 56475343.232815  , 30.467933  , 53.096242 );
                        kernels[11] = compute_kernel(x,   4103121.943458  , 164503223.701664  , 28.679882  , 86.163801  , 20597637.209363  , 444007750.908276  , 28.527876  , 143.509848  , 6528648.343853  , 266153613.802558  , 27.259981  , 106.767236  , 7604251.8579  , 303073312.189942  , 27.386499  , 113.609725  , 2506808.124864  , 56473743.868865  , 30.467841  , 53.095416 );
                        kernels[12] = compute_kernel(x,   4103113.791625  , 164502920.889489  , 28.679864  , 86.163693  , 20597507.286302  , 444002516.629137  , 28.527807  , 143.508852  , 6528411.069225  , 266142988.176949  , 27.25974  , 106.764683  , 7604241.003563  , 303072643.014668  , 27.386437  , 113.609471  , 2506800.009306  , 56473436.50979  , 30.467805  , 53.09524 );
                        kernels[13] = compute_kernel(x,   4103117.8866590005  , 164503033.867374  , 28.679872  , 86.163736  , 20597603.037346  , 444004697.065006  , 28.527833  , 143.509282  , 6528587.464156999  , 266147531.036944  , 27.25983  , 106.765794  , 7604248.693316  , 303072952.4390609  , 27.386463  , 113.609587  , 2506804.201914  , 56473553.298704  , 30.46782  , 53.095311 );
                        kernels[14] = compute_kernel(x,   4103129.036356  , 164503441.733069  , 28.679892  , 86.163876  , 20597680.796843  , 444010572.866045  , 28.527937  , 143.510461  , 6528727.595632  , 266160061.261303  , 27.260186  , 106.768912  , 7604258.683998  , 303073689.837685  , 27.386542  , 113.609892  , 2506815.147082  , 56473958.750123  , 30.46786  , 53.095536 );
                        kernels[15] = compute_kernel(x,   4103138.530007  , 164503872.594634  , 28.679911  , 86.164018  , 20597756.569678  , 444017461.381013  , 28.528049  , 143.511817  , 6528918.725598  , 266175282.591549  , 27.260556  , 106.772598  , 7604267.081185  , 303074404.016987  , 27.386619  , 113.610187  , 2506824.08919  , 56474388.33529399  , 30.467894  , 53.095766 );
                        kernels[16] = compute_kernel(x,   4103111.331675  , 164502821.608777  , 28.679859  , 86.163658  , 20597483.509929  , 444000828.57685906  , 28.527788  , 143.508544  , 6528350.067523001  , 266139636.905711  , 27.259673  , 106.763902  , 7604238.946343  , 303072366.967255  , 27.386417  , 113.609377  , 2506797.69036  , 56473342.749534  , 30.467795  , 53.095186 );
                        kernels[17] = compute_kernel(x,   4103165.567168  , 164504733.441848  , 28.679934  , 86.16428  , 20597912.075433  , 444029497.756058  , 28.528264  , 143.514246  , 6529346.929523  , 266205211.712466  , 27.261322  , 106.779882  , 7604286.32607  , 303075580.021597  , 27.386738  , 113.610661  , 2506849.269925  , 56475233.742799  , 30.467926  , 53.096183 );
                        kernels[18] = compute_kernel(x,   4103109.62225  , 164502765.757777  , 28.679856  , 86.163639  , 20597450.853167  , 443999966.058165  , 28.527783  , 143.508378  , 6528296.566694  , 266137884.29215303  , 27.259651  , 106.763473  , 7604234.327189  , 303072214.004477  , 27.386408  , 113.609325  , 2506795.987868  , 56473287.66735801  , 30.467791  , 53.095155 );
                        kernels[19] = compute_kernel(x,   4103136.500172  , 164503737.639455  , 28.679905  , 86.163974  , 20597741.76819  , 444015213.53749204  , 28.52801  , 143.511376  , 6528866.480338  , 266170212.61648798  , 27.260427  , 106.771385  , 7604265.395304001  , 303074192.993051  , 27.386594  , 113.610096  , 2506822.26179  , 56474257.477463  , 30.467882  , 53.095696 );
                        kernels[20] = compute_kernel(x,   4103187.522184  , 164505544.039616  , 28.679955  , 86.164522  , 20598060.198089  , 444041876.898958  , 28.528475  , 143.516711  , 6529979.913506  , 266236965.205187  , 27.262058  , 106.787552  , 7604304.221844  , 303076508.313824  , 27.386832  , 113.611027  , 2506870.822425  , 56476026.24128  , 30.467952  , 53.096567 );
                        kernels[21] = compute_kernel(x,   4103164.68359  , 164504628.879578  , 28.679931  , 86.164249  , 20597903.852278  , 444027686.090333  , 28.528236  , 143.513898  , 6529325.316532  , 266200743.015404  , 27.261232  , 106.778857  , 7604285.821794999  , 303075457.36118  , 27.386724  , 113.61061  , 2506848.2075139997  , 56475132.266438  , 30.467921  , 53.096135 );
                        kernels[22] = compute_kernel(x,   4103197.220913  , 164505910.449767  , 28.679961  , 86.164627  , 20598148.067561  , 444046139.055642  , 28.528561  , 143.517616  , 6530189.059146999  , 266250291.892488  , 27.26238  , 106.79079  , 7604310.31475  , 303076891.667343  , 27.386865  , 113.611168  , 2506880.328018  , 56476388.777385  , 30.467955  , 53.096733 );
                        kernels[23] = compute_kernel(x,   4103125.309877  , 164503246.91201398  , 28.679884  , 86.163811  , 20597666.275803  , 444008008.291217  , 28.527886  , 143.509923  , 6528691.079165  , 266154218.445989  , 27.260019  , 106.767435  , 7604256.46064  , 303073360.780603  , 27.386504  , 113.609746  , 2506811.030143  , 56473766.517701  , 30.467843  , 53.095432 );
                        kernels[24] = compute_kernel(x,   4103198.017095  , 164505962.901867  , 28.679961  , 86.16464  , 20598150.444156  , 444046822.618244  , 28.52857  , 143.517734  , 6530197.61384  , 266252387.953315  , 27.262415  , 106.791233  , 7604310.491386999  , 303076952.245489  , 27.386868  , 113.611185  , 2506880.969686  , 56476440.77841  , 30.467954  , 53.096754 );
                        kernels[25] = compute_kernel(x,   4103119.932264  , 164503136.477253  , 28.679878  , 86.163773  , 20597621.780562  , 444006227.544161  , 28.527857  , 143.50957  , 6528625.496635  , 266150626.52373698  , 27.259907  , 106.766524  , 7604250.986615  , 303073159.172066  , 27.386483  , 113.609665  , 2506806.136982  , 56473657.953006  , 30.467834  , 53.095371 );
                        kernels[26] = compute_kernel(x,   4103099.660038  , 164502380.318883  , 28.679831  , 86.163497  , 20597374.984834  , 443995162.252077  , 28.527713  , 143.507465  , 6528167.386961  , 266128454.138425  , 27.259413  , 106.761214  , 7604209.097882  , 303070881.394262  , 27.386322  , 113.608895  , 2506785.871958  , 56472911.473101  , 30.467739  , 53.094929 );
                        kernels[27] = compute_kernel(x,   4103179.55572  , 164505226.651476  , 28.679944  , 86.164422  , 20597954.404446997  , 444036607.720545  , 28.528381  , 143.515632  , 6529572.996273  , 266222856.089045  , 27.261719  , 106.784063  , 7604294.840643  , 303076111.867539  , 27.38679  , 113.610867  , 2506863.157283  , 56475712.338694  , 30.467935  , 53.096408 );
                        kernels[28] = compute_kernel(x,   4103178.587894  , 164505155.00761  , 28.679944  , 86.164403  , 20597946.359836  , 444035713.915388  , 28.52837  , 143.515461  , 6529541.915000001  , 266220638.357572  , 27.261683  , 106.783547  , 7604293.84023  , 303076062.88494  , 27.386784  , 113.610845  , 2506862.266772  , 56475640.15333  , 30.467937  , 53.096377 );
                        kernels[29] = compute_kernel(x,   4103162.2168350006  , 164504562.870611  , 28.679929  , 86.164229  , 20597883.59094  , 444026668.24234897  , 28.528214  , 143.513684  , 6529238.661475  , 266197976.912286  , 27.261155  , 106.778172  , 7604283.893227  , 303075367.038019  , 27.386715  , 113.610575  , 2506845.772017  , 56475066.453255  , 30.467918  , 53.096102 );
                        kernels[30] = compute_kernel(x,   4103133.296333  , 164503616.16927797  , 28.6799  , 86.163932  , 20597720.897142  , 444013345.111508  , 28.527978  , 143.510991  , 6528810.978133  , 266165946.215078  , 27.260321  , 106.770314  , 7604262.604138  , 303073986.938506  , 27.386573  , 113.610011  , 2506819.174757  , 56474136.772638  , 30.467872  , 53.095628 );
                        kernels[31] = compute_kernel(x,   4103131.224962  , 164503481.15282  , 28.679895  , 86.16389  , 20597697.598819  , 444011176.64305  , 28.527949  , 143.510594  , 6528762.927494  , 266161370.657355  , 27.260225  , 106.769266  , 7604260.206692  , 303073753.56288  , 27.386551  , 113.609922  , 2506817.200435  , 56473997.15382  , 30.467864  , 53.09556 );
                        kernels[32] = compute_kernel(x,   4103135.683826  , 164503699.076577  , 28.679903  , 86.16396  , 20597733.066566  , 444014748.121374  , 28.527998  , 143.511257  , 6528836.044459  , 266169016.51900902  , 27.260389  , 106.771036  , 7604263.536693  , 303074142.625937  , 27.386587  , 113.610069  , 2506821.397111  , 56474220.911596  , 30.467879  , 53.095674 );
                        kernels[33] = compute_kernel(x,   4103144.43894  , 164504124.657592  , 28.679921  , 86.164099  , 20597805.36359  , 444021374.867302  , 28.528115  , 143.512596  , 6529060.547812  , 266184688.918413  , 27.26078  , 106.774878  , 7604276.286256  , 303074840.055868  , 27.38666  , 113.610356  , 2506829.654745  , 56474635.090116  , 30.46791  , 53.095895 );
                        kernels[34] = compute_kernel(x,   4103118.564193  , 164503086.248463  , 28.679875  , 86.163755  , 20597613.682287  , 444005665.882751  , 28.527848  , 143.509465  , 6528612.707621  , 266149488.30024  , 27.259877  , 106.766254  , 7604249.4966009995  , 303073074.832311  , 27.386475  , 113.609634  , 2506804.864592  , 56473605.92317  , 30.467827  , 53.095342 );
                        kernels[35] = compute_kernel(x,   4103194.232515  , 164505732.31627598  , 28.679957  , 86.164574  , 20598118.126138  , 444044161.250809  , 28.528514  , 143.517172  , 6530072.876949  , 266243632.914306  , 27.262207  , 106.789124  , 7604307.079974  , 303076696.836943  , 27.386848  , 113.611095  , 2506877.171053  , 56476214.516697  , 30.467951  , 53.09665 );
                        kernels[36] = compute_kernel(x,   4103139.478989  , 164503966.055108  , 28.679915  , 86.164048  , 20597784.176504  , 444019055.790106  , 28.528076  , 143.512131  , 6528999.14016  , 266178934.957795  , 27.260645  , 106.773481  , 7604273.589977  , 303074562.210714  , 27.386635  , 113.610251  , 2506825.0027  , 56474480.363535  , 30.4679  , 53.095814 );
                        kernels[37] = compute_kernel(x,   4103109.323769  , 164502660.963004  , 28.67985  , 86.163603  , 20597448.663679  , 443998388.920764  , 28.527763  , 143.5081  , 6528290.716766  , 266134822.33678  , 27.259586  , 106.762789  , 7604233.812832  , 303071878.899817  , 27.386386  , 113.609221  , 2506795.773061  , 56473185.67533  , 30.467778  , 53.095098 );
                        kernels[38] = compute_kernel(x,   4103186.584334  , 164505518.956625  , 28.679954  , 86.164515  , 20598046.489442  , 444041488.871101  , 28.528466  , 143.516625  , 6529935.314728  , 266235891.465984  , 27.262026  , 106.787274  , 7604303.235169  , 303076479.878015  , 27.386828  , 113.611014  , 2506869.958401  , 56476000.960321  , 30.46795  , 53.096555 );
                        kernels[39] = compute_kernel(x,   4103145.534975  , 164504165.881665  , 28.679922  , 86.164111  , 20597820.078255  , 444021965.112846  , 28.528124  , 143.512713  , 6529079.756337  , 266186168.847696  , 27.260819  , 106.775239  , 7604278.069093  , 303074911.082574  , 27.386665  , 113.610382  , 2506830.900083  , 56474673.520316  , 30.467912  , 53.095915 );
                        kernels[40] = compute_kernel(x,   4103191.614089  , 164505633.914437  , 28.679956  , 86.164548  , 20598086.210131  , 444042954.784942  , 28.528494  , 143.516938  , 6530025.152017  , 266239999.920446  , 27.262129  , 106.788312  , 7604305.765311  , 303076599.686101  , 27.386839  , 113.61106  , 2506874.499656  , 56476116.44828  , 30.467951  , 53.096609 );
                        kernels[41] = compute_kernel(x,   4103159.664541  , 164504509.615038  , 28.679929  , 86.164214  , 20597872.618224  , 444026150.872375  , 28.528208  , 143.513587  , 6529231.028783001  , 266196977.113912  , 27.261127  , 106.777924  , 7604283.619024  , 303075333.857562  , 27.386712  , 113.610561  , 2506843.627433  , 56475014.69213599  , 30.467919  , 53.096079 );
                        kernels[42] = compute_kernel(x,   4103177.627787  , 164505052.803547  , 28.67994  , 86.16437  , 20597938.948703  , 444033892.792913  , 28.528334  , 143.51508  , 6529510.547491  , 266216011.990065  , 27.261563  , 106.782412  , 7604292.592605  , 303075937.812381  , 27.386768  , 113.610788  , 2506861.2588260006  , 56475539.13992  , 30.46793  , 53.096325 );
                        kernels[43] = compute_kernel(x,   4103195.536079  , 164505813.304136  , 28.67996  , 86.164599  , 20598140.814781  , 444045273.412846  , 28.528538  , 143.517408  , 6530151.894671  , 266247138.441825  , 27.262294  , 106.789976  , 7604308.987235  , 303076800.319972  , 27.386857  , 113.611133  , 2506878.570528  , 56476295.837554  , 30.467954  , 53.09669 );
                        kernels[44] = compute_kernel(x,   4103118.892331  , 164503107.160808  , 28.679877  , 86.163762  , 20597616.669468  , 444006098.506989  , 28.527854  , 143.509544  , 6528617.512642  , 266150365.111339  , 27.259898  , 106.766456  , 7604249.789874  , 303073128.917612  , 27.38648  , 113.609654  , 2506805.206004  , 56473628.32955  , 30.46783  , 53.095354 );
                        kernels[45] = compute_kernel(x,   4103178.06076  , 164505111.470194  , 28.679941  , 86.164389  , 20597943.332181  , 444034847.359709  , 28.528351  , 143.515286  , 6529533.207171  , 266218497.525811  , 27.261617  , 106.783033  , 7604293.723918  , 303076003.432036  , 27.386776  , 113.610818  , 2506861.698459  , 56475595.298889995  , 30.467933  , 53.096354 );
                        kernels[46] = compute_kernel(x,   4103157.214126  , 164504431.845795  , 28.679927  , 86.164191  , 20597858.610133  , 444024984.37968904  , 28.528186  , 143.513358  , 6529191.243047  , 266193920.346856  , 27.261051  , 106.777211  , 7604282.4533  , 303075214.90148  , 27.3867  , 113.610516  , 2506841.661577  , 56474939.12699  , 30.467915  , 53.096042 );
                        kernels[47] = compute_kernel(x,   4103200.509807  , 164506033.325809  , 28.679964  , 86.164664  , 20598186.340537  , 444047638.028247  , 28.528593  , 143.517941  , 6530316.283528  , 266254858.463006  , 27.26251  , 106.791976  , 7604314.872222  , 303077028.99130803  , 27.386875  , 113.611216  , 2506883.250219  , 56476509.009853  , 30.467958  , 53.096792 );
                        kernels[48] = compute_kernel(x,   4103172.948608  , 164504964.318276  , 28.67994  , 86.164348  , 20597937.058348  , 444032995.578162  , 28.52832  , 143.514915  , 6529489.384884  , 266213747.302493  , 27.261519  , 106.781902  , 7604290.511955  , 303075841.743887  , 27.386763  , 113.61076  , 2506856.4717  , 56475456.20873301  , 30.467933  , 53.096291 );
                        kernels[49] = compute_kernel(x,   4103097.967085  , 164502337.041529  , 28.679824  , 86.163472  , 20597358.805691  , 443994711.087747  , 28.527696  , 143.507338  , 6528129.383206  , 266127587.549179  , 27.259361  , 106.760913  , 7604206.337003  , 303070719.059911  , 27.386302  , 113.608813  , 2506784.128806  , 56472867.64094399  , 30.467724  , 53.094888 );
                        kernels[50] = compute_kernel(x,   4103189.433972  , 164505611.044883  , 28.679955  , 86.164541  , 20598066.159087  , 444042701.66331  , 28.52849  , 143.516882  , 6529993.989624  , 266239400.50427  , 27.262101  , 106.788131  , 7604305.049688  , 303076570.563576  , 27.386838  , 113.611052  , 2506872.340502  , 56476095.51996  , 30.46795  , 53.096598 );
                        kernels[51] = compute_kernel(x,   4103109.423055  , 164502703.071319  , 28.679851  , 86.163615  , 20597449.746588  , 443999005.49075  , 28.527766  , 143.508194  , 6528294.317242  , 266136019.800368  , 27.259598  , 106.763027  , 7604233.964879  , 303072024.73597  , 27.386391  , 113.609257  , 2506795.84828  , 56473227.195207  , 30.467781  , 53.095117 );
                        kernels[52] = compute_kernel(x,   4103108.1835490004  , 164502583.879597  , 28.679844  , 86.163575  , 20597442.793431  , 443997386.155735  , 28.527745  , 143.507906  , 6528280.192407  , 266132833.882887  , 27.259522  , 106.762303  , 7604230.774426  , 303071614.303454  , 27.386368  , 113.609134  , 2506794.55211  , 56473111.280804  , 30.467767  , 53.095053 );
                        kernels[53] = compute_kernel(x,   4103111.518101  , 164502891.988335  , 28.679862  , 86.16368  , 20597486.823797  , 444001995.251626  , 28.5278  , 143.508744  , 6528354.361439  , 266141867.22265998  , 27.259718  , 106.764395  , 7604239.17113  , 303072570.361038  , 27.386429  , 113.609439  , 2506798.055816  , 56473407.851201  , 30.467801  , 53.095221 );
                        kernels[54] = compute_kernel(x,   4103188.2117549996  , 164505599.704797  , 28.679955  , 86.164538  , 20598062.898899  , 444042667.12499005  , 28.528487  , 143.51687  , 6529990.248487  , 266239302.554265  , 27.262091  , 106.788094  , 7604304.655692999  , 303076565.98617  , 27.386837  , 113.611049  , 2506871.250986  , 56476084.402937  , 30.467951  , 53.096593 );
                        kernels[55] = compute_kernel(x,   4103110.523745  , 164502773.603049  , 28.679857  , 86.163643  , 20597469.109945  , 444000133.61646  , 28.527785  , 143.508418  , 6528327.744536  , 266138202.40619197  , 27.259662  , 106.763576  , 7604237.219278  , 303072247.109214  , 27.38641  , 113.609337  , 2506796.883534  , 56473295.594484  , 30.467793  , 53.095162 );
                        kernels[56] = compute_kernel(x,   4103126.612187  , 164503316.377601  , 28.679888  , 86.163838  , 20597670.90725  , 444008950.777621  , 28.527913  , 143.510164  , 6528704.133874  , 266156405.84422898  , 27.260101  , 106.768079  , 7604257.410382  , 303073486.065969  , 27.386522  , 113.609815  , 2506812.6081379997  , 56473834.552852  , 30.467852  , 53.095476 );
                        kernels[57] = compute_kernel(x,   4103166.249231  , 164504776.927842  , 28.679936  , 86.164293  , 20597913.423487  , 444030311.4220921  , 28.528277  , 143.514397  , 6529349.393427  , 266207121.91335398  , 27.261369  , 106.780321  , 7604286.488927  , 303075637.893858  , 27.386744  , 113.610684  , 2506849.8142929995  , 56475276.096629  , 30.467928  , 53.096204 );
                        kernels[58] = compute_kernel(x,   4103199.511035  , 164505993.055753  , 28.679962  , 86.164651  , 20598172.798026  , 444047150.666893  , 28.528586  , 143.517849  , 6530279.873542  , 266253470.010668  , 27.262478  , 106.79165  , 7604313.318851  , 303076982.057292  , 27.386873  , 113.611203  , 2506882.2985420004  , 56476471.531231  , 30.467956  , 53.096772 );
                        kernels[59] = compute_kernel(x,   4103127.329066  , 164503361.79960698  , 28.679889  , 86.163851  , 20597676.429076  , 444009461.593257  , 28.527921  , 143.51026  , 6528717.583106  , 266157582.008576  , 27.260128  , 106.76835  , 7604257.952587  , 303073556.57128  , 27.386529  , 113.609841  , 2506813.465216  , 56473878.585226  , 30.467854  , 53.095497 );
                        kernels[60] = compute_kernel(x,   4103108.0510820006  , 164502535.495663  , 28.67984  , 86.163557  , 20597441.654008  , 443996852.76408  , 28.527734  , 143.507802  , 6528276.592056  , 266131835.148325  , 27.259488  , 106.762056  , 7604230.608983  , 303071444.616538  , 27.386356  , 113.609079  , 2506794.457327  , 56473063.837683  , 30.467758  , 53.095024 );
                        kernels[61] = compute_kernel(x,   4103136.615821  , 164503758.590981  , 28.679906  , 86.163981  , 20597743.017884  , 444015627.444123  , 28.528018  , 143.511453  , 6528869.935039  , 266171175.623815  , 27.260454  , 106.771604  , 7604265.488319  , 303074240.747317  , 27.386599  , 113.610114  , 2506822.345953  , 56474278.984231  , 30.467885  , 53.095707 );
                        kernels[62] = compute_kernel(x,   4103194.090534  , 164505695.482194  , 28.679957  , 86.164565  , 20598115.595159  , 444043663.901245  , 28.528509  , 143.51709  , 6530064.595278  , 266242129.593622  , 27.262189  , 106.788825  , 7604306.658214  , 303076658.32504606  , 27.386845  , 113.611084  , 2506877.01688  , 56476177.521113  , 30.467952  , 53.096636 );
                        kernels[63] = compute_kernel(x,   4103185.331433  , 164505476.273687  , 28.679953  , 86.164502  , 20598033.185707  , 444040855.158562  , 28.528454  , 143.516488  , 6529883.241288  , 266234066.711941  , 27.261981  , 106.786809  , 7604301.854496  , 303076429.264465  , 27.386823  , 113.610994  , 2506868.8404270005  , 56475959.036249  , 30.467949  , 53.096535 );
                        kernels[64] = compute_kernel(x,   4103180.513572  , 164505279.598837  , 28.679945  , 86.164437  , 20597960.735708002  , 444037453.33416  , 28.528395  , 143.515801  , 6529595.557739  , 266225056.657186  , 27.261766  , 106.78459  , 7604295.339095  , 303076169.019469  , 27.386796  , 113.610891  , 2506864.060385  , 56475764.0827  , 30.467936  , 53.096432 );
                        kernels[65] = compute_kernel(x,   4103150.52286  , 164504343.465151  , 28.679924  , 86.164162  , 20597834.136339  , 444023833.227834  , 28.52816  , 143.5131  , 6529111.73032  , 266190681.577716  , 27.260955  , 106.776374  , 7604280.080514  , 303075091.171403  , 27.386687  , 113.610462  , 2506835.53544  , 56474851.748558  , 30.467913  , 53.095996 );
                        kernels[66] = compute_kernel(x,   4103184.089422  , 164505438.29110396  , 28.67995  , 86.164486  , 20598013.143004  , 444040143.051869  , 28.528434  , 143.516323  , 6529805.966964  , 266232159.800459  , 27.261907  , 106.786277  , 7604300.44623  , 303076364.877443  , 27.386816  , 113.610968  , 2506867.592586  , 56475922.086893  , 30.467943  , 53.096509 );
                        kernels[67] = compute_kernel(x,   4103181.634577  , 164505304.937349  , 28.679947  , 86.164448  , 20597991.173293  , 444038085.312016  , 28.528401  , 143.515929  , 6529713.888343  , 266226639.87182  , 27.261782  , 106.784988  , 7604297.680932001  , 303076209.603743  , 27.386801  , 113.610909  , 2506865.309818  , 56475789.24130401  , 30.46794  , 53.096449 );
                        kernels[68] = compute_kernel(x,   4103107.996053  , 164502494.12607  , 28.679838  , 86.163543  , 20597441.364843  , 443996368.740717  , 28.527729  , 143.507718  , 6528275.777676  , 266130923.253575  , 27.259471  , 106.761855  , 7604230.569753  , 303071299.003233  , 27.386347  , 113.609037  , 2506794.4055579994  , 56473023.416487  , 30.467753  , 53.095002 );
                        kernels[69] = compute_kernel(x,   4103138.627355  , 164503928.377612  , 28.679913  , 86.164034  , 20597757.511810005  , 444018496.399197  , 28.528063  , 143.511999  , 6528922.467273  , 266177567.351654  , 27.260603  , 106.773097  , 7604267.173364  , 303074501.923321  , 27.386628  , 113.610223  , 2506824.215765  , 56474443.250797  , 30.467898  , 53.095793 );
                        kernels[70] = compute_kernel(x,   4103182.1652  , 164505352.681105  , 28.679948  , 86.164461  , 20597996.581831  , 444038839.8330469  , 28.528413  , 143.516069  , 6529732.201641  , 266228645.29242  , 27.261828  , 106.785442  , 7604298.36413  , 303076267.095297  , 27.386806  , 113.61093  , 2506865.71016  , 56475837.41623801  , 30.467941  , 53.096471 );
                        kernels[71] = compute_kernel(x,   4103168.915335  , 164504828.260197  , 28.679938  , 86.164311  , 20597929.155957  , 444031342.02243  , 28.528289  , 143.51459  , 6529449.585447  , 266209715.912001  , 27.261402  , 106.780914  , 7604288.68041  , 303075711.596501  , 27.386751  , 113.610711  , 2506852.322982  , 56475324.315991  , 30.467932  , 53.096232 );
                        kernels[72] = compute_kernel(x,   4103147.16914  , 164504181.600644  , 28.679922  , 86.164115  , 20597829.252909  , 444022144.177368  , 28.528123  , 143.512738  , 6529098.827495  , 266186568.03878802  , 27.260821  , 106.775314  , 7604279.209612  , 303074922.945217  , 27.386665  , 113.610385  , 2506832.4839939997  , 56474688.026158  , 30.467911  , 53.09592 );
                        kernels[73] = compute_kernel(x,   4103180.732292  , 164505284.3833  , 28.679945  , 86.164439  , 20597967.917161003  , 444037529.864918  , 28.528397  , 143.515819  , 6529634.118523  , 266225288.264563  , 27.261771  , 106.78466  , 7604296.035363  , 303076174.839814  , 27.386797  , 113.610894  , 2506864.301317  , 56475768.161205  , 30.467937  , 53.096434 );
                        kernels[74] = compute_kernel(x,   4103139.131425  , 164503936.513537  , 28.679914  , 86.164038  , 20597767.91309  , 444018624.098912  , 28.52807  , 143.512041  , 6528937.412976  , 266177760.265565  , 27.260629  , 106.773193  , 7604269.053481  , 303074518.160553  , 27.38663  , 113.610232  , 2506824.72864  , 56474450.528603  , 30.467899  , 53.095798 );
                        kernels[75] = compute_kernel(x,   4103149.277525  , 164504300.105481  , 28.679923  , 86.164148  , 20597831.943704  , 444023178.051025  , 28.528146  , 143.512966  , 6529102.606111  , 266189017.090578  , 27.260905  , 106.775961  , 7604279.666581  , 303075019.85728794  , 27.386679  , 113.610433  , 2506834.346011  , 56474805.380859  , 30.46791  , 53.095973 );
                        kernels[76] = compute_kernel(x,   4103189.881934  , 164505617.665792  , 28.679955  , 86.164543  , 20598067.359498  , 444042731.212159  , 28.528491  , 143.51689  , 6529995.680082  , 266239474.962367  , 27.262105  , 106.788152  , 7604305.182345  , 303076573.104807  , 27.386838  , 113.611053  , 2506872.780056  , 56476101.627884  , 30.46795  , 53.096601 );
                        kernels[77] = compute_kernel(x,   4103165.612613  , 164504754.009571  , 28.679936  , 86.164287  , 20597912.586828  , 444029949.378181  , 28.528272  , 143.514331  , 6529348.90835  , 266206215.037468  , 27.26135  , 106.780117  , 7604286.367881  , 303075611.071005  , 27.386741  , 113.610674  , 2506849.282115  , 56475253.265577  , 30.467928  , 53.096194 );
                        kernels[78] = compute_kernel(x,   4103198.721795  , 164505982.995968  , 28.679963  , 86.164648  , 20598152.419416  , 444047078.909465  , 28.528585  , 143.51783  , 6530209.822392  , 266253223.52771696  , 27.262474  , 106.791567  , 7604310.751728  , 303076974.475802  , 27.386872  , 113.6112  , 2506881.578502  , 56476461.957815  , 30.467956  , 53.096768 );
                        kernels[79] = compute_kernel(x,   4103159.924255  , 164504515.597458  , 28.679929  , 86.164216  , 20597873.952987  , 444026231.215026  , 28.528209  , 143.513601  , 6529235.811712  , 266197175.917562  , 27.261132  , 106.777967  , 7604283.732089  , 303075339.154467  , 27.386713  , 113.610563  , 2506843.79471  , 56475020.662682  , 30.467919  , 53.096082 );
                        kernels[80] = compute_kernel(x,   4103183.619233  , 164505431.043433  , 28.67995  , 86.164484  , 20598007.030229  , 444040046.62398  , 28.528433  , 143.516304  , 6529771.104785001  , 266231906.780588  , 27.261901  , 106.786204  , 7604299.538669  , 303076356.16676  , 27.386815  , 113.610965  , 2506867.168997  , 56475915.235677  , 30.467943  , 53.096506 );
                        kernels[81] = compute_kernel(x,   4103177.381958  , 164505032.030854  , 28.679939  , 86.164364  , 20597938.293571  , 444033487.53684795  , 28.528327  , 143.515005  , 6529509.844529  , 266215100.821524  , 27.26154  , 106.782197  , 7604292.484226  , 303075914.712947  , 27.386765  , 113.610778  , 2506860.989223  , 56475518.798512  , 30.467929  , 53.096315 );
                        kernels[82] = compute_kernel(x,   4103199.660028  , 164506008.19117397  , 28.679963  , 86.164657  , 20598183.105974  , 444047367.035057  , 28.528587  , 143.517884  , 6530314.949959  , 266253985.793673  , 27.262485  , 106.791767  , 7604314.731574  , 303077006.037907  , 27.386873  , 113.611208  , 2506882.417903  , 56476485.009665  , 30.467958  , 53.096781 );
                        kernels[83] = compute_kernel(x,   4103133.435631  , 164503627.640076  , 28.6799  , 86.163934  , 20597722.909248  , 444013406.140976  , 28.52798  , 143.511003  , 6528816.730129  , 266166148.452749  , 27.260324  , 106.770355  , 7604262.873498  , 303074000.722571  , 27.386574  , 113.610015  , 2506819.285523  , 56474147.82343  , 30.467872  , 53.095632 );
                        kernels[84] = compute_kernel(x,   4103188.5266849995  , 164505602.606638  , 28.679955  , 86.164539  , 20598063.862957004  , 444042680.783635  , 28.528489  , 143.516876  , 6529990.844764  , 266239343.856864  , 27.262098  , 106.788113  , 7604304.774189  , 303076566.95123  , 27.386837  , 113.61105  , 2506871.49958  , 56476087.45067899  , 30.467951  , 53.096595 );
                        kernels[85] = compute_kernel(x,   4103197.392182  , 164505938.438791  , 28.679961  , 86.164634  , 20598148.279991  , 444046478.796936  , 28.528566  , 143.517675  , 6530189.895312  , 266251338.811406  , 27.262398  , 106.791015  , 7604310.359607  , 303076922.561354  , 27.386866  , 113.611177  , 2506880.456976  , 56476417.600232  , 30.467954  , 53.096745 );
                        kernels[86] = compute_kernel(x,   4103184.479069  , 164505443.81212  , 28.679952  , 86.164491  , 20598028.678111  , 444040340.996515  , 28.528438  , 143.516373  , 6529870.524081  , 266232656.849991  , 27.261925  , 106.786446  , 7604301.797805  , 303076385.695585  , 27.386817  , 113.610975  , 2506868.027458  , 56475927.71997199  , 30.467947  , 53.096519 );
                        kernels[87] = compute_kernel(x,   4103166.370326  , 164504797.866459  , 28.679936  , 86.164299  , 20597914.620665  , 444030732.087749  , 28.528282  , 143.514471  , 6529350.573965  , 266208155.412223  , 27.261384  , 106.780542  , 7604286.52698  , 303075662.590801  , 27.386746  , 113.610693  , 2506849.937533  , 56475296.347501  , 30.467929  , 53.096213 );
                        kernels[88] = compute_kernel(x,   4103136.672334  , 164503790.087767  , 28.679907  , 86.163989  , 20597743.480414  , 444016185.241766  , 28.528021  , 143.51154  , 6528871.601093  , 266172431.919137  , 27.260466  , 106.771852  , 7604265.554197  , 303074294.635112  , 27.386602  , 113.610129  , 2506822.386541  , 56474309.896054  , 30.467885  , 53.09572 );
                        kernels[89] = compute_kernel(x,   4103112.757978  , 164502914.84633404  , 28.679864  , 86.163691  , 20597498.941954996  , 444002415.985301  , 28.527807  , 143.508835  , 6528388.804228  , 266142747.29517  , 27.259739  , 106.764632  , 7604240.309347  , 303072633.250172  , 27.386436  , 113.609467  , 2506799.133582  , 56473430.421713  , 30.467805  , 53.095237 );
                        kernels[90] = compute_kernel(x,   4103164.943538  , 164504662.217119  , 28.679932  , 86.164258  , 20597905.501138  , 444028206.465065  , 28.528243  , 143.513988  , 6529326.411537001  , 266202148.365155  , 27.261254  , 106.779146  , 7604285.881149  , 303075497.138111  , 27.386727  , 113.610623  , 2506848.501282  , 56475164.08754  , 30.467922  , 53.096148 );
                        kernels[91] = compute_kernel(x,   4103169.432652  , 164504873.760346  , 28.679939  , 86.164324  , 20597931.224454  , 444032083.771891  , 28.528301  , 143.514732  , 6529454.297251  , 266211641.80074  , 27.261448  , 106.78136  , 7604288.759063  , 303075770.076291  , 27.386756  , 113.610732  , 2506852.818961  , 56475368.65142  , 30.467933  , 53.096252 );
                        kernels[92] = compute_kernel(x,   4103179.331506  , 164505179.326044  , 28.679944  , 86.16441  , 20597953.314097002  , 444036125.450775  , 28.528373  , 143.515539  , 6529572.332467  , 266221743.203405  , 27.261691  , 106.783796  , 7604294.454365  , 303076089.314095  , 27.386786  , 113.610855  , 2506862.911302  , 56475665.440691  , 30.467936  , 53.096389 );
                        kernels[93] = compute_kernel(x,   4103180.119886  , 164505250.90350896  , 28.679945  , 86.164429  , 20597957.246142  , 444037026.760746  , 28.528388  , 143.51572  , 6529590.58667  , 266223968.226543  , 27.261742  , 106.784338  , 7604295.293107  , 303076140.475671  , 27.386793  , 113.61088  , 2506863.701757  , 56475736.425333  , 30.467936  , 53.09642 );
                        kernels[94] = compute_kernel(x,   4103121.1244  , 164503191.827303  , 28.679881  , 86.163791  , 20597631.975585  , 444007161.150698  , 28.527872  , 143.509754  , 6528645.24308  , 266152575.102229  , 27.259964  , 106.767019  , 7604251.298864  , 303073248.068887  , 27.386494  , 113.609704  , 2506807.377862  , 56473713.775912  , 30.467839  , 53.095401 );
                        kernels[95] = compute_kernel(x,   4103194.970661  , 164505803.131129  , 28.679959  , 86.164595  , 20598126.770276  , 444045084.548815  , 28.528537  , 143.517377  , 6530106.095953  , 266246606.080355  , 27.262295  , 106.78987  , 7604307.937531  , 303076780.752794  , 27.386856  , 113.611128  , 2506877.932995  , 56476285.869592  , 30.467953  , 53.096684 );
                        kernels[96] = compute_kernel(x,   4103142.232512  , 164504060.348682  , 28.679918  , 86.164076  , 20597787.484527  , 444020304.23337  , 28.528096  , 143.512365  , 6529010.561983  , 266182003.837562  , 27.260721  , 106.774195  , 7604274.847055  , 303074720.059712  , 27.386647  , 113.610305  , 2506827.559967  , 56474571.973290004  , 30.467905  , 53.095859 );
                        kernels[97] = compute_kernel(x,   4103171.598063  , 164504944.805231  , 28.679939  , 86.164342  , 20597935.181331  , 444032690.570155  , 28.528313  , 143.514853  , 6529476.013362  , 266213021.824188  , 27.261492  , 106.781718  , 7604290.067246  , 303075819.476565  , 27.38676  , 113.61075  , 2506855.007714  , 56475437.197561  , 30.467932  , 53.096282 );
                        kernels[98] = compute_kernel(x,   4103128.464959  , 164503410.102252  , 28.679891  , 86.163865  , 20597680.169497  , 444010156.83252  , 28.527929  , 143.510379  , 6528726.383836  , 266159063.137611  , 27.260159  , 106.768675  , 7604258.456874001  , 303073638.080005  , 27.386536  , 113.60987  , 2506814.662222  , 56473925.809851  , 30.467857  , 53.095519 );
                        kernels[99] = compute_kernel(x,   4103196.793334  , 164505897.669791  , 28.679961  , 86.164623  , 20598144.679194  , 444046052.175733  , 28.528561  , 143.517601  , 6530176.718994  , 266250041.061157  , 27.262379  , 106.79074  , 7604309.647121999  , 303076882.065973  , 27.386864  , 113.611166  , 2506879.887968  , 56476377.729589  , 30.467955  , 53.096729 );
                        kernels[100] = compute_kernel(x,   4103187.45219  , 164505523.370646  , 28.679954  , 86.164516  , 20598059.724078  , 444041541.484252  , 28.528467  , 143.516639  , 6529978.327624  , 266236053.574375  , 27.262028  , 106.787324  , 7604304.159963  , 303076484.136737  , 27.386829  , 113.611016  , 2506870.766052  , 56476005.007731  , 30.46795  , 53.096557 );
                        kernels[101] = compute_kernel(x,   4103126.851086  , 164503343.335977  , 28.679889  , 86.163847  , 20597673.291683998  , 444009430.168878  , 28.527919  , 143.51025  , 6528709.722399001  , 266157470.008898  , 27.260123  , 106.768317  , 7604257.541924  , 303073547.625447  , 27.386527  , 113.609837  , 2506812.892521  , 56473861.56012401  , 30.467855  , 53.09549 );
                        kernels[102] = compute_kernel(x,   4103144.012537  , 164504109.224146  , 28.679919  , 86.164093  , 20597804.522838  , 444021045.382477  , 28.528107  , 143.512523  , 6529055.936816  , 266183879.027751  , 27.260753  , 106.77467  , 7604276.259818  , 303074792.27404  , 27.386656  , 113.610339  , 2506829.36414  , 56474619.773101  , 30.467907  , 53.095886 );
                        kernels[103] = compute_kernel(x,   4103123.985497  , 164503231.643457  , 28.679883  , 86.163806  , 20597651.706347  , 444007862.957391  , 28.527884  , 143.509892  , 6528664.319873  , 266153813.338589  , 27.260011  , 106.767339  , 7604253.923347  , 303073339.177696  , 27.386502  , 113.609738  , 2506809.820833  , 56473751.84664  , 30.467843  , 53.095423 );
                        kernels[104] = compute_kernel(x,   4103137.736982  , 164503847.615109  , 28.67991  , 86.164009  , 20597756.23814  , 444017094.728906  , 28.528039  , 143.511735  , 6528916.843963  , 266174444.227326  , 27.260522  , 106.772372  , 7604266.615051  , 303074372.560311  , 27.386614  , 113.61017  , 2506823.379695  , 56474364.412875  , 30.467891  , 53.095752 );
                        kernels[105] = compute_kernel(x,   4103113.960086  , 164502943.86454  , 28.679866  , 86.163703  , 20597509.725778  , 444003040.497956  , 28.527814  , 143.508962  , 6528416.247053  , 266144083.273478  , 27.259763  , 106.764968  , 7604241.173783  , 303072712.988925  , 27.386443  , 113.6095  , 2506800.119406  , 56473460.052661  , 30.467809  , 53.095256 );
                        kernels[106] = compute_kernel(x,   4103139.762633  , 164503992.9722  , 28.679916  , 86.164056  , 20597785.03118  , 444019509.272556  , 28.528084  , 143.512219  , 6529001.108501  , 266180001.134158  , 27.260677  , 106.773734  , 7604273.604062  , 303074612.179527  , 27.38664  , 113.610271  , 2506825.296631  , 56474507.005112  , 30.467902  , 53.095828 );
                        kernels[107] = compute_kernel(x,   4103163.762222  , 164504617.460368  , 28.679931  , 86.164246  , 20597895.040177  , 444027610.250611  , 28.528233  , 143.513876  , 6529285.411165  , 266200433.756316  , 27.261222  , 106.778774  , 7604285.12153  , 303075450.8939661  , 27.386723  , 113.610607  , 2506847.086116  , 56475121.685434  , 30.467921  , 53.096129 );
                        kernels[108] = compute_kernel(x,   4103130.449625  , 164503472.236124  , 28.679893  , 86.163886  , 20597691.686238  , 444011027.304233  , 28.527943  , 143.510551  , 6528755.554857  , 266161094.95862  , 27.260203  , 106.769156  , 7604259.224134  , 303073734.071955  , 27.386547  , 113.609911  , 2506816.411396  , 56473989.330314  , 30.467861  , 53.095553 );
                        kernels[109] = compute_kernel(x,   4103178.029572  , 164505090.233096  , 28.679941  , 86.164382  , 20597942.557097  , 444034411.206133  , 28.528345  , 143.515207  , 6529531.450208  , 266217439.130139  , 27.261597  , 106.782799  , 7604293.640248  , 303075973.91985  , 27.386773  , 113.610806  , 2506861.668377  , 56475573.89555  , 30.467932  , 53.096344 );
                        kernels[110] = compute_kernel(x,   4103165.475508  , 164504729.646904  , 28.679934  , 86.164279  , 20597910.761895996  , 444029425.884042  , 28.528262  , 143.514231  , 6529342.235857  , 266205057.919889  , 27.261316  , 106.779843  , 7604286.232843  , 303075575.394055  , 27.386737  , 113.610659  , 2506849.111336  , 56475229.917189  , 30.467925  , 53.096181 );
                        kernels[111] = compute_kernel(x,   4103194.194566  , 164505701.269434  , 28.679957  , 86.164567  , 20598117.743476  , 444043726.128984  , 28.52851  , 143.517102  , 6530071.435666999  , 266242335.839492  , 27.262194  , 106.788871  , 7604307.038092  , 303076663.166135  , 27.386846  , 113.611086  , 2506877.140555  , 56476183.513255  , 30.467952  , 53.096639 );
                        kernels[112] = compute_kernel(x,   4103159.338299  , 164504482.467915  , 28.679928  , 86.164206  , 20597871.332247  , 444025662.183932  , 28.528198  , 143.51349  , 6529227.440737  , 266195794.476899  , 27.26109  , 106.77764  , 7604283.564443  , 303075292.0994301  , 27.386707  , 113.610543  , 2506843.279647  , 56474989.391729  , 30.467917  , 53.096066 );
                        kernels[113] = compute_kernel(x,   4103150.505345  , 164504324.770356  , 28.679924  , 86.164156  , 20597833.831093  , 444023499.4754  , 28.528156  , 143.51304  , 6529110.185642  , 266189833.688549  , 27.260938  , 106.776184  , 7604280.031194  , 303075053.241893  , 27.386684  , 113.61045  , 2506835.506659  , 56474831.48836101  , 30.467912  , 53.095987 );
                        kernels[114] = compute_kernel(x,   4103183.493564  , 164505387.485473  , 28.679948  , 86.164471  , 20598006.061701  , 444039328.457608  , 28.52842  , 143.516164  , 6529768.165901  , 266229898.537382  , 27.261852  , 106.785743  , 7604299.414684  , 303076300.455047  , 27.386809  , 113.610944  , 2506867.0416020006  , 56475872.117523  , 30.467941  , 53.096486 );
                        kernels[115] = compute_kernel(x,   4103126.544785  , 164503282.979017  , 28.679885  , 86.163823  , 20597667.940536  , 444008461.452017  , 28.527896  , 143.510023  , 6528698.116911  , 266155249.978411  , 27.260046  , 106.767702  , 7604257.295066  , 303073417.490239  , 27.386511  , 113.609773  , 2506812.526343  , 56473802.513462  , 30.467845  , 53.095452 );
                        kernels[116] = compute_kernel(x,   4103178.26696  , 164505129.597334  , 28.679942  , 86.164395  , 20597943.787599  , 444035196.331272  , 28.528361  , 143.515365  , 6529534.935218  , 266219371.916819  , 27.261651  , 106.783264  , 7604293.797644  , 303076027.053672  , 27.38678  , 113.61083  , 2506861.82043  , 56475614.384914  , 30.467935  , 53.096364 );
                        kernels[117] = compute_kernel(x,   4103162.2797270003  , 164504590.230817  , 28.67993  , 86.164236  , 20597884.016196  , 444027181.780816  , 28.528221  , 143.513776  , 6529240.690665  , 266199302.920124  , 27.261181  , 106.778458  , 7604283.972403  , 303075412.198304  , 27.386719  , 113.61059  , 2506845.830783  , 56475095.251286  , 30.46792  , 53.096114 );
                        kernels[118] = compute_kernel(x,   4103196.082101  , 164505835.90793496  , 28.67996  , 86.164606  , 20598141.450431  , 444045503.172699  , 28.528543  , 143.517467  , 6530159.734644  , 266248035.15637103  , 27.26231  , 106.79021  , 7604309.331461  , 303076826.753925  , 27.386859  , 113.611143  , 2506879.0902849995  , 56476317.936012  , 30.467954  , 53.096701 );
                        kernels[119] = compute_kernel(x,   4103136.435393  , 164503730.722861  , 28.679905  , 86.163971  , 20597736.770795  , 444015102.280679  , 28.528009  , 143.511358  , 6528847.154207  , 266169795.901543  , 27.260429  , 106.77131  , 7604264.73147  , 303074178.4348899  , 27.386593  , 113.610092  , 2506822.199256  , 56474250.682088  , 30.467881  , 53.095692 );
                        decisions[0] = 0.686746987952
                        + kernels[0] * 0.3125
                        + kernels[1] * 0.3125
                        + kernels[2] * 0.3125
                        + kernels[3] * 0.3125
                        + kernels[4] * 0.3125
                        + kernels[5] * 0.3125
                        + kernels[6] * 0.3125
                        + kernels[7] * 0.3125
                        + kernels[8] * 0.3125
                        + kernels[9] * 0.3125
                        + kernels[10] * 0.3125
                        + kernels[11] * 0.3125
                        + kernels[12] * 0.3125
                        + kernels[13] * 0.3125
                        + kernels[14] * 0.3125
                        + kernels[15] * 0.3125
                        + kernels[16] * 0.3125
                        + kernels[17] * 0.3125
                        + kernels[18] * 0.3125
                        + kernels[19] * 0.3134765625
                        + kernels[20] * 0.3134765625
                        + kernels[21] * 0.3134765625
                        + kernels[22] * 0.3134765625
                        + kernels[23] * 0.3134765625
                        + kernels[24] * 0.3134765625
                        + kernels[25] * 0.3134765625
                        + kernels[26] * 0.3134765625
                        + kernels[27] * 0.3134765625
                        + kernels[28] * 0.3134765625
                        + kernels[29] * 0.3134765625
                        + kernels[30] * 0.3134765625
                        + kernels[31] * 0.3134765625
                        + kernels[32] * 0.3134765625
                        + kernels[33] * 0.3134765625
                        + kernels[34] * 0.3134765625
                        + kernels[35] * 0.3134765625
                        + kernels[36] * 0.3134765625
                        + kernels[37] * 0.3134765625
                        + kernels[38] * 0.3134765625
                        + kernels[39] * 0.3134765625
                        + kernels[40] * 0.3134765625
                        + kernels[41] * 0.3134765625
                        + kernels[42] * 0.3134765625
                        + kernels[43] * 0.3134765625
                        + kernels[44] * 0.3134765625
                        + kernels[45] * 0.3134765625
                        + kernels[46] * 0.3134765625
                        + kernels[47] * 0.3134765625
                        + kernels[48] * 0.3134765625
                        + kernels[49] * 0.3134765625
                        + kernels[50] * 0.3134765625
                        + kernels[51] * 0.3134765625
                        + kernels[52] * 0.3134765625
                        + kernels[53] * 0.3134765625
                        + kernels[54] * 0.3134765625
                        + kernels[55] * 0.3134765625
                        + kernels[56] * 0.3134765625
                        + kernels[57] * 0.3134765625
                        + kernels[58] * 0.3134765625
                        + kernels[59] * 0.3134765625
                        + kernels[60] * 0.3134765625
                        + kernels[61] * 0.3134765625
                        + kernels[62] * 0.3134765625
                        + kernels[63] * 0.3134765625
                        + kernels[64] * 0.3134765625
                        + kernels[65] * 0.3134765625
                        + kernels[66] * 0.3134765625
                        + kernels[67] * 0.3134765625
                        + kernels[68] * 0.3134765625
                        + kernels[69] * 0.3134765625
                        + kernels[70] * -1.6865234375
                        + kernels[71] * -1.6865234375
                        + kernels[72] * -1.6865234375
                        + kernels[73] * -1.6865234375
                        + kernels[74] * -1.6865234375
                        + kernels[75] * -1.6865234375
                        + kernels[76] * -1.6865234375
                        + kernels[77] * -1.6865234375
                        + kernels[78] * -1.6865234375
                        + kernels[79] * -1.6865234375
                        + kernels[80] * -1.6865234375
                        + kernels[81] * -1.6865234375
                        + kernels[82] * -1.6865234375
                        ;
                        decisions[1] = 0.647058823529
                        + kernels[0] * 0.3525390625
                        + kernels[1] * 0.3525390625
                        + kernels[2] * 0.3525390625
                        + kernels[3] * 0.3525390625
                        + kernels[4] * 0.3525390625
                        + kernels[5] * 0.3525390625
                        + kernels[6] * 0.3525390625
                        + kernels[7] * 0.3525390625
                        + kernels[8] * 0.3525390625
                        + kernels[9] * 0.3525390625
                        + kernels[10] * 0.3525390625
                        + kernels[11] * 0.3525390625
                        + kernels[12] * 0.3525390625
                        + kernels[13] * 0.3525390625
                        + kernels[14] * 0.3525390625
                        + kernels[15] * 0.353515625
                        + kernels[16] * 0.353515625
                        + kernels[17] * 0.353515625
                        + kernels[18] * 0.353515625
                        + kernels[19] * 0.353515625
                        + kernels[20] * 0.353515625
                        + kernels[21] * 0.353515625
                        + kernels[22] * 0.353515625
                        + kernels[23] * 0.353515625
                        + kernels[24] * 0.353515625
                        + kernels[25] * 0.353515625
                        + kernels[26] * 0.353515625
                        + kernels[27] * 0.353515625
                        + kernels[28] * 0.353515625
                        + kernels[29] * 0.353515625
                        + kernels[30] * 0.3525390625
                        + kernels[31] * 0.3525390625
                        + kernels[32] * 0.3525390625
                        + kernels[33] * 0.3525390625
                        + kernels[34] * 0.3525390625
                        + kernels[35] * 0.3525390625
                        + kernels[36] * 0.3525390625
                        + kernels[37] * 0.3525390625
                        + kernels[38] * 0.3525390625
                        + kernels[39] * 0.3525390625
                        + kernels[40] * 0.353515625
                        + kernels[41] * 0.353515625
                        + kernels[42] * 0.353515625
                        + kernels[43] * 0.353515625
                        + kernels[44] * 0.353515625
                        + kernels[45] * 0.353515625
                        + kernels[46] * 0.353515625
                        + kernels[47] * 0.353515625
                        + kernels[48] * 0.353515625
                        + kernels[49] * 0.353515625
                        + kernels[50] * 0.353515625
                        + kernels[51] * 0.353515625
                        + kernels[52] * 0.353515625
                        + kernels[53] * 0.353515625
                        + kernels[54] * 0.353515625
                        + kernels[55] * 0.353515625
                        + kernels[56] * 0.353515625
                        + kernels[57] * 0.353515625
                        + kernels[58] * 0.353515625
                        + kernels[59] * 0.353515625
                        + kernels[60] * 0.3525390625
                        + kernels[61] * 0.3525390625
                        + kernels[62] * 0.3525390625
                        + kernels[63] * 0.3525390625
                        + kernels[64] * 0.3525390625
                        + kernels[65] * 0.3525390625
                        + kernels[66] * 0.3525390625
                        + kernels[67] * 0.3525390625
                        + kernels[68] * 0.3525390625
                        + kernels[69] * 0.3525390625
                        + kernels[83] * -1.6474609375
                        + kernels[84] * -1.6474609375
                        + kernels[85] * -1.6474609375
                        + kernels[86] * -1.6474609375
                        + kernels[87] * -1.6474609375
                        + kernels[88] * -1.6474609375
                        + kernels[89] * -1.6474609375
                        + kernels[90] * -1.6474609375
                        + kernels[91] * -1.6474609375
                        + kernels[92] * -1.6474609375
                        + kernels[93] * -1.6474609375
                        + kernels[94] * -1.6474609375
                        + kernels[95] * -1.6474609375
                        + kernels[96] * -1.6474609375
                        + kernels[97] * -1.6474609375
                        ;
                        decisions[2] = 0.75
                        + kernels[0] * 0.25
                        + kernels[1] * 0.25
                        + kernels[2] * 0.25
                        + kernels[3] * 0.25
                        + kernels[4] * 0.25
                        + kernels[5] * 0.25
                        + kernels[6] * 0.25
                        + kernels[7] * 0.25
                        + kernels[8] * 0.25
                        + kernels[9] * 0.25
                        + kernels[10] * 0.25
                        + kernels[11] * 0.25
                        + kernels[12] * 0.25
                        + kernels[13] * 0.25
                        + kernels[14] * 0.25
                        + kernels[15] * 0.25
                        + kernels[16] * 0.25
                        + kernels[17] * 0.25
                        + kernels[18] * 0.25
                        + kernels[19] * 0.25
                        + kernels[20] * 0.25
                        + kernels[21] * 0.25
                        + kernels[22] * 0.25
                        + kernels[23] * 0.25
                        + kernels[24] * 0.25
                        + kernels[25] * 0.25
                        + kernels[26] * 0.25
                        + kernels[27] * 0.25
                        + kernels[28] * 0.25
                        + kernels[29] * 0.25
                        + kernels[30] * 0.25
                        + kernels[31] * 0.25
                        + kernels[32] * 0.25
                        + kernels[33] * 0.25
                        + kernels[34] * 0.25
                        + kernels[35] * 0.25
                        + kernels[36] * 0.25
                        + kernels[37] * 0.25
                        + kernels[38] * 0.25
                        + kernels[39] * 0.25
                        + kernels[40] * 0.25
                        + kernels[41] * 0.25
                        + kernels[42] * 0.25
                        + kernels[43] * 0.25
                        + kernels[44] * 0.25
                        + kernels[45] * 0.25
                        + kernels[46] * 0.25
                        + kernels[47] * 0.25
                        + kernels[48] * 0.25
                        + kernels[49] * 0.25
                        + kernels[50] * 0.25
                        + kernels[51] * 0.25
                        + kernels[52] * 0.25
                        + kernels[53] * 0.25
                        + kernels[54] * 0.25
                        + kernels[55] * 0.25
                        + kernels[56] * 0.25
                        + kernels[57] * 0.25
                        + kernels[58] * 0.25
                        + kernels[59] * 0.25
                        + kernels[60] * 0.25
                        + kernels[61] * 0.25
                        + kernels[62] * 0.25
                        + kernels[63] * 0.25
                        + kernels[64] * 0.25
                        + kernels[65] * 0.25
                        + kernels[66] * 0.25
                        + kernels[67] * 0.25
                        + kernels[68] * 0.25
                        + kernels[69] * 0.25
                        + kernels[98] * -1.75
                        + kernels[99] * -1.75
                        + kernels[100] * -1.75
                        + kernels[101] * -1.75
                        + kernels[102] * -1.75
                        + kernels[103] * -1.75
                        + kernels[104] * -1.75
                        + kernels[105] * -1.75
                        + kernels[106] * -1.75
                        + kernels[107] * -1.75
                        ;
                        decisions[3] = 0.707317073171
                        + kernels[0] * 0.2919921875
                        + kernels[1] * 0.2919921875
                        + kernels[2] * 0.2919921875
                        + kernels[3] * 0.2919921875
                        + kernels[4] * 0.2919921875
                        + kernels[5] * 0.2919921875
                        + kernels[6] * 0.29296875
                        + kernels[7] * 0.29296875
                        + kernels[8] * 0.29296875
                        + kernels[9] * 0.29296875
                        + kernels[10] * 0.29296875
                        + kernels[11] * 0.29296875
                        + kernels[12] * 0.29296875
                        + kernels[13] * 0.29296875
                        + kernels[14] * 0.29296875
                        + kernels[15] * 0.29296875
                        + kernels[16] * 0.29296875
                        + kernels[17] * 0.29296875
                        + kernels[18] * 0.29296875
                        + kernels[19] * 0.29296875
                        + kernels[20] * 0.29296875
                        + kernels[21] * 0.29296875
                        + kernels[22] * 0.29296875
                        + kernels[23] * 0.29296875
                        + kernels[24] * 0.29296875
                        + kernels[25] * 0.29296875
                        + kernels[26] * 0.29296875
                        + kernels[27] * 0.29296875
                        + kernels[28] * 0.29296875
                        + kernels[29] * 0.29296875
                        + kernels[30] * 0.29296875
                        + kernels[31] * 0.29296875
                        + kernels[32] * 0.29296875
                        + kernels[33] * 0.29296875
                        + kernels[34] * 0.29296875
                        + kernels[35] * 0.29296875
                        + kernels[36] * 0.29296875
                        + kernels[37] * 0.29296875
                        + kernels[38] * 0.29296875
                        + kernels[39] * 0.29296875
                        + kernels[40] * 0.29296875
                        + kernels[41] * 0.29296875
                        + kernels[42] * 0.29296875
                        + kernels[43] * 0.29296875
                        + kernels[44] * 0.29296875
                        + kernels[45] * 0.29296875
                        + kernels[46] * 0.29296875
                        + kernels[47] * 0.29296875
                        + kernels[48] * 0.29296875
                        + kernels[49] * 0.29296875
                        + kernels[50] * 0.29296875
                        + kernels[51] * 0.29296875
                        + kernels[52] * 0.29296875
                        + kernels[53] * 0.29296875
                        + kernels[54] * 0.29296875
                        + kernels[55] * 0.29296875
                        + kernels[56] * 0.29296875
                        + kernels[57] * 0.29296875
                        + kernels[58] * 0.29296875
                        + kernels[59] * 0.29296875
                        + kernels[60] * 0.29296875
                        + kernels[61] * 0.29296875
                        + kernels[62] * 0.29296875
                        + kernels[63] * 0.29296875
                        + kernels[64] * 0.2919921875
                        + kernels[65] * 0.2919921875
                        + kernels[66] * 0.2919921875
                        + kernels[67] * 0.2919921875
                        + kernels[68] * 0.2919921875
                        + kernels[69] * 0.2919921875
                        + kernels[108] * -1.7080078125
                        + kernels[109] * -1.7080078125
                        + kernels[110] * -1.7080078125
                        + kernels[111] * -1.7080078125
                        + kernels[112] * -1.7080078125
                        + kernels[113] * -1.7080078125
                        + kernels[114] * -1.7080078125
                        + kernels[115] * -1.7080078125
                        + kernels[116] * -1.7080078125
                        + kernels[117] * -1.7080078125
                        + kernels[118] * -1.7080078125
                        + kernels[119] * -1.7080078125
                        ;
                        decisions[4] = -0.071428571429
                        + kernels[70] * 1.0712890625
                        + kernels[71] * 1.0712890625
                        + kernels[72] * 1.0712890625
                        + kernels[73] * 1.0712890625
                        + kernels[74] * 1.0712890625
                        + kernels[75] * 1.0712890625
                        + kernels[76] * 1.0712890625
                        + kernels[77] * 1.0712890625
                        + kernels[78] * 1.0712890625
                        + kernels[79] * 1.0712890625
                        + kernels[80] * 1.0712890625
                        + kernels[81] * 1.0712890625
                        + kernels[82] * 1.072265625
                        + kernels[83] * -0.927734375
                        + kernels[84] * -0.927734375
                        + kernels[85] * -0.927734375
                        + kernels[86] * -0.9287109375
                        + kernels[87] * -0.9287109375
                        + kernels[88] * -0.9287109375
                        + kernels[89] * -0.9287109375
                        + kernels[90] * -0.9287109375
                        + kernels[91] * -0.9287109375
                        + kernels[92] * -0.9287109375
                        + kernels[93] * -0.9287109375
                        + kernels[94] * -0.9287109375
                        + kernels[95] * -0.9287109375
                        + kernels[96] * -0.9287109375
                        + kernels[97] * -0.9287109375
                        ;
                        decisions[5] = 0.130434782609
                        + kernels[70] * 0.869140625
                        + kernels[71] * 0.8701171875
                        + kernels[72] * 0.8701171875
                        + kernels[73] * 0.8701171875
                        + kernels[74] * 0.8701171875
                        + kernels[75] * 0.8701171875
                        + kernels[76] * 0.869140625
                        + kernels[77] * 0.869140625
                        + kernels[78] * 0.869140625
                        + kernels[79] * 0.869140625
                        + kernels[80] * 0.869140625
                        + kernels[81] * 0.869140625
                        + kernels[82] * 0.869140625
                        + kernels[98] * -1.130859375
                        + kernels[99] * -1.130859375
                        + kernels[100] * -1.130859375
                        + kernels[101] * -1.130859375
                        + kernels[102] * -1.130859375
                        + kernels[103] * -1.1298828125
                        + kernels[104] * -1.1298828125
                        + kernels[105] * -1.1298828125
                        + kernels[106] * -1.1298828125
                        + kernels[107] * -1.1298828125
                        ;
                        decisions[6] = 0.04
                        + kernels[70] * 0.9599609375
                        + kernels[71] * 0.9609375
                        + kernels[72] * 0.9599609375
                        + kernels[73] * 0.9599609375
                        + kernels[74] * 0.9599609375
                        + kernels[75] * 0.9599609375
                        + kernels[76] * 0.9599609375
                        + kernels[77] * 0.9599609375
                        + kernels[78] * 0.9599609375
                        + kernels[79] * 0.9599609375
                        + kernels[80] * 0.9599609375
                        + kernels[81] * 0.9599609375
                        + kernels[82] * 0.9599609375
                        + kernels[108] * -1.0400390625
                        + kernels[109] * -1.0400390625
                        + kernels[110] * -1.0400390625
                        + kernels[111] * -1.0400390625
                        + kernels[112] * -1.0400390625
                        + kernels[113] * -1.0400390625
                        + kernels[114] * -1.0400390625
                        + kernels[115] * -1.0400390625
                        + kernels[116] * -1.0400390625
                        + kernels[117] * -1.0400390625
                        + kernels[118] * -1.0400390625
                        + kernels[119] * -1.0400390625
                        ;
                        decisions[7] = 0.2
                        + kernels[83] * 0.7998046875
                        + kernels[84] * 0.7998046875
                        + kernels[85] * 0.7998046875
                        + kernels[86] * 0.7998046875
                        + kernels[87] * 0.7998046875
                        + kernels[88] * 0.80078125
                        + kernels[89] * 0.80078125
                        + kernels[90] * 0.80078125
                        + kernels[91] * 0.80078125
                        + kernels[92] * 0.80078125
                        + kernels[93] * 0.7998046875
                        + kernels[94] * 0.7998046875
                        + kernels[95] * 0.7998046875
                        + kernels[96] * 0.7998046875
                        + kernels[97] * 0.7998046875
                        + kernels[98] * -1.2001953125
                        + kernels[99] * -1.2001953125
                        + kernels[100] * -1.2001953125
                        + kernels[101] * -1.2001953125
                        + kernels[102] * -1.2001953125
                        + kernels[103] * -1.2001953125
                        + kernels[104] * -1.2001953125
                        + kernels[105] * -1.2001953125
                        + kernels[106] * -1.2001953125
                        + kernels[107] * -1.2001953125
                        ;
                        decisions[8] = 0.111111111111
                        + kernels[83] * 0.888671875
                        + kernels[84] * 0.888671875
                        + kernels[85] * 0.888671875
                        + kernels[86] * 0.8896484375
                        + kernels[87] * 0.8896484375
                        + kernels[88] * 0.8896484375
                        + kernels[89] * 0.888671875
                        + kernels[90] * 0.888671875
                        + kernels[91] * 0.888671875
                        + kernels[92] * 0.888671875
                        + kernels[93] * 0.888671875
                        + kernels[94] * 0.888671875
                        + kernels[95] * 0.888671875
                        + kernels[96] * 0.888671875
                        + kernels[97] * 0.888671875
                        + kernels[108] * -1.111328125
                        + kernels[109] * -1.111328125
                        + kernels[110] * -1.111328125
                        + kernels[111] * -1.111328125
                        + kernels[112] * -1.111328125
                        + kernels[113] * -1.111328125
                        + kernels[114] * -1.111328125
                        + kernels[115] * -1.111328125
                        + kernels[116] * -1.111328125
                        + kernels[117] * -1.1103515625
                        + kernels[118] * -1.1103515625
                        + kernels[119] * -1.1103515625
                        ;
                        decisions[9] = -0.090909090909
                        + kernels[98] * 1.0908203125
                        + kernels[99] * 1.0908203125
                        + kernels[100] * 1.091796875
                        + kernels[101] * 1.091796875
                        + kernels[102] * 1.0908203125
                        + kernels[103] * 1.0908203125
                        + kernels[104] * 1.0908203125
                        + kernels[105] * 1.0908203125
                        + kernels[106] * 1.0908203125
                        + kernels[107] * 1.0908203125
                        + kernels[108] * -0.9091796875
                        + kernels[109] * -0.9091796875
                        + kernels[110] * -0.9091796875
                        + kernels[111] * -0.9091796875
                        + kernels[112] * -0.9091796875
                        + kernels[113] * -0.9091796875
                        + kernels[114] * -0.9091796875
                        + kernels[115] * -0.9091796875
                        + kernels[116] * -0.9091796875
                        + kernels[117] * -0.9091796875
                        + kernels[118] * -0.9091796875
                        + kernels[119] * -0.9091796875
                        ;
                        votes[decisions[0] > 0 ? 0 : 1] += 1;
                        votes[decisions[1] > 0 ? 0 : 2] += 1;
                        votes[decisions[2] > 0 ? 0 : 3] += 1;
                        votes[decisions[3] > 0 ? 0 : 4] += 1;
                        votes[decisions[4] > 0 ? 1 : 2] += 1;
                        votes[decisions[5] > 0 ? 1 : 3] += 1;
                        votes[decisions[6] > 0 ? 1 : 4] += 1;
                        votes[decisions[7] > 0 ? 2 : 3] += 1;
                        votes[decisions[8] > 0 ? 2 : 4] += 1;
                        votes[decisions[9] > 0 ? 3 : 4] += 1;
                        int val = votes[0];
                        int idx = 0;

                        for (int i = 1; i < 5; i++) {
                            if (votes[i] > val) {
                                val = votes[i];
                                idx = i;
                            }
                        }

                        return idx;
                    }

                protected:
                    /**
                    * Compute kernel between feature vector and support vector.
                    * Kernel type: rbf
                    */
                    float compute_kernel(float *x, ...) {
                        va_list w;
                        va_start(w, 20);
                        float kernel = 0.0;

                        for (uint16_t i = 0; i < 20; i++) {
                            kernel += pow(x[i] - va_arg(w, double), 2);
                        }

                        return exp(-0.61 * kernel);
                    }
                };
            }
        }
    }